468 64
电 0.0003750401 0.0062322174 -0.010948031 -0.0062674205 0.0031371713 -0.0037489063 0.004567442 0.0028918912 -0.006687435 0.010822291 -0.000935865 -0.009505134 0.0077955285 0.005814021 0.008474641 0.0007863156 -0.0021636318 0.0039398232 0.0060836077 -0.0011072782 -0.0060381596 -0.008530729 0.0094701685 -0.005493334 -0.0030684795 -0.0062158266 2.4277513e-05 -0.00039808487 0.0012004848 0.0029457929 -0.00026745017 -0.003356934 -0.00025461864 0.005090318 0.008840803 -0.0025232772 -0.00619443 -0.0008265435 0.0070970296 -0.0061917943 0.0024618278 -0.006158479 0.0058922716 -0.0054928875 -0.0006367865 -0.0034330739 0.004384917 0.0030042806 0.0038483015 -0.0021366894 -0.0039475253 -0.0024823954 0.007852327 -0.005254901 -0.001452152 -0.0016019697 -0.002040097 -8.537334e-05 -0.0015477136 0.0034476463 -0.0016057406 -0.006978449 -0.001428044 0.002905358
的 -0.0015723035 -0.0028359217 -0.005078347 0.003587024 -0.006945551 -0.0021921545 -0.0028298714 0.007200337 0.008055756 0.001394012 0.007497661 0.0021660388 -0.005327911 0.0049005025 0.008125758 -0.0012263275 0.0057144305 -0.003911205 0.0018163451 -0.0034286308 -0.0031951936 0.0026626566 -0.00038048025 0.0066819205 -0.0049835206 0.002394641 -0.0037446734 -0.003098641 0.00015396505 -0.0013267474 -0.0026159394 -0.003593595 -0.0006582055 0.0025061066 -0.0017970183 -0.007807717 0.0023855474 -0.0064775078 0.005100587 -0.004419263 -0.007820764 -0.0041533234 -0.0015559526 -0.0062613683 -0.001794389 -0.008605265 0.0015618459 0.0066647884 0.0046462705 0.00025828846 -0.005284661 -0.00088553806 0.00280521 -0.0022620352 0.007675489 -0.0041955374 -0.0046935156 0.00029460262 -0.00046226522 -0.005720437 0.00033356974 0.008297706 0.0043836553 -0.0046681087
路 -0.00085210404 0.0034661256 -0.0044818437 -0.0018065011 0.0040206956 0.0011745767 0.003581029 -0.0038300888 -0.0022495787 0.0037817773 0.0031087871 -0.008354528 0.0016715806 0.002751646 -0.001927163 -0.004383551 0.0051054982 0.005890125 -0.0010291779 -0.00568687 -0.0024815074 -0.0058491565 0.008835594 -0.0052883644 0.0030691978 -0.0072075506 -0.0067377514 -0.0017582179 -0.005580384 -0.0046464335 0.0020583707 0.004278239 -0.007950273 -0.004379809 -0.007106812 0.0039153444 0.0063112513 -0.006238793 -0.006478802 -0.0061520278 -0.008402647 0.0010898458 0.0072260485 -0.0035741648 -0.0062400266 -0.005825806 0.0046531614 0.0058008954 -0.0047416524 -0.0037359467 -0.000963239 -0.0027529325 0.004499196 0.0049822265 0.0026460604 -0.009919379 0.0028110968 -0.00040471298 -0.004694742 -0.0063874926 -0.0057331184 -0.0044929152 0.0033106434 -0.006986221
流 0.002529343 -0.0026764434 -0.0018016782 -0.001843245 0.0035905878 -0.0036335879 0.0038621186 -0.0026925453 0.0025292414 -0.0065045925 0.008811447 -0.006271715 0.0033984252 0.0053300066 -0.0056898086 0.00824599 0.0036869817 0.0025552919 0.006351151 -0.0046579926 -0.0027199003 0.0059328335 0.0053206845 -0.0022396585 0.0020566334 -0.008135423 0.0026707994 0.007063408 0.0017469252 -0.0023338813 0.0059526186 -0.0026078555 -0.0009925871 -0.0008727533 -0.0004314233 0.0008902532 -0.0067065526 0.0037558675 0.0066260234 -0.0062941085 -0.0046366868 -0.0013117928 0.00788781 0.0064095776 0.0028354388 0.00032561645 -0.00036109495 -0.00032965915 0.00074590865 -9.9325385e-05 0.0019743196 -0.0007003182 0.0051838234 0.0044445973 -0.005972429 -0.0035678316 0.0064854776 -0.004492327 -0.0038880617 -0.0026172902 0.007976417 0.004910673 0.004864736 -0.00320088
是 0.0033401106 0.0005593041 0.0051749614 0.0037378636 0.0005039348 -0.001396119 -0.006437542 -0.0015158242 0.0041637304 0.003680961 -0.0048608626 0.0032774708 0.00041125767 -0.0033783894 -0.0020362241 -0.0041391123 -0.003341808 -0.0033811494 0.006677265 0.002977691 0.007951025 0.0064701647 0.0056988806 0.0002837822 -0.0064642685 0.005259726 -0.0073545254 -0.0041625 0.00607927 -0.0066412506 0.00024986427 0.004910047 -0.00687811 -0.00086903817 -0.0037364226 -0.0025694591 0.0026615863 0.0055783633 -0.006818334 0.0014533026 -0.0005075937 0.0075258403 0.0017605309 0.0004675087 0.0018747959 0.0018729522 0.0007660627 0.0012983563 0.0047745765 -0.007150484 0.0075510335 -0.007329026 0.0038141059 -0.00020225949 0.007110328 0.0008212701 -0.0008312775 9.8655226e-05 -0.0045975447 0.004129981 0.0032321091 0.0046259705 0.006679332 0.0038020152
压 -0.0047829314 0.0015542165 -0.006539931 -0.0023939726 -0.00729483 -0.0025600824 0.0038832596 0.002833444 0.0015127097 -0.0005984334 0.0008958175 -0.0064329687 0.004527302 0.0035158608 -0.0060186917 -0.00038379928 0.0026902251 -0.006971714 0.00082754897 -0.0027754256 0.0050621782 -0.00034968148 0.0047912807 -0.004238412 0.0075861653 -0.00025785 -0.00542076 -0.0041760365 -0.0028835512 0.0020432654 0.0012160053 -0.00055081176 -0.004282422 0.0005620584 0.007242132 -0.008002877 -0.0054414175 -0.0055967076 0.0070093423 -0.0011737784 -0.0068914057 0.0035975578 -0.0040241275 0.0008686419 -0.00064747536 -0.0051179323 0.0059496104 -0.0048166215 -0.0019069873 0.004525671 -0.0076581794 0.004533562 -0.0004270839 -0.005220724 -0.0014631642 -0.005321163 -0.00086086517 0.0065862006 0.0019398585 -0.0019630804 0.00058565976 0.0038867667 -0.0075013787 -0.0014880825
率 0.0057957345 -0.0038640858 -2.8357701e-05 -0.005906344 0.0046105534 0.0037531462 -0.0045582913 -0.0017099483 -0.0028675476 -0.0033841468 0.010590829 -0.008147092 -0.0019208968 0.008305565 -0.004259395 0.0068434305 0.008100881 -0.0023739317 -0.007268223 -0.0068071564 -0.007170433 -0.0006083076 -0.00085688237 0.0017442927 0.004215882 0.004477428 0.004846126 0.0020614418 0.00087547704 0.0032990302 2.1703922e-06 -0.0005992738 0.0021913864 -0.0033439726 -0.0029515722 0.0036958156 -0.0047272416 0.0022132872 -0.005814436 -0.00078731135 -0.00030913073 -0.0011584337 0.00086204224 0.0018095678 -0.0032116012 -0.002085249 -0.004059546 -0.0023477392 0.0016908649 0.0029164553 -0.0057035517 0.0009279709 0.0009913483 0.0067285704 0.0065917885 0.0010560283 -0.008857017 -0.0029161535 0.00018545844 -0.003187131 0.001202789 0.0043975525 0.0012072001 -0.0042236405
阻 0.0069252877 0.0013311628 0.0024750216 0.00012486643 -0.0054635843 -0.005605374 -0.004594328 -0.0005681915 -0.0009644105 0.00086512644 0.006376127 -0.006628673 0.004545905 0.005560684 0.0019180407 -0.005557793 -0.0037412301 0.0045103924 -0.0028302711 0.00045705203 -0.0016546103 -0.0017999619 0.005511315 0.005682444 0.0024814517 -0.0038388493 -0.0019953249 -0.004856856 -0.006278432 0.0010550523 -0.0026673372 -0.001928754 -0.0016377133 0.0017098152 -0.0023576631 0.0068483446 0.003777228 -0.0036230155 -0.000772918 -0.008308595 -0.006721192 0.0065623657 0.0075118206 -0.00566388 -0.004020774 -0.004101645 -0.0068246927 0.008852975 -0.0036705518 -0.005949488 -0.006011766 0.004685267 0.0037871352 -0.0041094082 -0.006644591 0.0063708676 0.006214349 -0.00392394 -0.0043522087 0.0038103745 -0.0075611356 0.0010835178 0.0035322155 -0.000782657
数 0.002576164 0.0009538601 -0.0060456307 0.0014426059 -0.004097608 -0.0020311219 -0.008273705 0.0015942832 -0.000507864 0.00890874 0.00020437087 -0.0037347772 0.0081820525 0.008502645 0.0064091426 -0.0062828143 -0.0035455795 -0.0001254184 -0.0043712086 0.0026028957 0.005743719 0.0060776994 0.0008933788 0.0018204224 -0.001053251 0.003377448 0.0029870535 0.0057328185 0.0048097605 0.0012501641 -0.0031074125 -0.008322194 0.0074169626 0.006824918 0.0004399975 0.00030008322 0.0027523786 0.0052738218 -0.0020807376 -0.007908169 0.00021951566 0.007179842 -0.00017419788 -0.0047716163 -0.0020342825 -0.0065784194 -0.003308886 0.00039417806 0.0045606066 0.0018569282 0.007299125 0.003968002 0.0074411123 0.0050156824 -0.0048085144 -0.009252915 -0.00080436165 -0.005292837 -0.008243093 -0.006142013 -0.0067949477 -0.000108518056 -0.00049516774 0.004064918
一 -0.0027533462 0.0015952314 -0.006458 -0.0031140463 9.835317e-05 0.006111101 0.0030511606 0.008003817 -0.003567431 0.0074449424 0.0018714684 -0.003804704 0.008601452 -0.0011468887 -0.0010303848 0.0022246598 -0.0027415035 0.005642126 -0.0051641306 0.0065820115 0.0062818616 -0.00505306 0.004304571 -0.0011521387 -0.0008806949 -0.0069439546 0.0053866603 -0.0049090814 -0.0021444834 -0.001397899 -0.00038753968 -0.0038919311 -0.004593303 -0.005699147 0.0038267043 0.00064948766 -0.0066073393 0.0042824787 -0.0005609196 -0.007225156 -0.007936318 -0.0013550454 0.0014768287 -0.000980796 0.00086643617 0.0057853786 0.0054119383 -0.0034828726 0.0001802913 -0.0076564844 0.002558693 0.0030862214 0.004606071 0.0018443724 0.0039041543 -0.0049450877 -0.004566669 0.0011929217 -0.0028986428 0.00015582821 -0.0002769077 4.9848903e-05 0.0015333793 -0.00059845747
源 -0.0048931916 0.0013770695 0.0022784816 -0.0041602 0.0022122373 0.00048523795 -0.006137475 0.006629282 0.00039713533 -0.005347195 0.009919198 -0.0016922443 0.00656966 0.0014321393 -0.0028595338 0.004640636 0.0047381786 0.0019868321 0.0033945434 0.006367304 0.006569334 0.0066427966 -0.002496481 0.0033175356 0.0011111585 -0.004658684 0.0069159428 -0.006541653 -0.0017956538 0.0035995531 -0.0011765175 -0.0061212606 -0.0015381527 -0.0008290584 0.0027101133 -0.0046127867 0.0027967033 -0.006868484 0.006486797 -0.0027624734 0.0018519117 -0.0051882504 0.0022959022 -0.003962579 -0.0023161662 0.004860331 -0.0039747343 0.0030414087 -0.0045836545 0.0036879256 0.003088509 0.00057579944 -0.0040245624 -0.0022071074 0.008012823 0.00095982576 -0.0051494977 -0.005946628 0.0028545328 0.0061242892 0.0035475043 -0.003242931 -0.003586876 0.006063171
为 -0.0018937589 -0.0015094806 0.0065510646 -0.0028982551 0.0041404776 -0.0030801196 -0.008258495 0.0049082558 -0.0043156845 0.0035919354 0.008731763 0.00065854745 0.0025853028 0.0075254594 0.0031530522 -0.0046523395 -0.0042117657 -0.007193471 -0.005666743 -0.0056066522 0.0075382222 0.0056599746 0.008337027 -0.0039936034 0.00772811 -0.0028949308 -0.0073788813 0.006916735 0.006543609 0.0018754975 -0.0064984327 -0.0079816505 0.005037653 -0.0034374676 -0.0058885883 0.0025399853 -0.0053636446 -0.0040997835 -0.005581959 0.002392952 -0.0067567895 -0.00330205 0.0067012585 0.00784548 0.0035402828 -0.0009172787 -0.0077798082 0.006530608 0.004925844 0.0041513727 -0.007270598 -0.007776273 -0.00013206371 0.005053169 0.0076446002 0.004149942 0.006389075 -0.006496285 -0.00024053983 -0.0064862464 -0.004309047 -0.0031955522 0.0037803322 0.0041337404
时 -0.0022050356 0.007372227 -0.0008407168 -0.008802591 0.0055029183 0.0039297817 0.0071708127 0.008144326 -0.0004384953 0.009103836 -0.0011988158 -0.004682168 0.007249007 0.001459952 0.001141167 0.004257719 0.00040066315 0.0047237705 -0.00489425 0.004090328 0.0045232596 0.00057598884 0.0030418388 -0.0040991334 0.00074236037 -0.0022570554 -0.0009478449 -0.002136518 0.002138594 -0.00473818 0.008127909 -0.005075479 -0.0031280664 0.00030620472 0.003567746 0.0060031423 -0.0065030307 0.004375033 -0.0016507817 0.0022318936 -0.0016828541 0.0054597068 7.812463e-05 0.0031688206 -0.006016041 0.003003021 -0.008404685 0.0029629217 -0.00037670718 -0.004422415 0.007191132 -0.0049955663 -0.0006312972 0.0013322888 0.0008360198 -0.0028201537 -0.0055932314 -0.0057290527 0.0063607 0.00053240714 0.004762104 -0.005402885 -0.0073259836 -0.0026129743
功 -0.0009814341 0.0005962731 -0.004423467 -0.0003500789 0.0012642639 -0.006589683 -0.0059839 0.00810348 -0.0073541496 0.004037644 0.0052370327 0.0045323283 -0.00021151765 0.002027 -0.007627001 0.0052125943 0.0017813141 0.004867238 -0.006083824 0.00056459854 0.0027728225 -0.0068703317 0.0034058748 -0.0049475026 0.004700755 -0.0046951063 -0.0023878657 -0.0020442563 -0.0030523671 0.0050621177 -7.912196e-05 -0.0049439664 -0.00019015762 -0.00220605 0.0051562283 -0.008008741 0.0030265904 -0.005026726 0.0076008444 -0.007875455 -0.00875337 0.0013600265 -0.006601549 0.007570819 0.0019446545 0.0048708995 -0.0020113664 0.003040645 -0.0048324685 -0.0067051295 -0.0015642273 -0.004345238 -0.0011940049 -0.0024415564 0.00284824 0.0057251803 0.0019683281 -0.0056776647 -0.008221341 -0.0060385563 -0.0003901305 -0.0067835767 -0.00062032556 -0.004458876
个 0.0005672931 0.0018731547 -0.008099069 -0.005887625 -0.0050688954 0.0068382137 0.0043649636 0.0007536048 -0.0047510443 -0.00014211725 0.0033070748 0.004489473 0.00078490097 0.0074094883 0.0073023173 -0.00047047331 -0.0064205662 -0.006225847 0.0012833774 -0.0010413489 0.0075003 0.003433176 0.008537517 -0.0061856736 -0.0075685154 0.003678621 -0.0069646174 0.006448016 0.0011750368 -0.0061436384 0.0010660882 -0.0069939955 -0.0010890971 0.006337869 -0.0011570735 -0.005488062 -0.004746238 -0.005231673 0.0003505506 0.0003999337 -0.0006885632 -0.0066154115 -0.00087921065 -0.0043702605 -0.0016535202 -0.004229333 0.0050771884 0.0072242585 -0.0014605954 -0.003534545 -0.0064908895 0.0066262963 0.0054075154 0.0059082364 -0.0041829413 0.004935644 0.0014037252 -0.0024654628 0.0026841857 0.006383344 0.00026817605 0.0012271339 -0.0029111868 -0.0029476685
于 0.006575627 0.00014159807 0.0051136976 0.0005198916 0.0065683415 0.0040673255 0.0013618647 -0.0014133988 -0.0066316407 0.009173102 -0.0031733273 -0.008382059 -0.004743185 0.0028388435 0.0048600873 -0.0023941107 0.0069527403 -0.0034658276 -0.0050365273 0.006645895 -0.0023707114 -0.0053281835 0.0020903049 -0.0025728159 -0.0011573413 -0.0033561965 0.0066805687 -0.0023371296 0.0046707084 -0.0056372723 -0.0011172156 -0.0067756497 0.006129728 0.0030424919 -0.0013963524 -0.005926043 0.002017768 -0.0012732254 -0.0061054206 -0.004153565 0.0066019306 0.0067342683 0.008512662 -0.0032874774 0.0061869114 0.005379018 0.004392224 -0.0055467966 -0.0059588286 0.0037581949 -0.006578885 0.0069698994 0.0036495407 0.004744441 0.0005114383 0.001905737 0.00024564064 0.0038077403 0.0038598876 -0.0047666887 0.004354109 0.0011388522 -0.0053272513 0.0019898189
应 -0.0050955103 -0.004271764 -0.006019533 0.004172816 0.0028307955 -0.0065101655 -0.002285509 -0.0045583127 -0.0057196342 0.0016985588 0.0070132436 -0.0065726885 0.0053615742 0.005551154 -0.007121349 -0.0074977614 0.002729868 -0.001682904 -0.0012115579 -0.0013139179 0.004531993 0.0035957205 0.0049409745 0.0019695645 0.00027965018 0.0015968808 -0.005488891 0.0053733396 -0.0013122063 0.0008164673 -0.0011259356 -0.004396929 0.0021680258 -0.0060787653 -0.0046793786 -0.005652959 -0.0073113334 -0.0024236208 0.005379809 -0.006893817 0.0070422357 -0.004472223 0.0050781555 -0.0036726638 0.0011425901 0.0060940864 -0.0055380138 -0.0015180027 -0.00030663717 -0.0051206383 -0.0014083241 0.0072097816 -0.0043758233 -0.0075197057 0.0042439527 0.0066072764 0.0027138083 -0.0038993617 0.0052969772 0.004797069 0.0033769538 0.005825996 -0.0026252766 -0.005343656
和 0.0053087273 0.003039882 -0.0022341465 0.00043091143 -0.0031296746 0.006779964 -0.005990317 -0.004736142 -0.006558788 -0.0044885147 -0.0023041253 -0.007832157 -0.002795858 0.0014759136 0.006053051 0.0064658495 -0.00701825 0.00013817695 0.004158893 -0.0028433981 -0.0059277983 0.00270536 -0.00052548584 7.978938e-05 -0.0017612384 -0.006292592 0.0048182253 -0.004826436 -0.0035764761 0.008344533 -0.0071101747 -0.002038929 -0.0055904635 0.0011824863 -0.0008032521 0.003757602 -0.0028076833 0.00639373 -0.00025506338 -0.007898683 -0.00081690634 0.0036380216 0.0006580904 0.0050286334 0.004264487 -0.007787401 0.007477766 -0.002996126 -0.00086807064 0.006141509 0.0049840626 -0.0036285182 -0.00237561 0.004229088 0.0052025374 0.006855515 0.0022360913 -0.0020521204 -4.9578473e-05 -0.0021564532 0.006223638 -0.006072258 0.005788368 -0.0005971311
等 0.0012109417 -0.00024145354 0.0045954953 -0.0017054697 -0.0019343002 0.0020855137 0.0040697 0.0014591244 0.0035435187 0.006708229 0.0022440674 -0.008505358 -0.0056771347 -0.0065233107 0.0033775487 -0.00309773 -0.002727478 0.0051588793 -0.0049910657 -0.0024619058 0.005940981 -0.004806129 0.0020586834 0.006759771 -0.00051741884 -0.0056645214 -0.0053265947 -0.0026225492 -0.0020580029 -0.0011848424 -0.000905648 -0.0047906716 0.003848264 0.0075911214 0.004094689 -0.008364105 -0.005604914 -0.0013579398 -4.4375687e-05 -0.0023423075 -0.004117892 -2.5686764e-05 -0.004092372 -0.0069130394 0.005132193 -0.005284616 0.005462428 0.0012231988 0.008339504 -0.0013168119 -0.0074626044 -0.0027125485 0.0035492212 -0.0039982935 -0.004716008 -0.0050501334 -0.00095712126 2.8161587e-05 0.005490895 -0.007849861 0.0029030044 0.008020804 5.4568958e-05 0.006171404
性 -0.00016954742 0.0014742779 -0.0008709246 -0.007783539 -0.0020632297 -0.00264802 0.007066425 0.0014552164 0.0057684146 0.0032498518 -0.003002481 0.0005310871 0.006092725 0.0067517785 0.0018476613 0.0045847236 -0.0027317046 -0.0037326724 0.0061425376 -0.004718637 0.00310249 0.0054377182 0.0019180636 0.005412992 0.0048942375 0.00055353297 0.0064369943 0.006872809 0.004335278 -0.0036994482 -0.0045581344 -0.008222548 -0.0053178393 -0.0024699545 -0.0038564608 -0.0029861904 0.0063973027 0.0028458035 -0.0027391266 -0.004728757 0.006048502 0.0020642215 0.002782519 -0.0013884862 0.0030261304 0.005573426 0.0068772524 0.00648885 0.004485944 -0.001996159 0.0028698978 0.006295597 0.00030047205 -0.003455781 -0.00018911582 -0.0049642934 0.00019366706 -0.0005680172 -0.0027912336 0.007141206 -0.0078533 -0.0021005203 0.00275721 -0.0018789665
响 -0.004456546 -0.006456417 0.0064714444 -0.008020855 0.0025412426 0.001917832 0.0058894125 -0.00053541013 0.00072400086 0.00015380622 0.008358628 -0.0077853384 -0.0031883344 4.763534e-05 -0.0009836553 -0.003776842 -0.0059270333 0.0029814483 -0.00068612513 -0.0065976223 -0.0028354642 -0.002958641 0.0058432473 0.0026403237 0.0027908147 -0.007022652 -0.0046169586 0.0060165357 -0.000676103 0.00033830066 0.007641138 -0.0051449803 -0.0022035076 0.0017952739 -0.0069614807 -0.007497416 -0.00015005395 0.007069003 -0.0018442739 0.0033090676 -0.003360874 -0.00094833865 0.00789732 -0.00506118 0.006345937 -0.0012530707 -0.0037099773 0.008064238 0.0014941227 -0.0018463595 0.00691277 -0.0060810437 0.008129006 0.0057195486 0.0033373327 0.0066652186 -0.0017653498 0.0040862095 -0.0077527417 0.004433821 -0.00027451752 0.0068980125 0.0056583127 0.0006303739
中 -0.0022092538 -0.0012133027 0.00066576764 0.0040592398 0.0015535966 -0.0022659986 0.0057638595 0.0028497812 0.0014872263 0.005401256 0.005546905 -0.0014566116 0.0026832516 0.00747999 -0.00026342284 -0.0004232722 -0.0010131208 -0.0030023723 -0.0049450607 -0.0036803018 0.005565208 -0.004095501 -0.0022843354 0.0007057548 -0.0010571419 -0.008148708 0.00290159 -0.00044125633 0.0013193114 0.00057257095 -0.0018672309 -0.004284356 0.0028869705 -0.0006154009 0.0054183514 -0.006376857 -0.0048348405 -0.006948948 0.001688629 -0.0063362974 -0.0053050313 0.00235157 0.007916814 0.005138856 -0.0012935541 -0.008352287 0.006520346 -0.0009079923 0.0074808 -0.0044737887 -0.00075474405 0.0011608434 -0.0035140603 -0.0059971907 -0.0019966753 -0.0072832587 0.0032326018 0.0061236336 -0.0077828574 0.006246781 -0.0058507193 6.021116e-05 -0.005945327 -0.0046403706
相 0.0067299986 0.0053741815 0.005733737 -0.0041173943 0.007215925 -0.0037030247 0.004802931 0.00481962 0.0028054118 0.0018202949 -0.0029215934 0.0049762516 -0.0017682309 0.007287331 -0.005751134 0.0012056208 0.0024911705 -0.0018570897 0.00635166 -0.003410454 0.00044600104 -0.0037134797 -0.005874855 -0.00749568 0.0049307644 0.0060963416 -0.006955663 -0.0006836982 -0.0029896367 -0.004332922 0.0028463057 -0.0034884817 -0.0064501246 -0.0039733453 -0.004319602 -0.0022607732 -0.0044450164 0.0013783764 0.0072324243 0.0010499896 0.0022225422 0.0045203497 0.0048880824 0.0046732565 -0.008027588 0.0035275572 -0.0006172956 0.004285734 -0.0060755834 -0.0062436475 0.0016617909 0.004336069 -0.0025189086 -0.0077531408 -0.0054558907 -0.005487968 -0.007036556 -0.00079750037 0.0064540487 -0.0014794426 -0.0044517973 0.0015008791 0.0029608419 0.00686458
感 0.008437901 -0.00074329536 -0.0012947321 0.0031036334 0.0063350564 -0.0033282146 0.003896437 0.0018826358 -0.0027261963 -0.006320311 0.0009947929 0.0020079154 0.0014251791 -0.005745626 0.006518779 -0.0030983132 -0.0005356305 -0.0035488505 0.00043476312 0.0011142147 -0.003651577 0.0046421248 -0.001437338 0.004671999 -0.001042386 0.004824166 0.00034882454 -0.0074969637 -0.0077901953 -0.0001537712 0.00046437804 -0.0046052556 -0.00031270523 -0.0017724027 -0.0020798515 0.006176667 -0.0024999348 0.0006195015 -0.0027972264 0.00659049 -0.0021523444 -0.0058632907 0.00370485 -0.0046923044 -0.0056373226 -0.0076609594 -0.00017754197 -0.0022364582 0.002296268 0.0059241313 -0.004899011 -0.0055871652 0.004644772 0.004883234 0.007031219 0.0015737925 0.0025827556 -0.0075473553 -0.0052707405 0.0072520203 -0.00043118146 0.0010061061 -0.0051755495 -0.0057200124
在 0.0062775253 0.007129846 -0.00042731687 0.0023322948 -0.0033920386 0.00024585193 -0.0021007967 0.0003018983 0.0075761857 0.0013887772 0.0018936675 -0.006763598 -0.0069136163 -0.00703154 -0.0051614796 -0.0040091863 0.0046836226 0.00025342975 0.004126656 -0.006692646 -0.0059627895 0.0006718405 0.0003186874 0.005947081 -0.0057874047 0.0044041974 0.0068138624 0.0002006322 -0.0050163153 0.0062510534 -0.0053875763 -0.0025818553 -0.0072590886 0.005010813 -0.006547851 0.00023080717 -0.00052629475 0.004783883 0.00593797 -0.0053283274 0.004741442 -0.0031968267 0.0040032286 -0.0044569643 0.0057657934 -0.0069462936 -0.00093101064 -0.004910892 -0.0018341752 0.000446528 -0.0015084556 0.006490872 -0.0011962153 0.0017622861 0.0026171615 0.0050793635 0.0055412836 0.002790119 0.0017105966 -2.2643644e-05 0.00068714283 -0.0058181575 -0.0062035485 -0.001932873
有 -0.004213656 0.0064433403 0.00012875564 0.00083704677 0.006298239 -0.006947814 0.003913798 0.004340882 0.0010069008 0.008522383 0.0047113765 -0.0004869905 -0.0007391875 0.0062695313 -0.00027037732 0.0078114923 -0.0054781013 0.003932625 0.0041209175 0.0057340506 0.006405889 0.0051236222 -0.00014672808 -0.00641177 0.0055530104 0.007074564 -0.0016030116 -0.00061668945 0.0034973156 0.0024568122 0.0045231003 0.0042290837 -0.005822649 -0.0057606525 -0.0064319316 -0.0035636865 0.0030274591 -0.0054291175 -0.0039476072 -0.007976912 -0.0020214864 0.00011859628 0.0005919216 -0.0016848143 0.0054054786 0.001722751 -0.0017001948 0.0038748705 0.0027592175 0.0055954936 0.0025681644 -0.0058481377 -0.0004481669 0.0054178894 0.0015894679 -0.008068582 -0.00063469 -0.0041376995 -0.008529123 0.000102070015 -0.0040873215 -0.00355875 0.0023953894 -0.0038425848
量 0.0049321945 0.0042034895 -0.002706461 -0.00014795264 0.0024853472 -0.0075602736 0.0032744082 -0.0056119566 0.008056681 0.0065634637 -0.001419867 0.00544143 0.0017600977 0.0057638944 -0.0041757035 0.0080905 0.004617349 -0.0023313574 0.0057793395 0.004031089 0.00039986076 7.738108e-05 0.0050728316 -0.0047533507 0.007645676 0.0023419766 -0.00041125304 0.0021524825 0.0039018928 -0.0045034476 0.0057636094 -0.0063807964 -0.007015495 -0.004167582 -0.006332408 0.0015080957 0.0055150026 0.0004622117 -0.0025389513 8.7302746e-05 -0.0045985435 0.00086561573 -0.001090225 0.0031556494 0.0008479464 -0.0013655381 -0.006610017 -0.0035530813 0.008373522 -0.0036266788 0.00043501327 8.5697146e-05 0.0067181443 -0.0020776056 -0.0024799788 -0.0051545394 -0.0041991374 0.007444305 -0.005871222 -0.0038550869 -0.00021340839 0.0037506206 0.00041154903 0.0009580696
值 0.0018513767 -0.0058203526 0.0016453345 0.002472715 -0.0076159285 0.0028271386 -0.0003978023 0.00061568717 0.00012073243 0.005239619 0.0076860413 0.0036883196 0.0026218349 -0.0031034208 -0.0011169658 0.00649186 0.0038384101 -0.006995265 0.002178198 0.0037342904 0.0009266414 -0.008245236 -0.0057172393 0.0046675988 0.0018100665 -0.0020850254 0.006423821 -0.004076198 -0.007388557 0.0023444856 0.002397115 -0.0007605083 0.0060227294 0.00044822338 0.00503454 0.0031136065 0.0059216237 0.0018204437 0.00035617838 -0.0065310746 -0.007949278 0.0069067855 -0.0007552935 0.0068356576 0.0055184937 -0.0056120567 -0.0009973544 0.0049100327 -0.004699923 0.005655697 -0.0009917978 -0.005367962 -0.0021797102 -0.0015222607 -0.0052808626 -0.005040163 -0.0044882786 -0.0023743915 0.0046728346 -0.007119054 0.0019544398 0.0029809035 0.0054189973 -0.005842418
件 0.003526492 -0.004839927 0.004151615 0.005143267 -0.0022969174 -0.0041748006 0.0030123156 -0.002611186 0.002871351 0.0003394387 0.0038593682 -0.0003082832 0.00093529414 3.0073123e-05 0.0012141203 0.006876086 -0.0071166498 -0.00086793426 -0.007405329 -0.0008129382 0.0018070133 0.0055350442 0.0034450558 0.0059205987 -0.005715371 0.0030116662 -0.0021252504 0.004177482 -0.0013215882 0.007856913 0.007940703 -0.008306449 -0.005119974 -0.0059827566 0.003120332 -0.006987893 0.0009644113 0.0021364505 0.0013916006 -0.0028855428 -0.0047853673 0.0037584142 0.0033464762 0.006653044 0.006006334 -0.00077492895 -0.0044633527 0.00255366 0.0067836996 -0.002501085 -0.0021886078 0.0014702191 -0.0042599337 0.00091984554 -0.0030295504 -0.0074946983 -0.003630049 0.00071451865 0.0027234526 -0.0067075724 -0.005794587 0.005351824 0.0025648754 -0.0040587066
端 0.0025479973 -0.0007016503 0.0012149827 0.0032226625 0.0032091357 -0.0046684947 -0.0060304557 -0.0013803483 0.0077396985 0.00064318354 0.0067393696 0.006393726 0.0074191997 0.0019111104 -0.003518235 0.0044869566 -0.004132972 -0.0020986032 0.003741803 -0.00013701442 -0.0057700947 0.0056141927 -0.0008490661 0.0003171423 -0.0019250927 -0.0049801646 -0.0055001983 -0.002812435 -0.002925522 -0.0064393966 0.0020723094 -0.0008803566 -0.004044732 -0.0038350513 -0.0018209249 -0.0074225203 0.004398088 -1.9942112e-05 -0.0010950422 -0.002494932 -0.0045305905 0.0033438187 0.0022068808 0.0039308285 0.0018715555 0.0064406847 -0.0050455984 0.008136858 -0.0028526084 0.0013777501 0.0023828389 -0.0046179523 -0.0005129957 0.0046304055 -0.0028132382 -0.008982611 0.0017704323 0.0077135502 0.0013080416 -0.0036148874 0.007079065 0.0026136094 0.0009860874 -0.005751194
线 -0.0054598325 0.0017619417 0.002560242 -0.0035894893 -0.003032599 0.00636435 -0.005852293 0.0067147803 0.0022042093 0.0009586589 0.0013485698 -0.009230526 -0.004227859 0.0066350093 -0.0064511695 -0.0005957218 0.0021754496 0.0047832695 -0.006354462 -0.0025954922 -0.0059067463 0.0011359183 0.00709418 -0.0032222206 0.0029333099 0.0060034203 0.007826607 -0.0056139366 -0.002000679 0.006691491 -0.0054715606 -0.0058223386 0.0012336907 -0.006100432 0.0030720243 -0.0006476472 0.001979624 0.0055068387 0.004214694 -0.002722605 -0.0020286462 0.0073697073 0.00010149323 -0.0073801787 -0.007140387 -0.00092498836 0.0027497024 -0.0011766962 0.0060588047 -0.0068484917 -0.0059229676 0.0073950985 0.0013615412 0.0009084083 -0.0028900946 0.0009091977 -0.0011541529 -0.0073699285 -0.0062041217 -0.0076725055 0.003561148 -0.0066658426 0.007160378 -0.0015157368
元 -0.0041981563 -0.0026133058 0.0067673274 0.0060186484 -0.007191175 -0.0075012525 -0.005217759 -0.0035238077 -0.0032773193 0.0023172463 -0.0036659376 -0.0008681275 -0.0036089048 -0.005824924 -0.0006797751 -0.0003141847 -0.0049543884 0.0069366707 0.0024707632 0.0063942447 0.00022923025 -0.0003933539 0.0020974604 -0.007210394 0.0036482678 0.0020597111 0.007114393 -0.0066137193 -0.002991734 0.0006515939 -0.0057720845 0.0063911886 0.0058288723 0.00356019 -0.004779656 -0.0028600474 0.0026252414 -0.0063292533 -0.0066939755 0.003148909 0.0041726446 -0.0021579394 0.0069710496 0.0038153555 -0.0001348832 0.0055375104 -0.006548902 0.0010195053 0.0075730695 -0.00487262 0.0051352154 0.0003828471 0.0018025484 0.0013493102 -0.0050649047 0.00173809 0.0006228874 -0.0013791237 -0.00018760674 -0.0021389716 -0.0054066936 0.007092414 0.00017845865 -0.0018006335
两 0.007458753 -0.0043233647 0.0046004322 -0.0034283802 -0.0054703536 -0.0043675 0.0045566238 0.002884735 -0.0029436555 0.007080562 -0.0012577934 -0.0050208974 0.0067807045 -0.0070979963 0.0029267163 0.0050403676 -0.0010802216 0.001205391 0.0070280326 -0.005753268 0.0066966163 0.0031737979 -0.0052408804 4.9119375e-05 0.0014084375 0.0064144568 0.00016434662 0.00017904611 0.004786326 -0.0014560304 -0.006480474 -0.006548901 0.0012622474 -0.001364708 -2.19247e-05 -0.005696292 0.0003192755 -0.0069974344 0.0025867657 -0.005351942 -0.008253858 0.00012217177 -0.0070849746 -0.007489249 0.0019976012 -0.00057840475 0.004135681 0.0022804441 -0.005418923 0.0018436474 0.0038165643 0.0067742276 -0.007257206 0.0062719234 0.00017471096 0.004562226 -0.0064773746 0.0027676416 -0.0038178714 0.0044603664 -0.0017242325 0.004555228 -0.004324954 0.0011735494
容 0.00654193 -0.0072914637 0.002390251 -0.0030276214 0.001831234 0.0066343104 0.001143509 0.0026823052 -0.0023199688 -0.002726903 0.0017340201 0.0037716317 0.0009379029 -0.00586301 -0.0027304743 -0.005903051 -0.006356791 0.0018095509 0.0057705464 0.0033956259 -0.006925273 0.0029613574 0.006154954 0.0011967677 -0.006640039 -0.007200737 0.0021370423 -0.007836822 0.0053964104 0.002238746 0.00481878 0.0025187258 0.0032415146 -0.0009927425 -0.001736755 -0.0036982503 -0.0033927104 0.003982255 0.0035289633 0.005368857 -0.0015135125 0.003917701 -0.0064102863 -0.00013088826 -0.00060858746 0.001279233 0.003804185 0.0014165505 0.0034383293 0.007125605 -0.0035984947 0.0015437282 -0.0027924099 -0.005810744 -0.002738177 -0.002183505 0.0072350386 0.0056884154 -0.002680594 -0.0010950934 0.0063318326 -0.0028421301 -0.0007514969 -0.004959717
与 -0.0039356695 0.00586903 -0.004495414 0.006382059 0.0011413961 -0.0055658193 -0.0012207086 -0.0021940328 0.0037977807 0.0025986342 0.0020372574 0.0006557689 0.006072384 -0.0067763114 -0.0033113337 -0.005502033 0.0020601011 -0.00077205256 0.004599412 -0.001371285 -0.0057948334 0.006643658 -0.007338246 -0.0050904155 0.0070786765 -0.006487569 -0.00611774 -0.0012942593 -0.0015659737 0.0070644664 0.0044547226 -0.0017682615 0.0029837743 -0.0027582548 -7.814474e-05 -0.0020999964 0.0069322144 -0.0028154557 -0.0052724327 0.00021194108 -0.00047601495 0.0029661208 0.0064130006 0.0046886466 -0.0037379703 -0.00420917 0.0066641467 -0.002110086 0.0071784696 -0.0040173274 0.0042927912 0.005062436 -0.0037679737 -0.003414266 -0.0017690426 -0.0011136452 -0.0011536567 0.0075102565 -0.008070068 0.007181641 -0.007505539 -0.002719037 -0.004361059 0.0061110677
用 0.0018303721 -0.001063193 -0.0026267865 0.006043045 0.004052109 -0.007574626 0.0036987038 -0.0025780173 0.0038434437 0.0059067355 0.0017399072 0.0054938723 0.004172311 -0.0045542414 0.003205423 -5.2546817e-05 -0.0069676433 -0.0042454703 0.0070613776 -0.0067051374 -0.0057491604 -0.0021009059 -0.004678323 0.004866411 -0.006200851 0.0038995638 0.0027586296 0.0018806756 0.006759991 0.0066554653 0.00181095 -0.005798796 0.006429222 -0.00705095 -0.0010943267 0.006026124 -0.0006770812 0.0066753053 -0.0015646664 -0.0031389268 0.0026691963 -0.0029261827 -0.0031545039 0.0065582735 -0.00575598 0.005641714 -0.001402798 0.00044993317 0.0057187583 -0.0071080755 0.0031379017 0.0017414375 0.0019191009 -0.003509792 0.0016869392 -0.0037984236 -0.00029552827 -0.0012396165 -0.0003248263 -0.0066110184 -0.0018818903 0.005230109 -0.0015624324 -0.0032170855
间 0.00049636967 -0.0032029802 -0.001885783 0.0026126225 -0.006395052 0.005503301 -0.0033287643 -0.0009049243 0.0020010122 0.00208107 -0.00527021 0.0045945724 0.008111079 0.007410609 -0.005091342 0.0061344486 -0.002598388 0.0020485055 -0.00047927268 0.0017370118 -6.013805e-05 -0.0005878211 0.0053643594 0.00042777535 -0.0072512263 -0.008210425 -0.00013361454 0.0047097644 -0.0073460797 -0.0042893826 -0.0037285327 0.006582849 0.00343038 -0.0065898737 -0.006210686 -0.0030876193 -0.0010340521 -0.006993676 0.007077065 -0.0068305586 -0.0069582695 0.0038769464 0.00476061 0.0047616204 -0.0055553475 0.0039172377 -0.001199279 -0.0058568874 0.0071198395 -0.0037009136 -0.0009011162 0.0042351754 -0.00471946 0.006008907 0.0072176126 -0.00069307606 -0.0007608535 -0.0064430693 -0.00093974074 0.0045300564 0.0066159996 0.0042480417 0.0016357888 0.004353846
联 0.0025722345 -0.0068683513 -0.0019866133 -0.004081083 -0.004205833 0.0024436906 -0.0049504223 0.001027439 0.0015950904 -0.0047336663 -0.005286669 0.0023355193 0.0035636183 0.0056325067 0.0024879049 0.0075658783 -0.005724858 -0.0068104807 -0.0024251516 0.0059665204 -0.007662964 -0.0038729329 -0.005877629 0.0073624025 -0.007662761 0.0003179243 0.00018566058 -0.004943862 -0.002628073 0.00010243856 -0.0054914355 -0.00444466 -0.0055484534 0.0034104546 0.0071305204 -0.0052911416 0.00022614421 -0.0046302774 -0.006731266 0.0033312924 0.004157651 0.0075600417 0.0017574764 -0.003929796 -0.0013247484 -0.0032326523 -0.0038983417 0.0031887193 0.00032283843 -0.0028132289 0.0040631657 0.0033822195 0.0036584267 0.0049316715 -0.006739338 -0.007822621 0.0062995157 0.0033383328 0.0029143598 -0.0039832806 0.0050890534 -0.0014873572 0.0017861951 0.004149817
能 0.008117808 -0.004979375 -0.005128924 0.0017928319 -0.0028333266 0.0050368425 -0.00040273354 -0.006214253 5.75039e-05 -0.004846612 0.0023128001 0.0046337126 -0.0012430118 0.003824984 0.004892355 0.007800068 -0.0034139156 0.002904756 -0.007759534 0.0030959304 0.0012039125 0.0012180299 -0.0030967763 0.0065510413 0.006233393 -0.0025964675 -0.0067980527 -0.0054714037 -0.0004358419 -0.0011068473 -0.006087582 -0.0025398508 -0.001979304 -0.00063211727 -0.0073237834 -0.006533426 0.0021093215 0.004078556 0.0026540242 0.0062611247 0.0039959056 -0.0042296457 0.008206502 0.004652216 0.004451817 -0.006268544 0.005068133 0.0017636159 0.008405151 -0.0055446518 -0.0019058565 -0.00015597786 0.00077585515 -0.0022397786 -0.006174643 0.0041195396 -0.0026683148 -0.005982333 0.0020994365 -0.0025166143 -0.0007981777 -0.0021183894 0.0031292306 0.00082574005
不 0.0028792564 0.0011118284 0.0071844137 -0.0037820127 -0.004729043 0.004801796 0.0051203496 0.00039138016 0.0035784878 0.005627689 -4.041483e-05 0.0042098346 0.0026451421 0.0023635575 -0.003183851 0.0036834723 -0.003094741 0.0049222703 -0.005264651 -0.0078047602 0.0016776478 0.0028511547 -0.006137956 0.0060538156 0.0047059366 -0.0056364797 0.0044463035 0.0020918678 -0.0031465585 0.0027480812 -0.0064926725 0.0018848653 0.0023484302 0.0044417395 0.007569444 0.0065192836 -0.0057350127 -0.0052950466 -0.004585518 -0.0027194787 -0.005994173 -0.0027440407 -0.0010639599 0.006554732 0.0012882571 -0.0035449106 -3.3594293e-05 0.0048835566 0.000811752 -0.00082186185 0.0045234924 0.0007076966 0.0036997302 -0.000510469 0.0071552712 0.004958088 -0.00069241895 -0.007785262 0.0047135516 0.004566694 -0.006948586 -0.0063796244 -0.003934075 -0.004355658
器 0.00041428738 -0.0048415465 -0.0013417565 -1.6313606e-05 -0.0051013296 0.006672427 -0.007607201 0.002448801 -0.0069767544 -0.0058106645 0.00069046917 -0.0053804945 0.0068755103 0.0036110487 0.00249655 0.0004942105 -0.005501603 -0.004179563 0.002597502 -0.0016510186 -0.005083512 -0.0026293683 0.0031527122 -6.270029e-05 0.0007750286 -0.00079520745 0.005340848 0.002958967 -0.002158348 0.0051121516 0.0002335831 -0.004396482 0.0029124483 -0.006987957 -0.004677397 -0.003275815 -0.0071390695 0.0058411155 -0.005712627 0.005168482 0.0041369894 -0.005145835 0.0011318778 -0.00512706 -0.006029326 -0.0032073562 0.00723368 0.0036718121 -0.0027327947 -0.00466719 -0.0018531338 0.0068175183 0.007883928 -0.004733956 0.00089536654 0.0005532204 -0.0005192093 8.5063235e-05 -0.0010557042 0.0039954255 -0.004396838 0.003601992 -0.0026746427 -0.0053335275
网 -0.0032265417 -0.0061216494 0.0006410439 0.002608677 -0.0020348525 0.0046275496 -0.0011002463 0.0076280236 0.008589411 0.00107739 0.0025689427 0.0046856496 0.0016632925 -0.0066906675 -0.0012425879 -0.005566096 4.5784887e-05 -5.165346e-05 -0.005003962 -0.0024049506 -0.0029651301 -0.00051809056 -0.00071470544 -0.0022534262 0.007105273 -0.0026337632 0.0012728367 0.0021014116 0.007053262 0.008606177 0.0020734 0.0017695802 -0.00088471506 -0.003104724 0.008193118 -0.005212165 -0.006808326 0.0066569364 -0.004311027 0.001565798 0.0001139835 -0.0021033885 0.0043072444 0.0056466404 -0.0012024723 -0.0063914945 -0.0038498512 0.0063316105 -0.0040635127 -0.006472044 -0.0011629822 0.004777387 0.007692289 0.0046679024 -0.0061686346 -0.00698693 -0.006230517 0.0072868215 -0.006172072 -0.008105972 0.0046968367 -0.0041120783 -0.0005707018 0.006095777
之 0.00139326 0.004473901 -0.0012024686 -0.0003836639 -0.0067269974 -0.00242426 0.0033046731 0.0020803276 -0.0062002586 -0.004899586 0.0020318637 -0.007700273 0.0006921744 0.0028958379 -0.0012246891 -0.0070645735 0.0042737024 0.006265273 -0.002942122 0.0049813446 -0.004484959 0.0044829706 -0.0048891124 0.0048253033 0.004361353 -0.006704293 -0.0021375935 -0.001183 -0.0026277078 0.0012707771 -0.0012938975 -0.0024493376 -0.0035615521 -0.007512823 0.0041735633 -0.0030536551 0.0061009466 0.004101544 -0.0067545185 -0.002579708 -0.0031223204 0.0014485834 -0.0029735097 0.00521674 -0.0060983687 -0.0045018466 0.002419843 0.003065775 0.0032174257 -0.0060091857 0.0017603579 -0.007179744 -0.004054922 -0.007637899 0.00016811518 -0.0018437367 -0.0017943796 0.005512778 -0.0024550376 0.004831113 -0.0015085539 -0.006303652 -0.0004172556 0.006075962
变 0.0062600365 0.0049430146 -0.008119692 0.0033497203 0.0027226175 -0.0024696165 -0.004055412 -0.00534667 -0.0038675063 0.0044671693 -0.0036542239 -0.004816323 -0.0014186357 0.0071161776 0.0022983805 -0.00087953534 -0.0024530787 0.0009837411 -0.0045294273 -0.0044385702 0.0035104223 -0.004391122 0.003051945 -0.0016022761 0.0039257016 0.00043261866 -0.00040242323 -0.0020976453 0.004001275 -0.0015909408 -0.0010891415 0.004675622 -0.0033129237 0.0043210946 -0.0012605542 0.000883863 -0.0026597518 0.0076309317 0.0051446776 -0.0044353176 0.0036356435 0.006229313 0.0018862524 0.0013818808 0.005741436 0.0039302167 0.006348646 -0.0023091715 -0.002457376 -0.0063989903 -0.0062387586 0.0050111096 -0.005302183 0.0038405876 0.0034053554 -0.0044636736 -0.003003806 0.0066113663 -0.0025349224 -0.0046171797 -0.0072972644 -0.0002516017 0.0004534266 -0.005504428
点 -0.0072354437 -0.0022345886 -0.0075990907 -0.005352476 0.0041792905 -0.00043824618 0.0016013872 0.0022364857 0.0015627496 0.007911941 -0.003051 -0.00061638234 0.0068670516 0.0030621686 0.005009325 0.0019186967 -0.0057981415 0.0009779406 -0.004648924 -0.0059952503 -0.0053164507 0.0005114359 0.003712839 0.0020676444 -0.0012844779 0.0006413183 0.0068178214 0.0023085885 -0.00487675 0.0068665096 -0.0041776104 -0.0072840806 -0.0011698058 0.0025965914 -0.006339577 0.0012663862 -0.0011640394 0.007470546 -0.0048215566 -0.0058440403 -0.0048227496 0.0070740036 0.0019504669 0.0014535398 0.0024062393 -0.0032576218 0.0029417996 0.0076066954 -0.0028215435 -0.00528351 -0.0016513573 -0.0031533276 0.0067515452 -0.0001495121 0.0050561847 0.001638862 0.0022805287 0.0008013691 -0.0027811637 -0.0017565143 -0.0074267243 -0.0009881167 0.0028545647 -0.004452378
定 -0.005572893 0.0050437427 -0.0046783225 -0.0054175635 0.0022195876 -0.005093591 9.332702e-05 0.005455925 -0.0048798383 -0.0071758702 0.0031504522 0.005733299 -0.0055772 -0.0050922018 -0.0033172448 -0.0037780316 3.104072e-05 0.0021295995 0.0051524783 -0.0055240607 0.007653919 0.005050968 0.0016604437 -0.005880063 -0.0071082786 -0.007858986 0.007489301 0.0032169404 0.004093448 0.0037352915 0.0057110614 -0.007095313 -0.0034564065 0.006033267 0.00013881132 0.004906058 0.0049588964 0.0006430436 -0.0062005203 -0.0011625072 -0.0021690247 0.0078044576 -0.0014208835 0.00087074813 -0.0064268042 -0.0020438726 0.0046776114 -0.0037525364 0.0037922058 0.0025630272 -0.00721993 0.004888841 0.0017719007 -0.0054253745 -0.007478966 -0.008161343 -0.0055348994 0.00658563 0.0038513332 0.0073639224 0.0033003709 -0.0059978333 0.0033047078 -0.0057286243
分 0.005443866 0.003774178 -0.0061647487 -0.008849519 0.003934369 0.006570608 0.0044786604 -0.0014741623 0.00035568565 0.0044553117 0.005905484 -0.0012063761 -0.0005261332 0.0077605536 -0.0045366497 -0.00020180877 -0.0021708114 0.003866602 -0.0030259213 -0.001794155 -0.0004474742 -0.0018122614 0.0052616335 -0.0073584635 0.0037994315 0.0006245343 0.0040569445 0.0046783956 -0.00117768 -0.0047991322 0.007490637 0.005909434 -0.0072266543 -0.003643137 -0.00485717 -9.041814e-05 -0.0041898875 0.0024577389 -0.007194047 0.004821693 0.0050246646 0.0044703647 -0.0014515382 0.0033057146 -0.007127776 -0.006823842 -0.002065972 0.007900145 0.0022014522 0.0075870077 -0.0055618654 -0.0030869907 -0.006810751 0.003138074 0.0067387833 0.0012970277 -0.0029039965 0.007182474 -0.0055077607 -0.0050570276 -0.0013268465 0.0027944744 0.0070942263 -0.0029707453
指 -0.005774652 0.005761354 -0.0027000532 -0.0052454425 -0.0009893418 0.005451994 0.0017680293 -0.0008924941 0.0033925797 0.0043206387 0.004569391 -0.0076498706 -0.0045698727 -0.005243023 -0.003587923 0.005541124 -0.0002915734 -0.0032337129 -0.0055918065 -0.0052276216 -0.0051622097 -0.00196105 0.00083315576 -0.006630439 0.0034771624 -0.0074787084 -0.0043332377 0.0022437896 0.004746009 0.005110874 0.0055727446 -0.0022353895 0.00575899 0.005437907 -0.00554896 -0.004038266 -0.0031711883 0.0067392145 0.006683276 -0.007771178 -0.003306758 0.0021917506 -0.0021794504 -0.00756284 -0.0025720082 0.000966293 0.0040524746 0.008464097 0.0018957115 -0.006527213 -0.0039427257 -5.537755e-06 0.00021154045 0.002596717 -0.00019146183 -0.0060746754 -0.0015303462 0.007579431 0.003048175 -0.007300832 0.005955062 0.0059349723 0.0042974907 -0.0035000837
频 -0.0044085956 -0.00028529548 0.0032639692 0.0038831322 -0.002743626 -0.0030009272 -0.004905156 -0.003226366 0.0016407272 0.008183986 0.0040638433 -0.0077346857 0.0053677824 0.0012052078 0.0025934712 0.0038379568 -0.0054651876 -0.0018375667 0.0036541526 -0.008422404 -0.005553778 -0.0072095324 -0.0023551062 0.00017255415 0.007410103 -0.00407705 -0.0010520498 0.0016881224 0.0016742629 0.0066039027 0.008233362 -0.0020296997 0.001777936 0.0050509996 -0.005674047 0.0006352761 -0.00079771015 -0.000659462 0.006939431 0.0019257038 -0.005134443 0.0065367892 0.00053958304 -0.002599381 -0.0064226156 0.0034157925 0.0028639582 0.008671661 -0.003070577 0.005057466 0.0037035698 0.00160328 -7.230588e-05 -0.0052791014 0.005972963 -0.005039935 -0.0030180328 -0.0016005804 0.0044668308 0.0053316914 -0.00045655918 -0.00076008576 0.005262926 -0.0016668603
参 -0.0014695706 -0.0022776246 -0.008407163 -0.00851186 0.007984201 -0.0045677526 -0.0021967986 0.008257994 -0.0042827 0.0072536403 0.001081356 0.003444686 0.0026188495 0.0026951088 -0.0010664673 0.007112945 -0.0009504472 0.004928535 0.006163917 -0.0042640385 -0.006941822 -0.0028248313 0.0004905262 0.0038499087 -0.0012226247 0.005915275 0.006172824 -0.0034011663 0.001176389 0.0064522927 0.0060874885 -0.0018845187 -0.0061461427 -0.0025620656 0.0038920108 -0.0034648988 0.0069047427 0.00039880554 0.004261238 0.0011538243 -0.005088141 -0.0068383794 0.0022563303 0.0006793587 0.0036190865 -0.0038757438 -0.0025878805 0.007234657 0.0025307436 -0.0030302592 0.0024068917 -0.0070410683 0.003348104 -0.0032239323 0.004285113 0.0008493495 -0.0064562033 -0.004171621 0.00048681043 0.001967525 0.00045623365 0.0057479115 -0.0051798797 0.006635904
或 0.007963239 0.0066637713 -0.007316248 -0.00083198765 0.0049721594 -0.005284199 -2.9037832e-05 0.008937517 0.003076353 -0.002663984 0.0048293555 0.003164765 0.001879049 -0.0043971185 0.005275402 0.0073364167 -0.0037079344 0.004699783 -0.00036519856 0.0051453332 0.008337931 -0.0027087287 0.008012708 -0.006251144 0.008643281 0.006926834 -0.0032819877 -0.0038730293 0.005222948 -0.0027319281 -0.00267479 -0.0071470817 0.0003786007 0.0062831645 0.0067667942 -0.0052381167 -0.001666529 -0.001787444 -0.005018397 0.0037108955 -0.0010555916 -0.0035100258 0.004414584 -0.0063228398 -0.0056411014 -0.0036155025 -0.0078826165 -0.0022276794 0.009285317 0.0013838812 -0.0050207614 0.00013853986 -0.0031983135 0.0033902149 0.0072859754 -0.003806699 -0.0060164887 -0.0018643936 -0.0017238811 0.00023154286 -7.65492e-05 -0.0055110953 0.007007226 -0.0017658928
大 -0.00474722 -0.004891828 -0.003098846 -0.0010201941 0.0053960136 0.0034109286 -0.000306833 -0.0009935608 -0.0012024121 0.005572886 -0.0033059446 -0.005247056 0.0011255379 -0.006733284 -0.0023017726 0.0056694597 -0.0074981805 -0.007856832 -0.0045161666 -0.000744816 -0.0036345893 -0.0064832275 0.00034004508 0.0011905048 0.006027204 -0.0028602185 0.0049860654 0.0064979866 0.0022311802 -0.005061773 0.0025630586 -0.008597323 -0.0023526454 -0.0033590582 0.0046499916 -0.000444622 -0.0003377187 -0.0035431993 0.0045421273 0.004028916 -0.0023773024 -0.005506199 0.0041110287 -0.0041574393 0.006833757 0.004252454 0.0013910141 0.006994415 0.0039048125 -0.0061793188 -0.0012349237 0.00073236803 0.0008227736 0.0015143447 0.00568863 0.0054671285 -0.006551248 -0.00021760035 -0.004112276 -0.0018707265 -0.007391805 0.005808906 0.00084249914 0.0031504177
以 -0.0065923925 -0.0071625724 -0.00783762 0.0018678146 8.281776e-05 -0.002080496 0.0014318607 -0.004153509 -0.006244222 -0.003155413 -0.0004921848 -0.0015069682 0.0038676232 0.00037627318 -0.0066212374 0.003499135 0.005809334 -0.00016493992 -0.00014789932 0.0057116575 -0.0052471613 -0.0075896243 0.00686771 0.0034381056 0.0046286075 0.002675581 0.007882884 -0.004476739 -0.0003476738 0.006383773 -0.0016279836 -0.0071147466 0.0060502826 0.003349095 -0.00045245094 0.0009819047 0.004046186 -0.006941292 0.0044277175 0.004117653 -0.008387464 0.00065671996 0.0074162083 0.0045293407 0.0018335271 -0.0009483917 0.0059582447 -0.0034310278 0.00044694805 0.0059148925 -0.0042005614 0.0057161516 -0.0068574897 0.00060891814 0.006905985 0.0031284757 -0.004726086 0.005817241 0.00601046 0.005061332 -0.0006601015 -0.0037272845 0.00270734 -0.0017121839
当 -0.005941581 0.0005024681 0.0032724233 -0.0012336905 -0.0040066624 -0.004765882 -0.003641581 -0.0059500365 0.0065997136 3.0418269e-05 0.0041971635 -0.008113461 0.0016778054 -0.003009444 0.007124073 -0.0041834004 0.0011874825 0.006024734 -0.006439653 0.0019395747 -0.0022913339 -0.005495939 -0.00588801 -0.004167157 0.007278984 -8.248434e-05 -0.0019051655 -0.0017683104 0.0010614856 0.008007775 -0.00059705833 -0.0040865876 0.006116894 0.0065405397 -0.006547309 -0.00055325124 0.0025561675 0.0001627923 -0.0047392445 -0.00043584095 0.0068234857 -0.0070247203 0.0016657789 0.008089646 -0.0008900937 -0.0072645163 -0.0006906125 0.0022349416 0.00042951826 0.00017062483 0.0033718965 -0.003313919 -0.0044800527 -0.0010192759 -0.003931552 0.0016696925 -0.008361235 -0.006925568 -0.0070958487 -0.0020283186 -0.004575878 0.0017027382 -0.007325815 -0.0040722843
方 0.0013018292 -0.0001415746 -0.00640947 0.005645465 -0.007465107 -0.0074187145 0.00014142499 0.0027699443 0.002505386 0.008001364 0.0073933834 -0.0009854117 1.6264731e-06 -0.0013291684 -0.0018023924 -0.00041185968 0.002162769 -0.006170368 0.0005472833 0.0035719925 -0.00570933 0.005852591 -0.0069320253 -0.0028459763 0.0011392471 -0.0018360092 -0.0038175874 -0.0012267167 -0.0037534146 0.007900149 -0.0038429948 0.0065372773 0.00067439687 0.0037187226 0.005646256 -0.0029822818 0.005215888 0.00550531 -0.0032926719 0.0044757356 -0.00425788 0.0029855622 0.0077216877 0.0045548268 -0.0056826663 0.00038686302 -0.00752557 0.002525412 -0.0030867297 -0.007675818 0.0056149177 0.0021385427 0.005140135 -0.007063945 -0.005156512 0.0034010909 0.0035266173 -0.0065147537 0.0025150767 -0.0025006088 -0.0036795442 -0.0012074673 0.0048752828 0.0070001204
抗 0.0018354827 0.00696599 0.0030751398 -0.0070276684 -0.006243641 -0.0022498684 0.00039330768 0.007229378 0.0013813366 -0.00040453445 0.00045511368 -0.0035789167 0.005406329 -0.0068777637 0.00065867766 -0.0044886274 0.0066226986 0.004299822 -0.0021141728 -0.0051566316 0.0041372967 0.00022486968 -0.006750008 -0.0015484144 0.006546671 0.007825243 -0.0018139799 0.0030186165 -0.0014483436 -0.00015568122 0.0031223053 -0.007979556 0.00026972673 0.0053720414 0.00071911025 0.005168747 0.0012648711 -0.003948398 -0.0019716648 0.0016738654 -0.000976044 0.0074656107 0.004365017 -0.0077180695 -0.005402221 -0.00056828244 -0.0034111398 -0.007249935 0.006144626 -0.004779409 -0.0063468344 -3.2698073e-05 0.0006481792 0.0045043253 0.0038483418 -0.0029961243 -0.0029595532 -0.0038155534 0.007420161 0.004000993 0.007562968 0.007115167 -0.0054157125 -0.005525533
正 -0.00027631476 -0.00048824048 -0.0014574435 -0.0025100845 -0.0023630306 -0.0028346893 0.0006268122 -0.004270324 -0.0070664072 -0.004441187 0.0026292051 -0.005649156 0.0032563985 0.002040259 -0.005758479 -0.0020614946 0.005089377 -0.004853759 -0.000307648 0.003971848 0.0036945373 -0.0032943212 -0.005416684 0.0011689092 0.0021956784 0.000979549 0.005063269 -0.0016877548 -0.0057764137 0.005421491 -0.006926536 0.000585069 0.0007995791 -0.003788508 0.0073095295 -0.006822935 0.0068194894 -0.00030785147 0.0008537127 -0.00044523217 -0.0038070441 0.0068031666 -0.0011752764 0.005160602 -0.0032572416 -0.0032065583 0.0060461024 -0.005841917 -0.0037946138 -0.0041436874 -0.0015510882 0.0020710533 -0.0038132542 0.0016390168 0.0004497119 0.0064516356 0.0019821743 -0.004149157 -0.0075831125 -0.0044668145 -0.003658428 0.001566727 -0.0063950093 0.0023746463
过 0.008199814 -0.00086087425 -0.0039985417 -0.0046540024 0.0013410364 0.0031536506 0.003235208 0.0072263186 0.0033642019 0.007147851 0.007169779 -0.00028304933 -0.004621805 0.006569572 0.005693018 0.0032888795 -0.006596683 0.007110227 -0.006211899 -0.0038281176 0.0046388553 0.0005540568 -0.0009873757 0.0017813509 -0.000809835 -0.0038053398 0.0070603043 0.0068155653 -0.008708031 0.0059403297 0.0018494193 0.0033889133 0.0039407257 0.007968312 0.000644454 0.00344534 0.001301028 0.003618663 0.0009467966 -0.0025856479 -0.0011444234 0.00018959242 0.0071222815 -0.0004968325 0.0020478673 -0.0036951972 -0.0027781283 0.0049455664 0.008774746 -0.005663556 -0.0046013664 -0.0060033877 -0.004626867 0.0045182537 -0.0043771905 0.0013689636 -0.0024840806 -0.008196368 -0.0074890074 0.00027016245 -0.0052221245 0.004329274 -0.0039102687 0.0025911124
输 -0.00083997904 0.0041226335 -0.0020773043 0.0047146096 0.0015455254 -0.00058907934 -0.0062256483 0.0018503421 0.00025803334 0.0041839937 -0.0014631969 0.0014575446 -0.00035899377 -0.0010016976 -0.0015695875 0.006561683 -0.007465497 -0.0065422244 -0.0011440427 -0.0013553663 0.00091901625 -0.0028378335 -0.0063985605 -0.005564063 0.0022088587 -0.007211178 0.0005913225 -0.0022071549 0.0007906795 0.0048137014 0.006824729 0.0014953646 0.0067409063 -0.00199723 -0.0044513624 0.0010601468 -0.006511426 -0.00027047624 -0.007191624 0.007311272 0.006913708 -0.003963801 0.00087048823 -0.001615531 -0.0038905586 0.005022481 -0.0015777715 -0.0014225289 0.0016809494 0.005864478 0.0053612012 0.0039097355 0.0035994716 0.002712294 0.005090987 -0.0075577386 -0.0070666126 -0.0034767117 -0.0007014238 -0.0065089576 -0.0043012337 0.005341937 -0.0031380001 0.00027497005
效 -0.005984732 -0.0021934935 -0.0032500285 -0.0025034407 0.0029720908 0.004920856 0.003369556 -0.0057636015 -0.0027296161 0.0048173433 -0.0018178305 0.003319083 0.0020876352 0.0012478613 0.003686398 0.0015769122 -0.0038575276 0.0075809993 -0.00750665 0.00029242926 0.0045743734 0.0040045017 0.0023071696 -0.0028820906 0.007956597 -0.0046747485 -0.0036959352 -0.0012930345 -0.0024200056 -0.00013766436 -0.003366005 -0.00511046 0.0015841263 0.0041809273 -2.4676181e-05 -0.0014776901 0.002830467 -0.0014268936 0.006183628 -0.0021576607 0.0015445983 0.0050945934 0.006624003 0.0058840327 -1.4226752e-05 0.0069157127 0.0017806349 0.00051393546 0.002536404 0.0070116795 0.0031111315 -0.0019736404 0.005391073 -0.002869904 -0.0032382132 0.003520886 0.007494288 -0.0073120683 0.0057015824 0.007002968 -0.0023058858 -0.0073576723 0.0029597937 -0.0009845466
成 0.0016643697 -0.0055093756 -0.0043506282 0.0030497645 -0.007844484 0.0055229496 -0.0009085989 -0.004727917 -0.0075867097 0.004193759 0.0006568978 -0.0062056356 -0.0028474517 -0.0011161484 0.007342691 0.00359847 -0.0036288383 -0.00072897505 0.00067930773 -0.0042636893 0.004336046 0.0049954653 -0.0029683593 -0.0029326144 0.0015530545 -0.0011814794 0.0049683847 -0.0046116924 -0.0025871939 -0.00022398576 0.00049251184 -0.0011341712 0.0034416115 -0.0011082018 -0.002115106 -0.0060653193 0.00070699764 0.001776866 0.0022416462 -0.0072538145 0.00026110528 -0.00073005457 -0.0025620211 0.0033634217 -0.0029362845 -0.0025053269 0.0072226063 0.0014817892 0.0076257726 0.0069685043 0.0074252607 -0.0020615929 0.0005562641 0.0012176336 -0.00088304427 -0.00038909554 0.0038631044 -0.0023637589 0.0022304016 -0.0054393774 0.0061403597 -7.167735e-05 -0.00696569 -0.0009646655
同 0.0074685863 -0.00028879044 -0.0061666267 0.0018057536 -0.0069417814 -7.421789e-05 -0.00064295065 -0.0006474834 -0.0052391468 0.0042731953 0.00545005 -0.004699142 -0.004696596 0.0069207274 0.006818733 0.0060196277 0.0006797998 -0.005614407 0.0011799651 0.00499835 -0.0024406738 0.00010393717 -0.0001224056 -0.007742337 0.0040204143 -0.0080535 0.00091754587 -0.0005103643 -0.0020648814 0.0043766936 -0.004669797 -0.001924366 0.004757616 0.0033674247 -0.0059362114 -0.0027613523 -0.007946311 0.0012317994 -0.004329347 -0.0034722253 -0.008073973 -0.0028354046 -0.0003351254 0.0025633003 0.0054909796 -0.0024555502 -0.004250356 0.0009892781 -0.0043037077 0.0059351437 -0.0023202277 -0.0071757105 0.00032243106 0.0046340725 -0.0029789526 -0.0036175998 0.0021984375 0.003201176 -0.006971006 0.002479301 -0.0027234121 -0.0075853523 -0.0028903664 -0.007647557
可 -0.006892416 -0.0032936502 -0.00561937 0.006962219 1.5445863e-05 8.193453e-05 0.00030927206 -0.00536077 0.0012823283 -0.0021709166 0.00089490495 0.0007774637 -0.00011534547 0.0049056383 0.006941399 0.0023690858 0.0075213932 0.0067718616 -0.003195228 -0.005544558 0.004979625 -0.0061245267 -0.0025292104 0.0062329248 -0.0030075826 0.007031931 -0.00083709834 0.003320885 -4.503977e-05 0.0038345777 0.0071195406 -0.008081801 -0.0016544254 -0.004036657 0.003168687 -0.005362408 0.002152102 -0.007053729 0.00032801737 -0.003376375 0.0035000115 0.0019786744 0.0058776187 0.00037810503 0.0055208094 -0.0008667757 -0.0076921107 0.007258176 0.005599597 -0.0043064984 0.006365366 0.0065734475 -0.007283681 -0.004265209 -0.0012294063 -0.0016554921 -0.004347153 -0.0014080798 -0.0026393875 0.0024930418 -0.003802176 0.0025253356 -0.0040891063 -0.004945234
阶 0.0042715752 -0.005810402 -0.003799582 -0.0058795586 0.005255384 0.0038062183 -0.0031630332 -0.00773796 0.0051513556 -0.0036656286 -0.0021516783 -0.00791156 0.0056114127 0.0017878137 -0.0016168788 -0.0044987607 -0.0030799182 -0.003979281 0.0041723046 0.0072758556 -0.0015146852 0.0006665053 -0.0061747697 0.0053749084 0.004280841 0.00096914556 -0.00040931872 -0.0015452277 0.0025762634 0.0072579244 -0.0024844026 -0.001553031 0.007111926 -0.00030643257 -0.006540045 -0.0010705125 -0.0032881643 0.006094154 -0.0017534287 -0.0072854687 -0.0054746284 0.005174897 0.0057469914 -0.0058190576 0.0015758564 4.708775e-05 -9.0275025e-05 0.0022510036 0.0022065993 -0.005176268 -0.0048642363 0.0071344064 -0.003363232 0.0066748294 -0.005786133 -0.0011285875 -0.0037124911 -0.0044674026 0.0019615816 0.002322328 -0.0013596942 -0.0054912157 -0.0022418748 -0.0044885385
态 0.0030850437 -0.007138234 0.0043570898 0.0003388017 0.0067099393 -0.005483485 0.00274766 -0.0058662877 0.007260453 -0.0068693715 0.008175763 0.0045405095 0.0031911281 -0.006590591 0.0050809174 0.005121865 0.0058337613 -0.0003627088 0.006838076 -0.0063217133 0.0072262785 0.0034875185 0.001099246 0.0004999872 0.0038750032 -0.0050790333 -0.0004836052 0.0014260134 0.004932013 0.0023917877 -0.0025037043 -0.005115597 0.0013859107 0.0005284681 0.002942381 0.0040648123 -0.00050140347 0.00048741512 0.0075951926 0.0031548585 4.435633e-05 -0.007654735 0.007896372 -0.0022618964 0.0061994498 0.0050399285 0.0024241395 -0.0038600145 0.0047165174 -0.0055577527 -0.0029989616 0.0068289717 0.00614912 -0.006346669 -0.0005418909 -0.003817656 0.0018492987 0.007013149 0.005486869 0.0016528055 0.0032479924 -0.005146087 0.0012516909 0.0043515023
由 -5.6367862e-05 -0.0023338974 0.002956651 -0.0058351983 -0.0051532565 -0.0057334877 -0.007754137 0.008187042 0.003841563 0.0044581275 0.0074232416 0.0014288754 -0.0005128382 -0.0043100533 -0.001882834 0.0072387555 0.0054882644 -0.007193829 -0.0054953094 -0.007274474 -0.0050233537 0.0022725996 -0.0034277763 0.0057984274 -0.0036828544 0.0065064086 0.007860054 -0.006309219 -0.0010947804 0.0009063645 -0.003122081 0.0005822801 -0.00087681785 0.005176249 0.005811624 -0.0011003168 0.004700764 0.0069289524 0.0007733479 -0.0037962946 0.0023952583 -0.0012609129 0.00013920576 0.0048389956 -0.0009790504 0.000533576 0.0018167061 0.00703453 0.0029233894 -0.0043382947 0.00017581631 -0.001645631 0.0021784268 0.0019798959 0.0005428709 -0.0056283553 -0.00096045085 0.0026931823 -0.0068523353 0.006829875 0.0016305163 -0.001760815 -0.003925525 -0.0028708018
理 0.0002483169 0.0052849124 -0.006863602 -0.0073826145 -0.0032978721 0.0014607677 -0.0063035507 9.393922e-05 -0.004080964 -0.0010964473 0.0064593824 0.0003986705 -0.00057863194 0.005440976 0.0063081416 0.0020925342 -0.000663369 -0.0059142755 -0.0032285387 0.00052140164 -0.0032752315 0.0035899535 0.0024982165 0.003393876 -0.0029576283 -0.0041168425 -0.00087611977 -0.001687747 -0.0016745001 0.0049458267 -0.0056539555 0.0013256496 -0.0020937275 0.0031570871 -0.0064127846 0.0057222196 0.00470242 0.00556645 0.0025376112 0.0029946784 -0.0039931494 -0.0006142749 -0.0013193106 -0.0012833758 -0.0014491352 -0.0053996835 3.85755e-05 -0.00016285648 0.0054427483 -0.000621321 0.0076233987 -0.0015436949 0.0020726211 0.00065160706 0.0041275895 -0.005010141 -0.002850678 0.00051948783 -0.0074791084 -0.0018027175 -0.0006339123 -0.0019263173 0.0069857044 0.006891894
） 0.0057921745 -0.007199287 -0.004250246 0.0005033633 0.0036747274 -0.006392386 -0.005276575 -0.004787453 0.0014418724 -0.007165519 -0.00207483 0.0050199395 0.007140422 0.0015450241 -0.0062746424 0.0012871907 -0.007676531 -0.0045198663 -0.0033429863 -0.002610085 -0.0021147926 0.0045250007 0.0056060306 -0.006679732 -7.591183e-05 0.006912694 0.005902006 0.00601699 -0.005547472 0.0011015629 -0.005437189 0.007232027 0.0009059784 0.0017513104 0.0063653397 -0.00062265334 0.001819969 0.0062658703 0.007652081 0.004718834 0.0021496606 0.002617353 -0.0035666446 -0.0061116237 0.006008734 0.004896891 0.007672752 0.0036607215 -0.0076712384 0.00095202675 0.007820352 0.006493491 0.007965223 0.006442663 0.0048559504 -0.0053036176 -0.0012203363 0.006750388 -0.00281914 -0.0003149461 0.0032924323 0.00044317264 -0.004922208 0.005536609
络 -0.003121645 -0.005698481 -0.0007935738 -0.006868685 0.0048647444 -0.0050858255 0.0032776988 -0.0021865042 -0.003068762 -0.0010022843 -0.002034253 0.0011983906 -0.0064400337 0.0074399365 0.0046013994 0.0068501006 0.003844749 -0.0047331415 0.0069703925 -0.0006776069 -0.00540581 0.004948842 0.0023383931 -0.0028848827 -0.00035991502 0.0047740317 -0.00076129806 0.0028488638 0.0063395393 0.0053692292 0.0038660301 -0.008243457 -0.00056201575 -0.0019874386 0.0041238046 -0.007667169 0.00734202 0.0064086094 0.0042440942 -0.0049569355 -0.0015596144 -0.0034331644 0.005046228 -0.0052791773 -0.0030678313 -0.00072000193 -0.0016577565 0.006312968 0.003731913 -0.0042443792 0.0035772477 0.0072975084 -0.0052842773 -0.0066443696 -0.0012863115 -0.0019605658 0.0023098767 0.0057835546 -0.0042570215 -0.0037870687 -0.0025907166 -0.0044912747 -0.005174238 0.00566564
对 0.002529934 0.006421562 -0.008625213 -0.0019500968 -0.0075536463 -0.003822755 -0.0066387043 0.0054364246 0.0069560236 0.004293937 -0.001656652 -0.0025366098 -0.0034981898 0.005917772 0.0014554124 0.0048724934 0.0029351835 0.0068843416 -0.0003763722 0.0024556124 0.00074135826 0.00048971054 -0.0019916163 -0.0013701713 0.0047282064 0.002599846 -0.005179641 0.004739067 0.0013426734 0.006835072 -0.0010358706 -0.00484271 -0.0028881743 0.0012673074 -0.0063783065 0.007036138 0.0012543752 0.0020979778 -0.0019546591 0.0001375449 0.0056603723 0.0027176882 0.007029527 -0.0067413603 -0.0030440756 0.0038119252 -0.008045967 -0.003155638 0.0035009037 -0.005476852 0.004209416 -0.007134335 0.0053271917 -0.0035580078 0.0047304938 -0.0036211382 -0.0053557833 -0.006798509 -0.0044465517 0.0050630495 -0.0059616948 0.006300684 0.0073857186 -0.002299325
（ 0.0015577901 0.007932019 -0.00584852 0.006561855 0.0010475036 -0.0054085543 0.004890289 0.008137049 -0.0031654346 -4.340306e-05 -0.0062146694 -0.0047959075 0.0067029884 -0.0036374943 0.0042922935 -0.006503234 -0.0011589413 0.001243019 -0.0052559706 -0.0056451326 -0.0062518283 -0.0011060082 0.005741782 0.007078966 0.0078991875 0.0038103235 0.005304977 -0.0020379918 0.0043152855 0.0040432205 -0.0029724874 -0.005489609 -0.0015509706 0.0072875572 -0.00034719805 -0.00062408176 0.0056536403 -0.00016784771 0.0018160625 0.004745214 -0.0025727972 0.00013595539 0.004440923 -0.0072764484 -0.0018997649 0.00029513752 0.0047890334 0.0049578524 0.004089744 0.0050350474 0.001042753 0.0062743905 -0.0011645168 0.0040097465 0.002431801 0.00068523135 0.0022217669 0.0046523255 -0.0073839477 -0.00069297093 -0.004271556 -0.0029055986 0.006335131 -0.006055836
负 -0.0002982392 -0.0053045563 -0.0029456038 -0.00012907814 -0.0044123344 -0.0066013522 -0.0045637107 0.002341732 0.007547673 -0.0041177096 -0.00620513 0.0046070144 0.0017624081 0.0047247913 -0.004517232 -0.0011714197 -0.00539986 0.0019908263 -0.0021123274 -0.006039676 0.0037763224 0.00514921 -0.0031451124 -0.0073611555 -0.0053359605 0.0028546366 0.006892211 0.0023974383 0.005005165 -0.0055174567 0.0030449387 0.005684455 -0.0008198217 -0.001525651 0.005699215 0.004255565 -0.002427631 0.005706902 -0.007520055 -0.0057297633 0.0026489294 0.004963204 0.0042779306 -0.0011214126 -0.0030014573 0.0062169824 -0.0035070516 0.0011358983 -0.007669391 -0.0018004412 0.0031110104 -0.007023076 -0.004166103 0.0044858176 0.0037233068 -0.0037246922 -0.0066486546 0.005672287 0.0008467237 -0.002579142 -0.0007350328 0.0029352095 0.00554316 -0.005402807
控 -0.0035543898 -0.001968645 0.003317483 0.004841955 -0.0038419412 0.0048038126 0.0038950231 0.0023594277 0.00042169722 0.002441662 0.0063748653 -0.006022963 -0.0074685165 -0.00016431524 0.0063639693 -0.0060215723 -3.929999e-05 -0.005191798 -0.006133624 -0.0055282325 0.0063088015 0.0072206245 0.0032784212 0.0074812123 0.0015048063 0.0011271574 -0.00258212 -0.007938656 -0.0042759455 -0.004609459 0.0050963364 0.004974447 0.004273186 -0.0070862477 -0.0014560045 0.00082506303 -0.0023416725 -1.9788638e-05 -0.0035222734 -0.002708563 0.002197913 0.005223378 -0.001521562 0.004430211 0.003058819 -0.007680206 -0.0044257054 -0.006584495 -0.0017591664 0.0020242687 0.0073834816 0.0026771212 1.0193064e-05 0.0053989296 0.0065096347 0.004463651 0.0029465624 -0.0036819514 -0.0048398515 0.0046476643 -0.007291608 -0.00241201 0.0050003096 -0.0053922217
其 0.0074987346 0.0069681825 0.0015946765 0.0056333602 -0.005419666 -0.0027565684 -0.0005062538 0.005513378 -0.0028094733 0.0028530948 0.0063485815 -0.0015055313 0.0023374264 -0.0022532493 -0.0067509697 -0.003922642 0.004103534 0.00631494 -0.0011811997 -0.005583542 0.00540094 -0.0077103237 0.0015275218 -0.0055653267 -0.0038912126 0.0012083021 0.0034779843 -0.007562073 0.0038733946 -0.0055245804 0.008016704 0.0036549002 0.007039678 -0.0059843566 0.002662527 0.00459902 0.0019187804 0.0008719705 -0.004291476 -0.0045068837 0.00567846 -0.0019376993 -0.0061058262 0.0034426104 -0.007131168 0.005074128 -0.0051375753 -0.0023904182 0.006831018 0.0057632676 0.0078017586 0.005594071 -0.00640396 0.0034797436 -0.0064429194 0.0009601151 -0.00803596 0.002626883 -0.0054448824 -0.006977278 -0.0011872018 -0.0013510325 -0.0010717813 -0.0077923844
位 0.0008443642 0.0040217745 0.0015703328 -0.00045201415 -0.004084354 0.0014670559 -0.0054288968 0.0018205642 0.005223242 -0.004517447 -0.0045426292 -0.00183521 0.005987812 0.002963109 0.0054565617 -0.0019923595 -0.0038797418 -0.0012006273 -0.00509098 0.0030887597 0.0028374358 -0.0077060997 -0.0012344184 -0.0037757047 0.0031847504 -0.004253141 0.0009464138 0.0065532187 0.0065977415 0.0023107487 -0.002000125 0.0016121687 0.0011673603 -0.0033877057 -0.0021978514 0.0038683414 0.0011840352 -0.0046384265 -0.006199735 0.00073993613 0.00018962134 0.005068752 -0.006469141 0.0046661906 -0.007725031 -0.0022748567 -0.0046725227 0.0066512944 -0.00086208933 0.006891457 0.0034195697 -0.0038618946 0.0010072861 -0.0059493715 0.0043533696 -0.0002845966 0.0031152477 -0.006298845 -0.0014562694 -0.00028271187 0.00032026242 -0.0043842695 -0.0012591603 0.0017545075
通 0.0028929769 -0.00078009337 -0.0030089521 0.0032303473 -0.007427571 0.0022046478 -0.005613921 0.0034934408 -0.0019924762 0.003499335 -0.0008448795 -0.0052171615 0.008650928 -0.0011336455 0.005193497 -0.0021122557 -0.0001823802 0.006010232 0.0007319401 0.0012931846 -0.00092290045 0.007270161 -0.0007234658 -0.0037057265 -0.0039900164 0.0031523104 -0.0049267965 0.0018440178 -0.004725193 -0.0016241291 -0.0033689798 -0.0002664446 0.0037562298 0.00062669296 -0.0010743851 0.0038322385 -0.00067943375 0.007139543 -0.00528184 -0.0032139143 -0.006121398 0.0030145615 0.007257784 0.00024212958 -4.014471e-06 0.0016807064 -0.0031674537 -0.0013713586 -0.0014427747 0.00035908335 -0.0005358488 -0.0035698584 0.0055117738 0.0003094366 0.0036139467 0.00083095947 -0.0032184399 0.00445349 0.0021490077 0.0016086913 -0.0032163896 -0.0038936078 0.00047644263 -0.0045500034
并 0.0006790116 -0.005715215 -0.0050988896 0.004474455 0.0038663757 -0.008048093 0.004881944 0.0069624977 0.0038469364 -0.00038291112 -0.0063130218 -0.002862114 -0.0020270064 0.0002457042 0.003484976 0.00073600985 -0.00300268 -0.0051518166 0.00026126008 0.0033364359 -0.00583464 -0.0068530794 0.0058827177 0.0057555395 0.0062170397 -0.00064927724 0.005369693 0.0058898567 0.006188643 0.0011120988 0.004835951 0.00435562 0.0014987864 0.003588255 -0.0010657656 0.0050052707 -0.005788116 -0.0060258796 0.00399404 -0.0058328863 0.0045428798 0.006532154 0.00039231803 0.0010756428 0.0038180298 -0.006400639 0.00053428294 0.002456937 -0.0025812564 -0.0062450212 0.0026041295 0.0013316238 0.0035241104 -0.006758755 -0.0029680927 -0.0067568305 0.0020394134 0.0028199933 0.0076783122 -0.006278191 0.00071860827 0.0051152445 -0.0031739853 -0.0019093351
则 -8.95419e-05 0.0056247674 -0.002141458 -0.003015953 0.00027069813 0.005888731 -0.006738589 0.007872263 0.006670562 0.00031367692 0.008405589 0.0043417085 0.0058947885 -0.0060406313 0.0021918283 0.0075017344 0.0075366683 0.0023034567 -0.005423002 -0.0070086927 -0.0043673315 -0.0066569964 -0.0067104134 -0.0029258311 0.0047794054 -0.0032755798 0.0065611093 -0.0056275097 0.0055288123 -0.00259019 -0.005312508 -0.006693698 -0.0002965929 0.0007914844 -2.5639116e-05 0.0010319572 -0.0022272244 -0.005978542 -0.0058697285 0.0055959774 0.0029191165 0.004575372 -0.001305409 -0.005719069 0.001050027 0.0004308605 0.006763101 -0.0026053588 -0.0053556776 0.003654083 -0.0037831634 0.0073732613 -0.005571422 -0.002930899 0.006093793 -0.0044930726 0.00043295225 0.0023765313 -0.0043191435 -0.0025395595 -0.0052835047 0.001948359 0.00065612077 0.0028829228
立 0.0011903199 0.00076176686 0.006475755 0.0047850725 -0.0063531487 -0.004118809 -0.0044380664 0.007642093 -0.004349708 0.0071167727 -0.00046128084 0.0061005834 -0.00759834 -0.00584049 -0.003401317 0.004898407 -0.0014930123 -0.0066836798 0.0050550653 0.0006992626 -0.0054455833 0.0010294851 0.0044982918 -0.0045189573 0.005387925 -0.0018767541 0.0004134205 -0.0070217303 0.00018761418 0.006754451 0.0029382817 0.0047265063 -0.00045497942 0.005872267 0.0042508664 -0.002257857 -0.0014243695 0.0026565334 -0.006454348 -0.002328015 -0.0035425234 0.0012944147 -0.0012009621 -0.0050960802 -0.004070737 0.0051300386 -0.00022849068 0.0036963366 -0.0047623124 0.0019067698 0.0027437268 -0.006897376 0.00019022998 0.005084199 -0.0026366713 0.002202106 0.0041136574 0.0011545978 -0.0064806216 -0.0068756267 0.004676046 -0.0022181629 0.005625763 -0.0034192863
二 0.008766434 -0.0032448582 -0.0047685774 -0.007165013 -0.0014553994 0.005382131 -0.0027949978 0.0013185993 -0.0035325156 -0.0020275118 0.0074794907 -0.0039455476 0.00068124756 0.0054885806 -0.0019663176 0.007346352 0.0047999774 0.0042060325 0.007753997 0.00429634 0.0024395613 0.0006799723 -0.0021149786 0.003943483 -0.0014624128 -0.0036159407 0.005622666 -0.0019119983 -0.0040847394 -0.006004222 -0.0010146709 -0.0075534736 0.0064580822 -0.004350559 -0.0067526633 0.0049051833 0.002556534 -0.00015457804 0.0075810333 0.00021195028 0.004405819 0.0022975497 -0.0014601592 0.003047123 -0.007473321 -0.005080277 0.0007192873 0.007349286 -0.002397036 -0.0010944536 0.0029476658 0.0053471476 0.004490761 -0.0027560163 0.00091024226 -0.00450227 -0.0020036853 -0.000977365 0.0068174233 -0.00037560333 -0.0036138417 -0.0030230673 0.0030346173 0.0061231786
受 0.004417928 0.0041899276 -0.0057718037 -0.007012313 0.0033643334 -0.005759984 -0.0009110671 -0.005279266 0.0023957496 0.000978267 0.003911449 -0.006965693 -0.0055113873 0.007237754 0.0078744115 -0.0065359604 0.0046772934 -0.0014576431 -0.0011712884 -0.0027737124 0.007915809 0.0050827865 -0.0012332756 0.0063220463 -0.0033415183 0.0014470584 0.004151087 0.0044627287 -0.00400663 0.0012772054 0.005531577 -0.00097130815 0.002931577 -0.0013927735 0.0002948671 -0.0068476214 0.00075723784 -0.0019424054 -0.007504073 0.0032764578 0.0017451684 0.005439502 0.0067327083 -0.0044967933 -0.0013168139 0.003597314 -0.0019794165 0.0022404715 -0.006412587 0.0013320778 -0.0032408114 -0.004339512 -0.007722033 0.0027839 0.0011538449 0.0067778765 0.005078003 -0.0049054734 0.004736426 -0.007088363 -0.0060038334 -0.001297178 0.0050583095 0.0024426116
1 0.004708213 0.007677627 -0.0028070216 -0.007976891 0.0057168426 0.0059797 -0.00012769863 0.00059559604 -0.0006206213 0.0073083662 0.0030935025 -0.0024832415 0.007358739 -0.0035958954 -0.005311793 0.0031272084 0.0021066803 -0.008176823 0.005963499 -0.0077730743 0.0074845026 -0.002674066 0.0026765796 0.0053852797 0.0012951118 -0.0055623828 0.0080850115 0.0046224147 -0.007449422 0.005266999 0.007217659 -0.008400883 0.005253416 -0.005907754 0.0033083074 0.0062026177 -0.007604593 0.0021376642 0.007296822 -0.0016605248 0.0013472822 -0.0015067125 0.0049491185 0.0012599159 0.0048209964 0.0005815466 -0.0041740644 0.0055699046 -0.0030764714 -0.00300936 0.0069726696 -0.0014417429 0.004153461 0.00036854568 -0.0047320165 -0.0014309468 0.004600884 -0.0048112054 -0.005839894 0.0065473365 0.00077958725 -0.0019654578 -0.004106304 2.2060398e-05
加 -0.00027607084 0.004384318 0.00081482576 -0.008001902 -0.005483658 0.0015134844 -0.0033374263 0.0011757464 0.0031034292 -0.0041584778 0.0012448288 -0.0018093041 -0.0064498703 0.0020397895 0.004358611 0.001033627 0.00044774605 0.007355199 -0.007964611 7.909574e-05 -0.006651734 0.0069550104 0.007930474 -0.005435816 0.0018163775 0.0038623323 0.0058447993 0.0065400214 -0.0002137144 -6.613788e-05 0.0018695726 0.0005463616 -0.0016605968 0.005654148 -0.0024155676 0.0062367786 -0.0032961532 0.0062558465 0.0050450168 0.006283039 -0.0048329197 -0.0006564029 0.0012422032 -0.0060056592 0.006503743 -0.003600887 -0.008022618 -0.00045021373 0.0018709158 -0.0047387294 0.0050447183 0.0015396866 0.0057966867 -0.0037060708 0.006839827 0.003589459 0.0036478464 0.0069796457 0.0022911415 0.005006203 0.00650866 -0.004644605 -0.00444188 0.0036996189
无 0.00789329 -0.0021070624 -0.0017227686 -0.0013831124 -0.0031654148 0.0009777859 -0.0053669508 0.0070226574 0.0026975845 0.0072059254 -0.003564615 0.0053884448 -0.0033683153 -0.00075268844 -0.004533973 -0.0036547908 -0.0060902927 -0.0054269205 -0.0074719177 -0.007697851 0.0041938373 -0.0044357125 -0.003023326 0.0005004624 -0.006721957 0.004858749 0.0052092634 0.0045245653 -0.00048745616 0.0060489886 0.0034206822 0.0009075025 -0.0014059239 -0.007017314 0.00036172068 0.002678341 0.0064731278 0.002379439 0.0031119129 0.0005976358 0.0006808143 0.0030815122 -0.005597116 0.0023119356 0.0072101587 0.0027949614 -2.6858139e-05 -0.0066050473 -0.0065487805 0.0048579006 0.0032211496 0.005250117 0.0007938704 -0.0040720864 -0.00021191989 0.006756086 -0.0035335314 -0.0012021026 -0.0005642653 -0.0006126524 0.0042216517 0.005257349 0.0070498683 0.0029249606
L -0.0011497923 0.0034405012 -0.0023903847 -0.00036555942 -0.0037090937 -0.00078481616 0.0042869286 0.008722185 0.004248794 0.0010759736 0.010230163 -0.005477722 0.0022750818 0.008710915 0.0017217092 0.0005867202 0.001377293 -0.003253838 -0.0020438982 -0.008127083 0.003455883 0.0021498415 0.0063236654 -0.0070262724 0.00633589 0.0006772742 0.005914079 -0.006540834 -0.0065850266 -0.0018450674 0.0050410754 -0.006481224 0.0024201022 -0.0034525883 -0.0020066914 -0.0024328874 -0.0040417877 -0.0028694763 0.004094022 -0.007881745 0.00054366386 -0.0028382794 0.0068331575 0.00056993426 -0.005691291 -0.0012144521 0.005201625 0.008253131 -0.0042640995 -0.0034293765 -0.004343335 0.00080539874 -0.0045648455 0.0011190856 -0.0042068907 -0.0057573323 -0.0023658539 -0.00806312 0.005055745 -0.0031500882 -0.0020132787 -0.0055014384 0.0007992579 -0.0038424623
称 -0.00025657145 0.0059562926 -0.004321728 -0.0076640276 0.0039578434 -0.0039122887 0.007371686 0.0023747939 0.0048491224 -0.0023851716 0.00639198 0.0032530776 0.0056007253 -0.0011530969 -0.006125585 -0.0076163416 0.0058819437 0.004551233 -0.0045896424 -0.004831969 -0.0013331302 -0.0076201237 0.00020297761 -0.0018988269 0.00516145 -0.007382323 0.00018261514 -0.0067534666 0.006061456 0.0056530577 0.006950488 -0.0067613083 0.0063647083 -0.0047456394 -0.0036341622 -0.004802875 -0.0013923752 -0.005136165 0.0021149474 0.006791551 -0.004583734 0.0045637507 -0.0066949814 -0.0020869009 0.004213407 -0.0072614346 -0.0022357877 -0.002908936 -0.0031864822 0.007645173 0.0039646286 -0.000906093 0.0015776877 -0.005669186 -0.003507817 0.007551519 0.0050694747 0.0031320187 -0.007861138 0.007010847 -0.00455863 0.0060395435 -0.0011974671 -0.0024201027
入 0.0010673158 0.0056859995 -0.00030886542 0.00050799845 -0.0071572023 0.0017312906 0.0038554005 0.0040696734 -0.0043737465 -0.0038602182 0.0025420033 0.005725216 -0.0059607783 -0.00067810353 -0.0010966107 -0.0002089328 0.005150537 -0.002921955 -0.0034472998 0.007208042 0.006788751 0.0054696514 0.0018059812 -0.0062386175 0.0070526362 0.004653631 0.002092284 0.005081526 -0.00037027532 0.004382884 0.007306614 -0.00096347654 -0.0046678567 0.007471802 0.007657529 -0.005806429 -0.004986636 -0.004415915 -0.0056697475 0.0048135156 0.006381566 -0.0067754523 0.00089276663 0.0024709275 0.00329403 0.0021299254 0.0048849527 -0.0046586078 -0.0039867153 0.0030273935 0.0053315107 -0.0030279595 -0.0031424956 -0.0062853936 0.006031244 -0.004082397 -0.005308594 -1.629279e-06 0.0021892665 0.0011817892 -0.00022065481 -0.0005032416 -0.005328945 0.0052282773
R 0.007702466 -0.005219338 -0.0053575733 -0.00478778 0.00019030955 0.0017597473 0.0010789799 -0.004076743 0.008535628 0.0073072654 0.005318963 -0.0074970503 -0.005267262 -0.0028069364 -0.0021516797 0.004558935 -0.0065980814 -0.003275263 0.0047515333 -0.0012471223 0.0027984418 0.005192614 0.0021573005 -0.0060786023 0.00076166313 0.0076325242 -0.005115197 -2.1276825e-05 0.006668607 0.0074303844 0.00615613 -0.009337307 -0.0013291443 0.0032028758 -0.0013668446 0.0032078675 0.002754453 -0.00012100484 0.003656844 0.0062550534 -0.00066866877 -0.0017603625 0.0034199145 0.0020053925 -0.008310433 0.00065241335 -0.0021267058 0.008296456 0.00521031 0.0070215906 -0.0017340349 -0.007857154 0.0042595156 -0.0062466776 -0.0053562443 0.0024595028 -0.0060920115 -0.006744048 0.002521388 -0.0032539158 -3.441035e-05 0.0040146806 -0.0055451314 0.0069189714
= 0.007892389 0.007836319 0.0011051162 -0.00533835 -0.0005871544 0.0062190965 -0.00063138746 -0.00011177546 -0.0014805452 -0.0011343687 0.0071914103 -0.0040833917 0.0033566598 0.0017275688 -0.007272201 -0.0057072253 0.008693135 -0.0018073985 -0.00078457 -0.0024545589 0.005197497 0.0035644525 -0.0034873292 0.007363596 0.0042744554 0.00376408 0.0015620524 -0.005834722 -0.008260698 0.0063430695 -0.0021975704 -0.0018245255 0.0021959236 -0.0062039346 0.004017737 -0.0055961944 0.0029079057 -0.004925726 0.0018099116 -0.008305331 0.0015203294 -0.005944352 0.0030256978 0.0020157641 -0.01051202 -0.009185622 -0.0045573073 0.004401442 0.0012387834 0.0007922436 0.0037472262 -0.0049592475 -0.003357148 -0.0036342957 -0.0026079975 -0.00033013299 -0.0026901916 -0.008623307 0.002134224 -0.0029002088 0.005248768 -0.0010895868 0.0036725027 0.0057953717
节 -0.0056095785 0.004376036 -0.008331388 -0.006489532 -0.0038530177 -0.0054753055 -0.008290685 0.0036457996 -0.0057099164 0.0029517591 0.0055394736 -0.0037412317 0.0023715908 0.0062616477 -0.0046418314 -0.0041885627 0.00509234 -0.0047424124 0.006247375 -0.006737867 -8.787127e-06 -0.0069670402 0.007644587 0.0076268082 0.0041961977 0.005970459 0.0032455248 0.003271876 0.003177101 0.0072726416 -0.0062930346 -0.0075897938 -0.0067532486 -0.0014431902 -0.0012402793 0.001813752 -0.0018267339 0.007495439 0.0057736235 0.0067505944 -0.0013103345 -0.004213632 -0.0015372478 0.006795155 -0.009326813 -0.0072665485 0.0016506626 0.009066374 -0.0022825866 -0.0074108196 0.0061288085 -0.002552692 0.004302341 -0.0014100721 0.00827385 -0.0073915306 7.705405e-05 -0.006214222 0.0062183538 -0.008434069 0.008422541 -0.0037400005 0.0014222198 0.0031003745
所 0.0020722665 0.004457869 0.00020126939 -0.0058172313 0.007866322 0.005517703 -0.0033210916 -0.0034888196 -0.0024150617 -0.00053023157 0.00798959 0.0012334032 -0.006251328 -0.00631619 0.0016496783 0.0062491046 0.0065688486 0.0037077288 2.1120115e-05 0.005520192 0.0073690396 0.0019998434 0.00076994137 -0.005093202 -0.001259776 -0.003644707 0.0010825045 -0.005149268 0.0061344104 0.005916786 0.0016165606 -0.0046359007 0.0028334649 -0.006637907 -0.0049073547 0.005942273 -0.003675553 -0.001141175 0.006040677 0.0018282142 -0.0007425195 -0.001742081 0.008095641 -0.004353734 0.004805053 -0.005263991 0.0034925838 -0.0013502705 -0.0017934581 0.000736404 -0.00029502602 -0.0066098915 -0.00024015523 -0.0035441504 -0.002645496 0.0042378986 0.0015151347 0.006190233 0.0049203667 -0.0009553137 -0.0037734506 -0.00043502054 -0.0075807674 0.003602925
独 0.005890907 0.00460127 0.0034047957 0.0069177966 0.00078722235 0.0009885681 0.00041045013 9.309415e-05 0.0053781345 -0.0058767884 -0.0062816953 0.007232086 0.0020572583 0.0041196626 -0.0025412603 0.00062073226 0.0075122127 0.005211842 -0.00517534 -0.0009356893 0.0065296073 -0.0016519884 0.000506605 0.003952002 0.007667263 -0.0036425008 0.0005383187 -0.0026688948 0.0018925666 -0.0059366236 0.0065653673 -0.0016359633 -0.002726571 -0.0025654975 -0.00065567065 -0.0027840852 0.0045406087 0.0038247907 -0.0071117603 -0.0071661067 -0.006918747 -0.006485177 -0.002007508 0.007012387 -0.0070503005 0.005662947 0.0018041831 -0.005924033 0.0075822645 0.0008165173 0.004704264 0.0046381443 -0.0049102213 0.0027881914 -0.0032823626 0.0063092215 -0.004025098 0.005819742 0.004672854 -5.7299156e-05 -0.0006880242 0.005082974 -0.007277616 -0.0051097376
零 -0.0019313795 -0.0067184544 0.0012995149 0.0023397203 0.00739226 -0.006153277 0.00019199535 -0.0058869803 -0.0018614583 0.00237247 0.00031406622 -0.0061393445 0.0011406147 -0.0053559137 -0.0060868864 -0.0013693237 0.0068557835 -0.0031979508 -0.0034037202 -0.006100608 -0.0038390928 0.004508102 -0.0023706686 0.0015906101 0.0075010145 -0.0053841467 0.0045465655 -0.0059880815 0.007205834 0.0026608661 -0.0047264057 0.0034206798 -0.0027032348 0.0044222604 0.002657003 0.0055247624 -0.0014020632 -0.0031004678 0.0016403768 0.002431366 -0.0025770129 -0.0055538123 0.0042087915 0.0070740064 -0.0058802883 0.0009590184 -0.008054528 0.0039833053 -0.004107275 -0.001242118 0.0065680877 0.0007253963 0.0014133465 -0.0044929595 -0.00012549646 0.0015111872 0.0003350123 -0.0034227627 0.004250094 -0.0035640546 0.005474727 0.007973417 -0.0066027255 -0.0029568078
法 -0.0074993283 -0.0073523396 0.001753383 0.004262846 -0.00039567257 0.00086053624 0.0006500893 -0.0015110626 0.0024131534 0.0007606878 -0.00029640552 -0.0013495667 0.0074689663 0.007547129 -0.00714111 0.0065036914 0.0059552575 0.0025611015 -0.0073896796 -0.0020285884 0.005160337 0.00539076 0.0019629598 -0.002264369 0.003910116 -0.0050254078 0.0042204615 -0.002337009 0.0059059826 -0.002349475 -0.0054618004 -0.007284799 -0.0005645861 0.0006477601 0.0022147659 0.0041850326 0.0066385274 -0.00013837298 0.0034334762 0.0009663346 0.00040454598 0.004615274 -0.00090611225 -0.0030108495 0.0031038811 0.0027236908 0.0047628777 0.003902171 -0.007158893 -0.007502481 -0.004655945 -0.0005997577 -0.0006346259 0.004440139 0.006885528 -0.0035834154 -0.00047221442 0.006526348 0.006789198 -0.0054856916 -0.0039774235 -0.0024774424 -0.0063227597 0.0046062097
要 0.0069686286 -0.0045284694 -0.005633453 -0.0033154367 -0.0016417331 0.0020163145 -0.00058202946 -0.0020103098 -0.0070813377 -0.0016100976 0.0064853746 0.0016202127 -0.002102931 -0.0069097565 0.0061569666 0.0038273453 -0.004348952 -0.0063696327 0.0059659607 0.004685385 0.0024934062 -0.0004620541 -0.00078746857 -0.0028986637 -0.0037408122 -0.00262328 0.004395554 -0.00077801314 0.002580051 -0.001991723 0.0036582618 -0.004506963 -0.0017659104 0.00019683389 -0.005105551 -0.0021331247 0.0054852995 -0.003311835 0.0038628762 0.00044752145 -0.0019356278 -0.0022097705 0.00035112485 -0.00080997753 0.005434753 -0.0077486746 0.0018554956 -0.0016344558 0.0054963133 -0.005390451 -5.2967807e-05 -0.0039127013 -0.0053665387 0.0019662876 0.002789706 0.006050469 0.00048370328 -0.0039012034 0.003944392 -0.0048380196 -0.004495938 -0.004264481 7.859021e-05 -0.006556183
口 -0.0025417772 0.007406317 -0.0073156934 -0.00043685484 0.0014131648 -0.0044590808 0.00024865477 0.00091018714 -0.007105422 -0.0057932376 0.0061123646 0.0070519308 0.002813435 -0.004071877 -0.0016977111 0.0074917316 -0.0041952273 -0.0032738072 0.005221348 -0.0034119554 -0.0014500346 -0.00361629 -0.0073491824 -0.001476369 -0.0013800714 0.004279646 0.0044246125 -0.00048884156 -0.002411826 0.0016950702 0.0064890585 -0.0076551232 0.006800505 0.00032478958 -0.0015700271 -0.0037244896 -0.006967901 0.0060048094 0.007007986 -0.0041741566 -0.0021187293 -0.005520845 0.0029529235 0.004252768 0.0046444256 -0.0043466217 -0.006561812 0.006015429 0.003989306 -0.0043016365 -0.003002542 0.0048716175 0.004514207 -0.0059212525 0.002564103 0.001949272 -0.007437075 0.001486816 0.007586581 -0.006264463 0.00026072498 -0.0030140625 -0.007122433 0.005962577
合 0.0022092399 0.0027524563 0.0054934137 -0.007266956 -0.0037104632 0.0018882974 -0.0032406596 -0.0062463367 0.002998396 -1.2118524e-05 0.0041090846 0.001788007 -0.0040947483 -0.004975007 0.0054054074 -0.002840519 0.004772592 -0.0030459687 -0.005130944 -0.007261667 -0.0045153326 0.0014759233 0.0061291377 0.0010457934 -0.0032144042 -0.004239157 0.0077816094 -0.005581083 0.0030154833 0.007813348 -0.0063413414 -0.0048308084 -0.0027053633 0.0021178324 -0.0058598663 0.0011600722 -0.005828945 0.0016680342 -0.0033716862 -0.004316055 -0.0017940766 0.0055406666 0.006698714 -0.006032842 0.0038339486 -0.007308352 -0.0029598295 0.0067351386 0.0041336664 0.0041588857 -0.00048522366 -0.0013198052 -0.0005358242 -0.007442948 -0.0030622345 -0.003932225 -0.0019133516 0.004320182 -0.0018576628 -0.004273619 0.0077516423 -0.0054617254 -0.0063009565 -0.006315289
出 -0.0049989936 0.004881286 -4.6274294e-05 -0.006964815 -0.0040406305 -0.003327091 -0.002084399 -0.00382265 0.0014199632 -0.004732329 0.0078220805 0.0012706646 0.0021029795 0.00815737 0.004448446 -0.004672955 -0.0007296056 0.0016056817 -0.00056070054 -0.003548244 -0.0034606808 0.0059196907 -0.004133157 -0.000715355 0.0036769903 0.0023135552 -0.0013706812 -0.0025552704 -0.00045118635 0.005794104 0.0053857225 0.0072619803 -0.0008930202 -0.0076272157 -0.001598405 -0.0035760475 -0.005320565 -0.00083223765 0.0075993375 0.006418513 0.0069461926 0.007512281 -0.0072361524 -0.002778035 0.004465493 -0.0074339006 -0.0002039479 -0.003331251 0.0014986923 -0.00685609 0.005413469 0.0023492451 0.0013563748 -0.002567995 0.0009514972 -0.00020848529 -0.0030830079 -0.007556221 0.0038350802 0.0053092097 0.0017491886 0.006710571 0.0011888795 0.0048352387
C 0.0036427244 0.00586777 -0.0035685608 -0.0065785483 0.0042039417 -0.0067546875 0.0025232804 -0.006672567 -0.0017297817 0.004224082 -0.0023064609 -0.008991733 0.0030346094 -0.0033745614 -0.0018441627 0.006795644 -0.0010251593 -0.00013544517 -0.0073241354 -0.003273426 -0.002462613 -0.005805433 -0.005803663 -3.8618993e-05 -0.00051005936 -0.0014169659 0.007398167 -0.000487524 -0.0069404184 -7.462711e-06 0.00094020664 0.0016336872 0.004855531 0.0037785266 -0.0022490036 -0.0060523534 0.0048647407 -0.006249611 -0.004371905 -0.005521344 -0.007968143 -0.0036191717 0.008693455 0.0047088675 -0.0027939652 0.0010532958 0.006439831 0.0062245037 0.0016352881 0.0034281586 -0.00037867643 0.003478263 0.004189236 0.0072335396 -0.0037816523 -0.0035595656 0.0018179287 -0.0070838057 -0.0050234124 0.0014053977 0.008152576 0.0023295477 0.007426985 0.002517176
串 -0.0010113746 -0.0019350959 -0.0030350944 0.0033177354 -0.0042844275 0.0007461038 0.006112724 -0.005167206 -0.003512763 -0.0068582697 -0.0022272465 -0.0023370986 -0.005298996 -0.0007684199 0.00039874093 -0.0051770983 0.006065104 -0.0011492781 -0.0024327657 0.00636027 -0.0009721783 0.0027297947 0.006872378 0.005860244 -0.004896601 0.0057853996 0.006519391 -0.005409753 -0.00046351022 0.005506302 0.005528404 0.005670509 0.001487279 0.005147332 -0.0029258756 -0.0075523937 -0.004984924 0.00028030417 2.3182065e-05 -0.00011663564 -0.0045479615 -0.007109854 0.0005099025 -0.0025781512 -0.0037328575 0.004448692 0.00062725565 0.0034506645 -0.003763994 0.0010754878 -0.00029676454 0.0032486946 0.0023326133 -0.0033339623 0.0022070417 0.0006960867 -0.006381004 3.733585e-05 -0.005206367 0.0020835276 0.004271989 0.002436702 -0.00081318576 -0.0075625167
函 0.0040670717 -0.0044642533 0.0015172248 -0.0016547084 0.0031537954 0.0057007475 -0.0061790925 -0.0017909239 -0.0037370797 0.0022398615 0.0055168667 -0.008167768 0.0071938927 -0.00040565283 -0.005998647 -0.005903953 0.0022555084 0.0061534154 -0.0024980574 0.0068060774 -0.0029592356 -0.0043109683 -0.0029561801 0.0035118347 0.0062708193 -0.004231276 0.005037208 0.005732195 0.0036011543 0.0057422654 -0.0053776326 0.0028082307 0.004531407 0.0031372132 -0.004479804 0.00070067344 -0.0022445433 -0.0062519023 0.0067793643 0.0013731497 0.0009514583 0.0015732234 -0.005715106 0.0020655252 0.005250473 0.0031385575 -0.00650391 0.0031330225 0.0036030249 -0.006861032 -0.0009855815 -0.0061274725 0.0007179284 -0.0015706986 0.0037237087 -0.007883864 -0.0007399613 -0.0073356554 0.00567727 -0.0008819121 -0.0020749096 -0.0037836295 -0.0022784579 -3.9143535e-05
/ -0.0006339603 0.0001417756 0.00086845533 -0.009123437 -0.0051048645 -0.0038846983 -0.007170734 0.0080385255 0.004954779 -0.004817627 0.008953714 -0.00016591215 0.004835808 -0.004389415 -0.007274602 0.0024956805 0.005503095 -0.0009888812 0.0011083052 0.001031975 -0.0019485678 -0.0069890334 0.0018411913 0.0061354404 0.00036855837 -0.004464982 -0.00667928 0.0028730973 -0.007603779 0.0056924056 -0.00085832464 0.0037291346 0.0023718423 0.0066309534 -0.0016759745 -0.007918926 0.0061701667 -0.0040901843 0.0016203248 -0.008296793 -0.0066799894 0.0034616392 -0.0022076014 -0.0049860273 -0.0059678447 0.0052864924 -0.005789994 0.005153586 0.00076958025 -0.0043303454 -0.0035278983 0.0046395245 0.008676373 0.0063956277 -0.005574617 -0.0061610066 -0.005295745 0.0034257036 -0.004251279 0.004008399 0.005391084 -0.0068710777 -0.003233321 -0.00034326606
振 -0.0051740333 0.004476415 0.0015708647 0.0034098388 -0.001768161 0.0042999936 0.0008855386 0.004576522 0.0028229496 0.0059753787 0.003688888 -0.0040618936 -0.0039146417 0.0019014414 0.0058564865 0.00070898095 -0.0046782536 0.0033811245 -0.0073527046 -0.0045618713 -0.0037547555 -0.0029215773 0.006439755 0.005475611 -0.0008322495 0.00038862196 0.0059070513 -0.0038661049 0.00028462615 -0.00465666 -0.004946581 0.0073183514 -0.0057229437 0.0074616186 0.00613519 0.005215132 -7.952019e-05 -0.004281547 0.0058679665 -0.006274315 0.0018749792 -0.0014584624 -0.0007892571 0.0067005767 0.00024772214 -0.004982958 0.001298853 -0.00078449526 0.0069310954 -0.0037440509 0.0040658773 -0.0069578104 0.0072234552 0.002161584 -0.0037248281 0.0034706271 -0.006539226 0.003888958 -0.00047450297 0.0022356221 0.004008571 0.0061816717 0.0013017327 -0.005352049
单 0.0036771453 0.007263952 0.0057111164 -0.0029666366 -0.0059852786 -0.0041656615 -0.00056970585 0.0049555455 0.0009531328 0.005930071 -0.0053997003 -0.006136254 0.006967515 -0.007324204 0.0007765411 -4.183647e-05 -0.00052550115 -0.0023034501 0.0041850545 -0.003016751 0.0044585573 -0.00012505676 -0.0030686613 -0.0059422334 -0.0023933689 0.0036581059 -0.0025271235 -0.0037701752 -0.0026303127 -0.002210862 -0.00446717 0.0057546236 -0.00031499265 -0.0038890583 0.00599309 0.0026822644 -0.00040030503 -0.006730106 0.0022793126 -0.0048684073 -0.00786694 -0.0053312425 0.00059668306 0.001381955 -0.003723566 0.007422534 -0.0017763755 0.0010466396 -0.007193101 -0.0036535477 -0.0031598564 -0.0019526785 0.0039645964 0.0013057153 0.0022844046 0.0045637987 0.006838829 -0.0028141567 -0.003118736 0.007184295 -0.007045241 0.0018379864 -0.0053052353 0.0068342863
系 -0.003579281 -0.0008686757 -0.00289342 0.00014891251 -0.001394113 -0.0035150563 0.006346085 0.004199201 -2.058962e-05 -0.0044926303 0.0013458015 0.0022434392 -0.003936455 0.004279226 0.0071887053 -0.0063054273 0.0055821426 -0.0047916803 0.0003644751 0.0031612932 -0.005085896 -0.00676465 -0.0029080075 0.0011769793 -0.0063347397 0.0014622033 -0.0019123115 -0.0061768973 0.000695823 0.004459322 -0.0016111529 -0.0037503466 0.0047340253 -0.0022243224 -0.006078237 -0.004599065 -0.0021681502 0.006723904 -0.0005036253 0.0052283956 -0.006961623 0.007041401 -0.0008007351 0.0019969197 0.0026840863 -0.0053819343 0.0037380827 0.0037420627 0.00067331217 0.007460904 0.007119049 -0.00030194313 0.0028670214 -0.006713178 0.0032469525 0.0050280853 0.004440217 0.0047682775 -0.0034728004 0.0049936306 -0.00546719 -0.0008372467 -0.00016392148 0.006060584
激 0.007105463 0.00059063995 -0.005589655 0.006252452 -0.0007773982 -0.0070644114 -0.0033297576 0.00027542553 -0.0014270634 0.0054765586 0.0041117403 -0.0038660432 -0.0007829939 -0.0009168721 0.008253284 0.006372833 -0.0034222149 0.0063649006 -0.00044270727 -0.0021147525 0.0060130456 0.0046329484 -0.0040349183 -0.006529728 -0.0040614754 -0.0061022206 -5.7826248e-05 -0.005499265 -0.007421326 -0.0059159384 -0.0013913984 0.004469552 0.0043667536 0.0063691577 -0.00013132226 0.0037103514 -0.007838901 0.0073378906 0.0067162653 0.003593995 -0.0071574836 -0.002598763 0.0045007174 0.0046214014 0.0015122253 0.002038969 -0.0051834066 0.0052456385 -0.0007869327 -0.0012574821 0.00071337895 0.005101735 -0.0057389075 -0.0033717435 0.002027934 -0.004035761 -0.0064721387 0.006129996 -0.002015505 -0.006369658 -0.0029135633 0.00043842976 0.0046955533 -0.0059938827
部 0.00043267367 -0.0016049334 -0.007194932 0.0054544983 -0.0032689797 -0.0044853925 0.003424634 -0.0020338395 0.0035047666 0.00013506912 -0.0063439147 0.0008493649 0.00497074 -0.006421972 0.003915431 0.0051225284 0.004788646 0.0010576408 0.0019283143 0.0036003108 -0.003863277 -0.0036662393 0.0010985433 -0.005034452 0.0039909557 0.0013192148 -0.00066768983 -0.0020994642 -0.0031301794 0.00096845505 0.00575212 -0.0030279548 -0.004046056 0.0025151947 0.002997874 0.0010922791 -0.00084715855 0.0018406995 -0.0054008714 -0.0012196029 0.0020497965 0.0022440453 -0.007770861 0.00033545206 -0.0039537493 -0.001928603 -0.0032318293 0.005805733 -0.0024177055 0.0030856791 -0.0018003829 -0.007172192 -0.005525738 0.0025760774 -0.0058352887 0.005387809 -0.0031045636 -0.0020812443 -0.0053216824 -0.007113075 0.0043799793 -0.0040198965 -0.0062940875 -0.0009726882
程 -0.005588186 0.0019194825 -0.006657405 0.0029427928 0.004018714 -0.0029269701 0.00286226 0.0022118785 -0.0009130149 0.0063880617 -0.0031176172 -0.0010618524 -0.0060128053 0.00080881483 0.003024463 -0.006511412 0.0030357405 0.006561949 -0.0009881569 -0.007880185 -0.0063168155 -0.0076414836 0.006542938 -0.002562704 -0.0063381414 -0.0037311583 -0.002946004 0.004976977 -0.002441954 0.000970271 -0.005867019 -0.002760164 -0.0057479306 0.007225713 0.00543248 0.0069541507 0.0019244646 -0.0020811895 -0.000851453 -0.0061514466 0.00266714 0.004898897 0.0029925976 -0.006408885 0.0007332419 -0.00089954055 -0.0044831615 -0.004341233 0.0037910861 0.0034777375 -0.0015251039 0.0010098725 0.0036334922 0.005440654 -0.005056668 0.0042297603 -0.0076466477 0.0043957103 -0.0034144877 0.004900527 0.004580292 -0.00046697995 -0.0021797619 0.003784858
导 -0.004904963 -0.0056546754 -7.0815795e-06 0.002266901 0.0057205246 -0.0026008384 0.0050238674 0.0059270686 -0.0007512526 0.00072063244 -0.0035335266 -0.0036567042 -0.0020937382 0.0014553055 0.0029318018 0.0018301444 -0.002353671 -0.0028254974 0.0026652107 0.004184576 0.0038043603 -0.00017115861 0.0029115558 0.0047186 -0.0046414468 -0.0015101972 -0.0060000448 -0.0064594042 0.0072459686 -0.0069717094 0.0031135948 0.00392186 -0.004332043 0.0017284753 -0.0024064714 0.00061205926 0.007724469 0.0028187782 -0.003173571 0.0028089369 -0.0028570388 -0.0062772674 -9.162776e-05 0.003730733 0.001465672 -0.007879238 -6.582471e-05 0.00016761861 -0.001972641 -0.0011181042 0.0042045237 -0.0070769903 0.0023045056 -0.006207397 0.0027950665 0.0068385843 0.0013753163 0.0011476094 0.0019001933 -0.00079855963 -0.0073429123 0.0010236717 0.0069459174 -0.0075788633
互 -0.0021682892 0.0036624735 -0.004204811 -0.0025078198 -0.00063383416 0.004375992 -0.0019181358 -0.0034138712 -0.006396508 -0.0055293976 0.005100757 0.0026475403 0.0062559675 0.0022936445 -0.0030599143 0.006291183 -0.0016111236 -0.005774467 -0.0060168672 0.0014129359 -0.0037900868 0.0024058414 0.005948499 -0.0017914146 -0.00099607 0.0060553304 0.005847859 0.0027566475 0.0027844806 0.007762291 -0.0010328769 0.004846418 -0.00074728345 -0.0040613497 -0.00032340962 -0.0055586672 0.00380752 -0.0034755424 -0.00032122296 -0.001073636 -0.0055835317 0.004915086 0.0013081257 -0.007362684 0.0068767765 0.0017395366 0.0065076016 -0.0021620921 -0.006488799 -0.0051931585 0.005313183 0.003012184 0.0062082238 -0.004109819 0.00058397715 -0.0019703843 -0.005756247 -0.004277146 0.0047709756 -0.0058962707 0.0041103014 -0.0048636976 0.0024425655 -0.0069273515
关 0.0016933541 -0.0044171046 0.0049248696 -0.0018449951 0.0057216017 -0.0007524709 0.006002594 -0.007155201 0.007681945 0.0021109655 3.2600522e-06 -0.0065287696 0.0074097593 -0.006772858 -0.006499418 0.0045343116 -0.0056051165 0.0048962105 -0.0014647467 0.00038859845 0.00081949064 -0.0017387316 -0.0047531244 0.0049286312 0.0018164641 -0.0035689415 -0.0033391372 0.0056630666 -0.0025278039 -0.0008414236 0.0058789374 0.0009593714 -0.006498556 0.0072369566 0.0052482896 0.0063683284 0.0019767985 -0.0024808268 0.0044129654 -0.0005247711 0.0028779332 -0.006577559 0.007280709 0.0045880075 -0.006214776 0.0022703398 0.00010492029 0.0066137733 -0.0018132327 -0.0063151456 0.007340122 -0.0007668153 0.0063052517 -0.005846368 -0.0021175419 0.005900984 0.0055259643 0.002134888 -0.007890471 -0.0044755246 0.0003476299 0.0052836086 0.004387114 -0.0004900224
号 -0.001514367 0.00022258256 0.00030020365 0.0024252017 -0.006771046 -0.0049577644 -0.0050965333 -0.006262936 -0.007042771 -0.005683335 0.004675995 -0.0020208159 0.0058090854 -0.006706427 0.002695668 0.0068090903 -0.006437571 -0.0012042049 -0.002628915 0.00085829524 -0.004036985 0.0041245767 -0.00038989587 0.00047459904 -0.0066171954 -0.0045782467 0.0046766526 -0.006977867 0.0051130257 0.0028252872 0.0038672432 -0.0019533958 -0.0017919191 0.0039136116 -0.0066031367 -0.007121261 -0.00042939372 -0.0018460825 -0.0043623615 -0.004322645 -3.934207e-06 -0.005503621 -0.0011478069 0.00057169556 -0.0009787843 0.0036957457 -9.474437e-05 0.004513971 0.0077074375 0.0046411636 -0.002754233 0.0020278352 0.005496667 0.006731643 0.004541966 0.003522031 -0.0019616066 -6.995059e-05 0.0023416916 -0.0024627526 -0.0026232004 0.0029327853 -0.0035553426 -0.00427327
2 0.010676109 -0.0046492014 0.0014085141 -0.008015748 -0.0023222729 0.0036758757 -0.007886283 0.008755618 0.007883943 -0.0040316824 0.011672857 -0.010177763 -0.005854279 -0.0010780373 -0.0013756882 0.008562934 -0.00066722004 -0.004533739 0.006575544 0.0043658786 -0.0028419138 -0.004246302 -0.003431379 -0.00472466 0.004683041 0.0003392162 -0.00011295486 -0.004590362 -0.007407101 0.0034503737 0.007337923 0.00058152183 0.0013214068 0.00068295 0.0062898993 -0.0007860468 -0.0008929962 -0.0025214462 -0.0065211426 -0.009044867 0.0019924482 -0.0033809065 -0.0038460535 0.00785566 -0.0047210366 -0.00039338187 -0.0064307265 -0.0010005222 0.0021865433 -0.00094474276 0.0074035577 0.0053128316 -0.000725563 -0.0026351411 7.626538e-05 -0.006588077 -0.0019964988 -0.0035929598 0.0019764889 -0.002039631 0.00019241082 0.0059914915 0.0025050445 0.0012647654
组 0.00052248256 -0.0016262254 -0.0038151154 -0.0051419158 -0.0025301008 -0.0026179957 -0.0016485826 -0.0059446576 0.0020505777 0.003149953 0.005670073 -0.008630599 0.0075402535 0.006799152 -0.00016427673 -0.0030002382 -0.00041736529 0.0063866493 -0.0006976956 0.0030384164 -0.0039820806 0.0016609255 -0.00095869036 -0.0026653777 -0.00436249 -0.0039947 0.0035032276 0.006297993 -0.004509877 0.002876541 0.00520986 0.0018439529 0.0072196904 -0.0041579283 0.0022913525 -0.0082365535 -0.0009385185 0.006768242 0.007595412 -0.0049973316 -0.006763959 0.0017523435 0.0034570019 0.0076103564 -0.0037555816 -0.00052324537 0.0034744658 -0.0018127137 -0.0027958408 -0.0005129567 -0.0042161494 -0.0038674364 0.0014230813 -0.0018143328 0.0071982057 0.0030110346 -0.0071417997 -0.0061194594 -0.0035981971 -0.0009673733 0.005548074 0.0036338689 -0.0022921406 -0.007975964
生 0.004683399 -0.001678832 -0.007018627 -0.002008732 0.003757548 0.0060868138 0.001587109 -0.0014618046 -0.0035101443 0.0018751983 0.006741269 -0.004594213 0.005973092 0.0036387134 0.00032996185 -0.003121853 0.007930107 0.0027520913 0.0077056056 -0.0067586843 0.006769653 -0.003889809 0.0046102675 -0.006271391 -0.0018727212 -0.00017534675 -0.006774148 0.0017078428 -0.002913841 0.005579624 0.004627234 -0.0074158926 0.0010433365 0.005332968 0.0055888295 0.0040401462 -0.0016508864 0.0027749494 -0.0076729013 -0.0043260646 -0.000922581 0.0007699954 0.00073510467 0.007003019 0.0014550298 0.0026482253 0.0031424607 0.0007564105 0.0007927302 -0.0023668453 -0.0043705595 -0.0018779677 -0.0031084616 0.00018913359 -0.0040740245 -0.0011623311 0.0014434225 0.006089948 0.0073538106 0.00035176976 0.005777239 -0.003893087 -0.0054337136 -0.0016777471
包 -0.0049642487 0.0039586374 -0.00060241367 0.0064860205 -0.0046453127 0.0029825985 -0.0007882011 -0.00012017269 0.0006002314 -0.0019403849 0.0051774443 0.0035463527 -0.002516945 -0.0007183556 0.0037271678 0.0011500246 0.0036836665 0.00090696034 -0.0066139577 -0.006172949 -0.0028602453 0.00400182 -0.0029911096 -0.0011070182 -0.003119987 -0.0055566723 -0.004602511 0.0071962536 -0.0021433104 0.0036960624 0.0070784967 0.006384647 6.3461944e-06 0.005596404 -0.0070589385 0.0056638485 0.0012053009 -0.00399407 -0.0044585224 -0.00058864127 0.005387997 0.0061658276 0.0076898495 0.004556154 0.0018095844 -0.0027801446 -0.0042705843 0.0033907946 0.0023928108 -0.008054457 -0.0036645355 0.0010922946 0.008147276 0.0023370683 -0.002183016 0.0014820972 0.006781017 -0.0033568114 0.0069017145 0.0051202164 0.004940306 0.00035222256 0.0042352467 0.0019214095
如 -0.0025497144 -0.0017348022 0.0065307785 -0.0060086935 -0.0062289913 0.0024936704 0.002130169 0.0069142827 0.0061288876 0.00295624 0.005318551 0.0064960863 0.0034935176 0.006892511 -0.00047423271 0.0051989965 0.0022128003 0.0015813686 -0.007519981 -0.0005577664 -0.0062429933 0.0019915977 -0.006843421 0.006699306 -0.0022368354 -4.0664756e-05 -0.00071022776 0.0013105167 -0.0018362118 -0.0039031862 -0.0028282136 -0.0019197774 -0.007021668 0.0019090062 0.0065135495 0.003174844 -0.00559654 -0.00084832613 -0.00628295 0.0015462135 0.001131002 -0.0047598206 -0.00028545028 0.0055681774 -0.003626261 0.0016822334 0.0039515644 0.007938027 0.006902739 0.006715874 -0.0003717472 0.004194768 -0.0018456724 -0.0069336854 0.0045003844 -0.0048427437 0.0052048513 -0.0065647885 0.005610375 0.0011009334 -0.002613757 0.007670421 0.0040988657 -0.0067662066
