468 64
电 -0.0036405895 -0.006152864 0.00624957 0.002870107 0.007926155 -0.0038062588 -0.0006962144 0.0061397958 0.0016550558 -0.001336508 0.0020360302 -0.0018627163 0.009922544 0.0059460606 -0.003804221 -0.0034461592 0.0071878824 -0.0020531241 -0.0014035157 -0.006245027 -0.009185051 -0.0022703756 -0.0023926494 0.008184729 0.005273602 0.0018476516 -0.0032548658 -0.0035637706 -0.0038869958 0.0074126115 -0.00029950676 -0.0024809146 -0.00080853136 -0.0018432423 0.001146714 0.008630097 -0.006407087 -0.0016026687 -0.0076895454 -0.006491508 0.0010704906 0.00023531141 0.00017343636 -0.0011327168 0.001999421 -0.005168533 -0.0032267664 -0.009339314 0.0037902487 0.004744833 -0.0064467005 -0.0012353273 0.003618738 -0.004919511 0.0039870744 -0.0010125274 0.001937609 0.007477083 -0.0033926521 0.0015175536 8.154009e-05 -0.0036487414 -0.0043908474 0.0033175847
的 0.00011966074 0.0021989604 0.0057130093 -0.002473491 -0.0054599866 0.0027864529 -0.0006882973 0.0061254473 0.0017099777 -0.010896073 -0.006120687 0.005939809 0.0071759988 -0.0045053423 0.004418992 0.009870101 -0.0002526071 0.00089354895 0.00041034733 0.0055094515 0.00023404208 -0.008914642 0.0013321203 0.005182207 -0.0030571835 -0.0016980183 0.0026647786 0.0038096467 -0.002847241 0.005220238 0.0038946194 -0.0024089725 -0.007451581 -0.0074871858 0.0031037761 -0.0050677885 -0.003466751 0.010615438 0.0033899215 0.005895476 -0.005660858 -0.0070574977 0.003059614 -0.00096820825 0.004942143 0.008534724 -0.006246731 -0.008987677 0.007228382 0.0019750458 -0.0020417005 0.0049823937 0.0061128326 -0.00031176995 0.006079589 -0.010716687 -0.005099508 0.01013802 0.0062051676 0.005356391 0.008304056 -0.008587463 0.007371933 0.0055643874
路 -0.0039944965 -0.004584549 0.0010055013 0.00048666634 0.003930168 0.005315688 0.0024778426 0.0049659186 -0.005770337 -0.010060295 0.0053721876 0.008062477 9.6242344e-05 -0.00065946305 0.0050228215 0.0012928552 0.008319297 -0.0063178493 -0.0064139767 0.001818478 -0.005626095 0.0010416982 -0.0063142753 0.0011497022 0.005675449 0.0022032382 -0.0032221815 -0.0011675535 1.9846753e-05 -0.0030309064 0.0025130336 0.0066382587 0.0020626702 -0.0066573787 0.0041036047 0.0036545398 -0.005349725 0.0048577427 0.0059544374 -0.00045507273 0.008001842 -0.00278623 0.0016920284 0.0076525407 -0.0018497524 -0.00037418387 0.0055828444 0.003797051 -0.0023990355 -0.0028995695 -0.001791457 -0.003842263 0.0052829725 -7.010993e-05 0.0025186022 -0.00679507 0.0051863175 0.005102338 -0.00044832707 -0.0033065204 0.008855175 -0.00544581 -0.0009451616 -0.00073439634
流 0.006837767 0.0007088127 -0.0065401164 0.0057660504 0.0010363042 -0.00033982907 -0.0003011862 -0.003848605 -0.0045719035 0.006633385 -0.0034953842 0.004437776 0.003136772 -0.0075882366 -0.0045167403 0.0012844194 -0.005654911 -0.0022393172 0.0072276513 0.005282463 -0.0033446713 -0.0010322232 -0.004716408 0.0035480459 0.007877254 -0.0072211265 -0.0007597338 -0.00026387724 -0.0031055994 0.004784333 0.00257695 -0.0046152757 -0.0044400566 0.0004320508 -0.0056878296 0.0057558436 0.002049507 0.004393686 -0.0055696815 -0.0053288713 0.0054881093 0.003493946 -0.00012412803 -0.0021058547 -0.0030584661 -0.0029497545 0.005707412 -0.007722145 0.004456442 -0.0051307236 0.002654687 -0.0011285539 0.0016638692 0.00054213393 0.0074586393 -0.004348463 -0.004131527 0.0021140557 0.0063750194 0.003277709 0.006246885 -0.0047872504 0.004761078 -0.0034118632
是 -0.0027574953 0.0029414583 -0.00272846 0.0049519073 0.007903279 0.004204936 0.0046893787 -0.007570981 -0.0030673847 -0.0048134793 -0.0044561056 0.0036208509 -0.002564377 0.0026888386 0.001908424 -0.0043722605 0.002312981 0.004284391 0.0046612 0.007634481 0.0019347826 -0.0075091836 0.0033796164 -0.0068099545 0.0063787764 0.0014765095 -0.0070663043 -0.0018031341 -0.0055916305 -0.0035357205 -0.006439615 -0.005114877 -0.00779693 -0.005853151 0.005039762 -0.0011064265 0.0017349848 0.004519103 -0.0059915055 -0.00082989153 0.008111421 0.0070910403 -0.0043412084 -0.0060662227 -0.0059058834 -0.0066806995 -0.0029889138 -0.006150268 -0.0057863817 0.003395826 -0.0004081557 -0.003669166 0.0056429585 -0.0037201208 0.0044998177 0.003919584 0.006738605 0.0065847356 -0.002639209 0.0027892033 -0.0038323253 -0.00036576873 0.0051882304 -6.920699e-05
压 -0.0056560775 -0.0056408676 0.007957971 -0.005802144 -0.0037571383 0.0014151132 0.00072477525 -0.0052853543 0.0055248733 0.00060412794 0.00023847805 0.0025343834 0.003916746 0.0041400995 0.003198542 0.005267208 -0.0037925406 0.0025012249 -0.0037550777 -0.006416619 0.004900746 0.0012899786 0.0056692576 0.0044203186 0.0019164495 -0.0051425607 0.0056619514 0.004685898 0.0010162992 0.0015844584 -0.007824092 0.007183926 0.005901982 -0.0035299885 -0.0049825083 0.001999022 0.007005011 -0.0005127343 0.0054314607 0.007128398 0.00056764774 -0.00404528 0.005093116 -0.0036872549 -0.0042054695 -0.003914347 0.0006436821 0.0035108135 0.00039959038 0.002270493 0.0047679353 0.0020341172 0.0011531491 -0.0023161557 0.0063954554 0.0040064864 -0.0021632346 0.0076342127 0.006302154 -0.0031767078 0.008732569 -0.00024417075 0.0015994303 -0.0044567883
率 -0.0031550073 -0.0058307676 0.0042788223 -0.0032212348 0.0039688284 -0.004411887 0.0054029585 0.00024489322 -0.0035819202 -0.0012879925 -0.0032411022 -0.0039404575 -0.0055963416 0.0006621033 -0.0071964324 0.0072405124 0.0007637896 -0.002171808 0.0065898714 0.0048060655 -0.004741718 0.0044357018 0.00033690684 0.0032187593 -0.00440694 -0.0043225265 0.0048213806 -0.006746074 -0.004524828 -0.0032960472 0.0037358692 -0.006013567 -0.0016348568 -0.0023488703 -0.0034678741 0.000913507 -0.003986503 0.005480735 0.0053339065 -0.006516983 -0.003131818 0.004615465 -0.007644028 -0.00091667054 -0.0018073197 -0.0041835518 0.007647839 -0.001037421 0.000944807 0.0058773393 -0.00080977427 -0.0045597837 -0.00051241514 -0.00043739885 0.00237131 -0.0077424888 0.004015363 -0.0019210326 -0.0036931417 0.0037672196 0.005344885 -0.008486792 0.0012079072 0.0011769282
阻 0.0028437928 -0.0007883964 0.0007504418 0.0006852394 -0.0008752366 -0.0014715786 -0.0017882057 -0.00051625853 0.0016400353 -0.0036254132 0.0050955634 -0.0028166454 0.007925532 -0.0020107254 -0.00021207899 0.0006421487 0.007260103 -0.006220665 -0.0053493613 0.0013912991 -0.0054940972 -0.0057155853 -0.0076033566 -0.005105078 -0.0032071439 0.004094875 -0.0019226387 -0.0022105896 -0.007273776 -0.0039576474 0.005101637 0.0046307878 0.0052662306 -0.0026461547 -0.0078075286 -0.0011372049 -0.004665406 0.004624004 -0.0077761635 -0.0027220666 0.0015148055 0.0028102628 -0.0073802364 0.00055867655 0.0009830772 0.0014549689 -0.0032845582 0.0063569373 0.004179593 0.002741163 0.005550038 -0.005893801 -0.00074842246 0.0078099784 -0.0036464797 -0.0066662394 0.002700479 -0.0039693923 -0.0024199565 0.005426431 -0.0014637428 0.0010439026 -0.0062278863 -0.0033053735
数 -0.0068536233 -0.0044702007 -0.0014646135 0.008080661 0.0008477735 0.0014917506 -0.004642732 -0.005157782 -0.008412564 -0.0064362804 0.007862755 0.0052007614 -0.005910144 0.0083534755 -0.006886523 0.0017952209 0.0048796665 0.0010327041 0.0021182955 -0.006101821 0.00407919 0.0020247598 -0.0012147092 -0.0018576665 0.0011640037 0.0046547605 -0.0011749149 -0.0006029094 -0.0044048205 0.0012358635 0.0025511477 0.00016918265 0.0033924065 -0.009194256 -0.007880394 -0.0019419756 -0.0064736214 0.00022159364 0.00377465 -0.003309244 0.0025800143 -0.006276233 -0.006460656 0.006827269 -0.0029349725 0.00948046 -0.0034791832 0.0008634586 0.0031239993 0.0039563933 0.0009186379 -0.003912141 -0.0036301152 0.0057284553 -0.008200654 -0.00038574607 0.0027443692 0.0068438947 -0.003635313 0.0004206184 -0.006210067 -0.0006757005 -0.0004493766 0.0041796756
一 -4.421741e-05 -4.4078748e-05 0.0076230844 0.00051768305 0.0037892864 0.00068780413 -0.0014403859 0.005100317 -0.00071707397 -0.0041484176 -0.0017005029 -0.0011845335 0.0023037319 -0.0073073213 0.0012150117 0.0023000848 -0.0035193884 0.004314092 0.00019014333 0.0066780252 -0.008469759 -0.0020885475 0.0045102723 0.0068718004 0.007856681 0.0013668746 0.0031884587 0.007026454 0.0037301222 0.0010743462 -0.0039347443 -0.003812457 0.0043410524 -4.223642e-06 -0.0049709836 -0.0020154794 0.0011175554 0.0053408197 -0.0032501183 0.0066895606 -0.0026925665 0.0027850785 -0.0030799697 0.0005878741 -0.006252903 0.004972781 0.0048512234 0.006398125 -0.001335297 0.0011421529 0.0039878734 -0.005487542 0.008548959 0.003716012 0.0020459273 -0.0010616054 0.002529567 -1.20013065e-05 -0.0070715384 0.0073578306 -0.0052179997 0.0049591786 -0.0045187725 0.0034266335
源 -0.001968822 0.007344714 0.0024992898 -0.00011801838 0.0010177917 -0.0064488575 0.0010203187 -0.004825409 0.004019515 -0.010061508 9.2522154e-05 -0.0036251754 0.0039539402 0.0047333166 0.0027615675 -0.006031402 0.0016285712 0.007356015 -0.0021486701 0.0074144243 0.005007673 -0.006426308 -0.0057568615 -0.00672645 0.0057316413 0.005512774 -0.0033301152 -0.00083525304 -0.005234187 -0.006326001 0.0043886723 0.0063462495 0.002671387 -0.0033186732 -0.0027379692 -0.004876657 -0.005726338 0.0055855596 0.0066758883 0.0016272425 0.0073760296 0.0033887327 0.0038290503 0.007771088 -0.005944078 0.009186782 0.0014677957 -0.010083966 -0.0033157787 0.004508024 0.0025187656 -0.006896042 0.0022338724 -0.002705213 0.006040053 -0.0096455645 -0.0059492965 0.0060654073 -0.006013851 -0.007701992 0.004150792 0.0057857 0.00390873 0.0008944643
为 0.0050706863 0.0061399257 -0.00072971045 0.004112979 -0.0063635577 -0.005942399 -0.0009235959 0.007221167 0.0031056306 -0.0013385771 2.891755e-05 -0.0028670167 0.002604871 0.004325082 -0.0030157669 0.007198685 0.005888157 -0.007078049 0.0014301423 0.0035184047 -0.006250495 0.0055861743 -0.0065319086 0.0016636406 0.002998514 0.006811644 -0.005169825 -0.0031919319 -0.0066875294 0.0074164434 -0.0050146673 -0.0065898797 -0.002865313 -0.005416038 -0.004957774 -0.00024017767 -0.0006446899 0.0026650955 -0.004913079 0.0074054385 -0.005886935 0.0061717536 0.0075875977 0.0028281067 -0.0007657973 -0.001271173 -0.006763002 0.0039812317 -0.0032743954 0.00613422 0.004290627 0.0063787675 0.005912433 -0.0043755956 0.0030264088 -0.0052183466 0.006824491 0.0064438647 -0.0004901267 -0.0013642876 0.00082461844 -0.0074248407 -0.004551594 0.0029930014
时 -0.0016030028 -0.0005900097 0.0038840757 -0.0062810536 0.0058298907 -0.003936287 -0.0063820113 0.006447971 -0.0068032057 0.00075421575 4.045521e-05 -0.007114159 -0.0036024828 0.004905264 0.0061562853 0.00035488466 0.0048588593 0.0060895467 0.0030869907 0.004122944 0.006164699 0.0028891675 0.007547029 -0.0025430433 0.0034382946 -0.0038111557 -0.004033163 0.005085279 -0.00010731101 0.007434434 0.0073859813 0.005558021 -0.008190533 -6.0127033e-05 -0.0043198 -0.00059970043 -0.0019252431 0.0023997396 -0.0004418358 0.007858642 0.007971374 -0.008145278 -0.005691165 0.004291367 0.0018288257 0.0056487545 -0.0030849243 0.004526404 0.0008260841 0.004705661 -0.0025818278 -0.0070026875 -0.0059653358 -0.0042043827 -0.0024779008 -0.004171983 -0.006591244 -0.002023685 -0.002935692 -0.0026318654 -0.0014150104 0.0042497898 0.0035658397 0.0011308799
功 -0.0060475226 0.0016486127 -0.00175437 0.004877535 -0.0020586052 0.0062508993 0.00072331104 0.0039849696 0.00027151708 -0.00717257 0.006722055 -0.0008854638 0.0040253517 -0.0021673942 0.006636582 0.0028910276 -0.0035506473 0.00092267146 0.002754854 -0.0018069057 -0.0033864018 -0.0032784387 -0.004835418 0.004306997 -0.0010066325 -0.0069573577 0.007961579 -0.0016968721 0.0038808994 -0.0032854683 -0.004993173 -0.007441073 0.0050011817 -0.0017263816 -0.0029114706 0.008046968 0.0031716302 -0.0017532809 0.0059324168 -0.004409582 -0.0059576663 -0.0077112243 8.763788e-05 0.005931854 0.0074306685 0.0018445434 0.0010404143 -0.0017731809 -0.00083016715 0.00514387 -0.004409585 0.0034839986 0.0006795008 -0.0015109524 0.005646573 0.0032502897 0.00085809495 -0.0051448345 0.0011126316 -0.0016614156 -0.0024596832 -0.0013497107 -0.0024760307 -0.0034717524
个 -0.0011849212 -0.00759782 -0.0065692165 0.00814873 0.0027256599 0.0052204984 -0.005315052 0.0058301394 -0.0072423005 -0.0015103092 0.0035006714 0.0030379607 -0.00013794699 -0.0019763173 -0.002881818 -0.0054656514 -0.0019139936 0.0021049804 -0.0035019147 0.0077158324 0.005481797 -0.0078122527 -0.0029976135 -0.0033596517 0.0074426257 -0.0020576257 -0.004415513 -8.021956e-06 -0.0035686851 -0.0015818698 -0.0001874168 -0.0007154724 0.00032708395 0.0025318747 -0.007657349 -0.0053118407 -0.0036029636 0.0044567413 0.0003450873 -0.0031806773 0.0045758765 -0.004549104 -0.0071399286 -0.004223056 0.006324571 -0.0065713865 -0.006644389 -0.0022238689 -0.0027207355 0.0061894227 0.0019805918 -0.00013830596 -0.005437985 -0.007346155 -0.0038465932 0.0019047002 -0.00019159981 -0.0046195476 -0.0038791443 -0.0012943163 -0.0012512925 -0.0052488702 0.007844327 -0.007655733
于 -0.0018702925 0.002744609 -0.004622152 -0.0010289301 0.007966714 0.00082967256 0.0042052306 0.0003064754 -0.008242429 -0.0026617001 0.006845644 -0.0071916766 0.0008749029 -0.0045596375 -0.002135691 0.006022087 0.005961485 0.0015642873 -0.00044939746 -0.0025409292 0.0005908615 -0.004140134 -0.0065605533 0.006496216 -0.0034735075 -0.005832863 -0.003802327 -0.0015788844 -0.0010146187 -0.0044984897 -0.00489771 0.0042834263 -0.0075967787 0.0030597493 -0.006947719 0.0046400283 0.004703261 0.0037431584 0.00037807872 -0.0056450367 -0.0034413151 0.001173094 -0.0069858846 -0.0047585033 -0.007403086 -0.00626459 0.0024767548 -0.002511184 -0.006817616 -0.0045969384 -0.0076588374 0.0049730362 -0.0059543005 0.0032638058 0.000263887 -0.0011458662 0.0015443211 -0.0052000363 0.00049077015 -0.004069515 -0.0039577046 -0.0072575873 -0.0065942337 0.007188428
应 -0.0032406994 -0.0019625644 0.0015075521 -0.0044221315 -0.004461408 -0.0060141836 -0.00019599419 -0.0034731159 -0.0066516297 0.0028474026 -0.00044238206 0.0022802597 0.0052276454 -0.0048564244 -0.005228649 0.0042578797 0.0018567803 0.0063255085 -0.00082024763 0.0013800199 0.000662092 0.0062408135 0.0016097861 0.0073956023 -0.004899839 -0.007262417 -0.0037924626 0.00070397183 -0.0046146247 -0.002778819 0.0062597026 0.0029650498 0.0057831733 -0.00089505274 0.002565996 0.0070671 0.0019598273 0.00025193644 0.005160118 -0.0013673425 -0.0073874244 -0.0071250205 -0.0062235836 0.0029250267 0.0009539735 -0.0068755546 0.005530861 -0.0033328636 -0.007129597 -0.00037115192 -0.00024238502 -0.0050777844 0.004401358 -0.006589276 -0.007413976 -0.0031702255 -0.0002631779 0.0020435872 0.001408731 0.0024342092 -0.0001632402 0.003808221 -0.007058146 -0.0015862498
和 -0.0056261495 -0.00275945 0.0019399512 0.00042888368 -0.0014725758 -0.00016641442 0.007100723 0.0035768065 -0.0037513876 -0.003915241 0.0043868865 0.004334858 0.006699131 0.0054766824 0.00049629837 0.007249117 0.0022573718 0.00415928 0.00025092598 0.002540547 -5.18403e-05 0.0011617495 0.0016952042 -0.0021345643 0.006908948 -0.0024927862 -0.004093274 0.005457057 0.005413426 0.0047152317 -0.001344634 0.0026177003 -0.005815337 -0.0021843207 0.003422723 0.004462429 0.0013079485 -0.0016627493 -0.0040626754 -0.0017937431 0.0009719602 -0.0011567333 0.004779572 -0.0027309284 -0.0045747776 0.0013560171 -0.0054744286 -0.005628287 -0.004001976 0.0032342272 -0.00069863454 0.005614172 0.006695084 0.007620829 -0.006115011 -0.0040677935 -0.0067711533 0.0070000924 -0.0014104607 -0.0016983146 -0.0036625355 -0.0035816259 0.0055438923 0.0011532075
等 -0.007771403 -0.0026813985 -0.007026856 -0.0072355857 0.003544134 0.00512678 0.0018000457 0.0021832972 -0.0072545526 -0.009327188 -0.0002994208 -0.0046214205 0.004542051 -0.004501897 -0.0070778984 -0.0027119801 0.0075826733 0.0050763655 0.00260493 0.0006550441 -0.0077781486 -0.000988792 -0.0034079999 0.005567214 0.0012628172 0.006312044 0.004134101 -0.0017933531 0.0035291926 0.0038530477 -0.006439387 -0.0030703088 -0.00016058318 -0.005991058 -0.008519305 0.0033132306 0.0044907345 0.00194517 0.0034534864 0.0072980653 0.007194601 -0.007688642 -0.0010869955 0.008383053 0.0070167542 0.0046729846 0.00023176211 -0.004519532 -0.0028238262 -0.00747631 -0.0005290929 0.0027682935 -0.00093443034 0.0037083696 0.0058907755 -0.0040675383 -0.0035271277 0.0053129285 0.0021865827 0.006869131 0.004973763 0.004866732 0.0071833297 -0.0025379888
性 0.0057105054 0.0028595391 -0.00657633 -0.0003116191 0.007591089 -0.004274631 0.0066870935 -0.0046041007 0.0031725564 -0.00628895 0.0056322683 0.005955517 -0.0058092033 -0.0062988917 0.00026255837 -0.0016890037 -0.005276761 -0.0053008664 0.0050084474 -0.0004537901 0.0063967644 -0.0067365174 -0.0019306063 0.0011418355 -0.0003240891 0.004082166 0.004978335 0.0042008846 -0.0036157083 -0.0016714613 0.0035006313 -0.0011994597 -0.0068362406 -0.004572263 -0.007499953 0.0026953002 0.0050457544 -0.006369153 0.0060797026 -0.0038918115 0.006830936 0.0033959053 -0.0063975295 0.004426298 0.007597496 0.007603215 -0.0011902808 -0.007449713 0.004369863 -0.0015872909 0.003632334 -0.003486057 -0.0015023027 -0.001590415 0.0053472575 -0.0072347485 0.0071509033 -0.0013497518 -0.0072731194 0.0030698283 0.0074638776 0.006502376 0.005205783 -0.007720126
响 -0.005803902 -0.0016082763 -0.0009881062 0.005229449 0.0050994707 0.0009815478 -0.005052063 0.0024782307 -0.00028523055 0.0019520285 0.0045535364 0.0069920016 0.003652937 -0.003220492 -0.0021372573 0.0035548136 -0.0037009253 -0.006415418 0.004594869 0.0012126715 -0.007991796 -0.004021184 -0.0002919814 -0.0015185793 0.0017058995 0.0045921393 -0.00749427 -0.0029574386 0.0021756915 0.0015183218 -0.0032112268 -0.00088464824 -0.005646983 0.00084268156 0.0048922673 -0.0061377785 0.006755983 0.0010841471 0.0033537962 -0.00070584874 0.004412052 0.0049685105 -0.0076404363 0.00018075515 -0.0021375571 0.0024387152 -0.0036282032 -0.005815361 -0.00245224 -0.003220259 -0.0023887332 -0.0071656723 0.0030407659 0.0011069227 -0.003596406 -0.008785132 0.0071510347 -0.001113228 0.006094606 0.0019773385 0.005055127 -0.0074771238 -0.0013460129 -0.0053168614
中 -0.00035558548 0.0023895171 0.007391708 -0.0057294643 0.004174754 0.00516451 -0.0030130884 -0.005888213 0.0017566432 0.00097404304 -0.00026349665 0.0042711156 -0.0050647156 0.0076714144 -0.0073492 0.0010058361 -0.0074941665 -0.0036662787 0.0060667233 -0.0003165446 -0.0033878486 0.0007240666 0.0019140838 -0.0047446685 -0.0042975205 -0.00658564 -0.0047687627 -0.0045614336 -0.0059865313 0.0042719743 0.00012715443 0.002559775 -0.0008170776 -0.0067360387 0.005724363 0.0007735522 0.00033786352 0.0040009944 -0.0064385682 -0.0027363694 -0.0074660773 -0.0026787454 0.0053469776 0.0015970274 -0.004198525 0.006478356 0.002619136 0.006615049 0.0067189834 -0.005834203 0.0036297722 -0.0019813732 0.0071615945 0.008157341 -0.0038476547 -0.003108301 -0.0037149014 0.0045473645 0.007406603 0.004259586 -0.005567366 0.006768522 0.001498227 -0.0022518379
相 -0.005539171 0.0028938164 0.0026144676 -0.00041381834 -0.005097383 0.004815242 0.006189553 0.0016190257 -0.0015636799 -0.006365676 0.004691839 0.004874612 0.0063638743 -0.005813367 -0.00019709839 -0.0032061292 -0.0013071795 0.0072200787 0.0023786905 -0.0014000566 0.0066161403 0.0062589603 0.00087541173 -0.0009614153 -0.0034961384 -0.0035370365 0.0021326828 -0.004319125 -0.0012738501 0.006746615 -0.0056578815 0.007011313 0.0072118873 0.0029109123 0.0012564163 -0.0005239175 0.003974722 0.008880665 0.005174361 0.0018180312 -0.0014027428 -0.0057421573 0.0051936517 0.0036642964 0.00083306176 0.0008428864 -0.005363864 -0.0039113723 0.0065418957 0.0021743083 0.003012405 -0.0009000093 -0.0036924388 -0.0019322981 -0.0058302693 -0.005988041 -0.0066738967 -0.0031299752 -0.00035621464 -0.0009242234 0.0052304943 -0.00263687 0.00032736626 0.0056453366
感 -0.007975396 0.003961817 0.000111269255 -0.0055947797 -0.0039003785 -0.0022046547 0.0075262287 -0.006270623 0.0010295117 0.00034438533 -0.0021943485 0.00041323452 0.0034617288 0.00783284 -0.0014744352 0.00030459595 -0.0051897927 0.006358834 -0.001178623 -0.001047949 -0.0044744383 0.0072101112 0.0058203745 -0.0054558585 0.0049843327 0.0043986216 0.0026236824 0.007520401 -0.0053948644 0.0056011793 0.00048252704 -0.0033837168 0.0017761335 0.006359854 -0.00575405 -0.0051138997 0.0022156883 -0.0036207126 0.0064286906 0.004959712 -0.0041974722 0.005645005 0.0027932846 0.0050217337 0.001292472 -0.00037318023 0.0069244592 0.00055277505 -0.0010902418 -0.0026487494 0.003991302 -0.0055623185 0.004831297 0.00045834604 -0.006791851 0.0025889664 0.0065152673 0.0007619168 -0.00029179384 0.0011693131 -0.0011059475 -0.0040609324 0.0022587536 0.0006636136
在 -0.00016335673 0.0075552994 0.005219487 0.003513691 -0.0046803243 0.0038473478 -0.00076096726 -0.002878764 0.00022645782 -0.0027022099 -0.0017966685 -0.0028358025 0.006734056 0.006138964 -0.006964298 -0.006634169 0.0014555454 0.0059098443 -0.0015199069 0.0041838493 -0.00381498 -0.00340919 -0.0077100154 0.0030653551 -0.0010350121 0.001981076 0.0042287516 -0.007405265 0.0048048906 0.0003032623 -0.003735541 0.0031626297 0.0021501943 0.0012941782 0.004330678 -0.0024158766 -0.004370901 0.0072878883 0.007505242 0.007950197 0.0007087503 0.00045203435 -0.0020456235 0.0019868568 0.005191371 -0.00576828 0.0053146346 0.0013505134 -0.0048348187 -0.0026969535 -0.007282326 0.0029371066 -0.00037289693 -0.0008329886 -0.0021172245 -0.0052512325 0.0028386612 -0.0052430015 -0.005536764 -0.00041847475 -0.0061422503 0.0014540907 -0.0020089627 -0.005014402
有 -0.005877895 0.0030699978 0.0037466937 0.0013454227 0.007368364 -0.007856017 -0.0016631784 0.006890621 0.0033166136 -0.0034374208 -0.0052094404 0.0026516747 -0.0032457628 -0.004157465 -0.0065084808 -0.0058576404 -0.0023228005 -0.006684964 0.006298144 -0.0058630547 -0.0071436325 0.00018677118 -0.00012506377 -0.0038782859 -0.0024196457 -0.006496555 -0.0045983857 0.005544144 0.003258696 -0.0013041615 0.0067579127 0.004527951 -0.0028500499 -0.0051973336 0.002436834 0.00561213 -0.0015459323 0.005205257 -0.0059531457 0.0024909962 0.0024717408 -0.007432065 -0.0058106063 -0.0045251534 -0.007239692 0.008783061 0.00798841 -0.00070039846 -0.0018176463 -0.006835308 -0.00679847 0.001258497 0.006176761 0.0055907816 -0.006480085 0.0045809704 0.0061500557 -0.005799818 -0.0025202418 -0.004738593 0.0022396508 -0.003988434 0.0057797194 0.0008462547
量 -0.006122518 0.0059640785 0.00447499 -0.0043016905 -0.0051465556 0.0036544763 -0.002772095 -0.0052478123 -0.0036469733 0.004320711 0.00076749065 0.0039975382 0.004750168 -0.0064353864 0.0023836584 0.0010250431 -0.0014278399 0.004723248 -0.0027726118 -0.0033590647 -0.0019326763 0.001382642 0.00055764755 0.004005863 0.004784759 -0.0009695542 -0.0013937206 0.008117095 0.004128382 0.0007938529 -0.0075498773 0.001613849 -0.006103882 -0.008593887 -0.003431436 -0.0026197433 0.0053328373 -0.003595239 0.0005387394 -0.005807835 0.0073305294 -0.0057117855 -0.0029606945 0.0058431267 0.0074625546 0.00049283373 -0.0024105965 -0.0033348387 0.0030991172 -0.005999414 -0.0033179275 0.0069998447 -0.004591437 0.0014731014 -0.0039953515 -0.0041429037 -0.00041590678 0.0022222628 -0.004429993 0.0068825707 -0.0012415557 -0.0048107253 0.0044762483 -0.0033242214
值 -0.0011331389 -0.005115871 -0.006144712 -0.007555158 -0.0026219084 -0.0072382893 0.0056844563 0.004950739 0.00318405 0.0022694382 -0.0033921767 -0.0006597243 -0.0051295683 0.0044414112 -0.0033805817 0.0029188772 -0.0014005476 0.0063383654 0.0070056594 -0.0022257264 -0.0008085521 -0.0012636245 0.005750399 0.008702169 0.0052851024 0.00701477 -0.0064242813 0.0011999604 -0.0041043647 -0.0029886886 -0.0018702216 0.0013554412 -0.0067998003 0.003049009 0.00052022905 0.0053925216 -0.0044609094 0.0071867355 0.0031130142 0.0050173756 -0.0028741213 -0.00018800377 -0.0012508632 0.009062384 0.00031342593 0.00066005054 0.006495011 0.0025581927 -0.005072775 -0.0011056209 0.003741433 -0.0028019256 0.004871389 0.0027660313 0.00047697773 -0.0065594334 0.0030360369 0.0007820662 -0.0024495092 -0.006134631 0.0046909684 -0.0037708874 -0.003369012 0.0010742462
件 0.00720154 -6.723133e-05 -0.0062930332 0.007726653 0.00075688795 0.0057694353 0.0066594672 1.792629e-05 -0.008363628 0.0037141787 -0.006282585 -0.00606308 0.0018819852 -0.0053850417 -0.007673954 -0.0051249634 -0.0073235813 0.002895427 -0.003607595 0.005315719 -0.0007592147 0.0018333658 0.003366796 -0.006218705 0.005356042 0.001824935 0.0009838527 0.008005902 -0.0020833935 -0.00074113096 -0.002407979 -0.0004887727 0.0046323165 0.003554801 -0.0011788511 -0.0014960661 -0.00036734183 -0.004007293 0.007375614 -0.0060133776 0.0037214337 0.0048008664 0.0037340333 -0.003523812 -0.0025324963 -0.004085337 -0.0038254994 -0.00359486 -0.0069783847 0.0039238464 -0.007237077 -0.004534496 0.00038141877 -0.0029734385 -0.0032421825 -0.0037827762 0.00067490945 0.002310839 -0.0027152507 -0.0048023295 0.0013422822 -0.008490636 0.00595462 -0.007469881
端 0.005020132 -0.0077458145 0.0054147877 -0.0037937965 0.006331722 0.0057366923 -0.002449356 -0.0017567736 1.9684121e-05 0.0010587964 0.0024524473 -0.0031566534 -0.0021088277 0.0058728424 -0.0058138957 0.005152598 0.004140955 0.0033565932 -0.00438033 0.002958366 0.007007454 0.0028965643 0.004700685 -0.00046734806 8.903622e-05 0.004187146 -0.006068973 -0.007067803 -0.0018060361 0.003520269 -0.004931358 0.0033323662 0.004488657 -0.0018396383 -0.0012176809 0.00019645036 0.0053715273 0.002118729 -0.004449383 0.005321107 0.0013843504 -0.006859954 -0.0019407942 0.00047484585 0.0018976178 -0.0005854473 -0.005152431 0.00020985436 -0.0040985057 -0.0047302106 -0.00045402328 0.0016446227 0.00786758 -0.0014219249 -0.0073195742 -0.0044359216 0.0016657115 0.0044796783 0.0032607059 0.007205966 0.008452102 -0.0024190608 -0.0023674425 0.0018413992
线 0.0024218846 0.0017470231 -0.002153839 0.0023777634 0.0012776755 -0.0007879466 0.0006860885 0.0070740925 -0.0073404573 -0.0041047423 0.0067442437 0.0015282516 0.005751879 3.380426e-05 0.0070690415 -0.0043677804 -0.0049725114 0.0032670414 -0.0072155623 0.0006288672 -0.003814458 -0.0076395157 -0.0014402762 0.007044628 0.0056629227 0.0005058862 -0.0043254606 0.008195616 -0.0008516932 -0.003235829 -0.0012008616 -0.006720208 0.006712549 -0.0056518484 0.0032320463 0.00083717174 0.0036560218 -0.0023395855 0.00028668233 -0.00450017 -0.0013756837 0.007417332 -0.0062055835 0.0086492 0.0060216426 0.0066263997 -0.0025267145 0.0046941084 0.0011390281 0.0010217559 0.00621762 -0.00767376 0.005087685 0.007143601 -0.004193319 0.002375761 -0.00465404 -0.004507146 -0.0032465318 -0.00031334348 0.008988402 -0.005737096 -0.003950067 -0.0043351348
元 -0.005020922 -0.0060464493 -0.002323561 0.0037410376 0.0022992308 -0.0014878236 0.004243172 0.0036576989 -0.0044373516 -0.003959997 -0.0026949043 -0.0003387091 -0.00046933212 -0.0028531323 -0.0032179998 -0.00474388 -0.0069864164 -0.0044511734 -0.0050817663 -0.0026299022 0.0014347171 0.005241045 0.005874163 0.00610262 0.0003441386 -0.0059195356 -0.007100955 0.0048449095 -0.003420814 0.0017402152 -0.0048096534 -0.003808156 -0.005979588 0.005613932 -0.005039126 -0.0006939324 -0.00080931536 -0.00044122385 -0.0045657232 0.00019915975 -0.0033666443 0.0035172 -0.0073473756 0.00033442306 -0.0020375724 -0.004677074 0.0024458822 0.0063311257 0.0040895566 0.0029071688 -0.00081702403 -0.0063593374 0.005556526 -0.00421239 0.0062087416 0.0065756156 0.0018158068 -0.0011196322 -0.0036424554 0.0046389634 -0.0013352707 -0.00623007 0.00250437 0.0070295157
两 -0.0024514257 0.0062617036 -0.0074445647 0.00032700744 0.005336176 -0.0005023855 -0.0076094246 -0.00063601707 0.006869281 -0.0019207521 -0.0059195617 0.0049572955 -0.006862011 -0.004796087 -0.00080565 -0.0005998605 -0.00549454 0.003371963 6.8945075e-05 -0.0027090812 0.006231882 -0.0013825459 0.005358682 -0.0010454975 0.006982563 0.0021678542 0.0034156956 -0.0010384887 -0.00024852823 0.0075280806 -0.0076136664 -0.0053963326 -0.0023027598 -0.0058420715 -0.0010456046 -0.0050948453 0.0013642462 0.0012954858 -0.004803667 0.0011795324 -0.0051944344 0.0037937264 0.004091672 -0.0041487277 -0.003583674 0.007074268 -0.0024033056 0.0014597414 0.006404662 -0.003208577 -0.0059805005 -0.007996516 -0.006062894 0.0069155893 -0.0001979863 0.002977998 -0.0015824874 -0.0047416072 -0.0065752035 -0.0049353037 -0.0066942135 -0.0032749905 -0.0007301668 0.0071780393
容 0.007906805 -0.0016007001 -0.0006778629 -0.0062678605 0.0021640514 0.0036947697 0.0052764704 0.0066877934 0.004581308 -0.0045792796 0.0041277357 0.0034742723 0.0017109016 0.006732893 0.005779082 0.004760124 0.007913807 -0.002042102 0.0058320533 0.005343578 -0.0042731515 0.001747753 0.001239158 -0.0030638305 0.003444521 0.00347574 -0.004427975 -0.0037135526 -0.0030816137 0.004931391 -0.0024483085 0.004393528 0.0070747538 0.0010059684 -0.0024458165 0.00590013 0.0004929165 0.004119097 -0.005609197 0.0032234797 0.0075706327 0.0049217627 -0.0031016993 0.0019717626 0.007823541 -0.0010258032 0.00023924412 0.0010897542 -0.0034618836 -0.0008710733 0.0040131784 0.003864782 -0.0029756571 0.0007471382 -0.006902007 0.0010093371 -0.002830478 -0.007673205 0.005363218 -0.0050092703 -0.0015257864 -0.0005018055 -0.0011373789 -0.0022068932
与 0.006628111 -0.0077279755 -0.0041104886 0.007122314 0.0067106993 0.0026136588 0.0072442587 0.006526447 0.0024041722 -0.008691944 -0.0040992103 -0.004533865 0.00071041286 -0.0030515243 -0.0077147 -0.005527481 0.0019443587 -0.0019703084 0.00044231117 0.00642313 -0.0017216008 -0.00043463992 -0.005018281 -0.0050223563 0.0024391965 -0.0051335692 -0.0035255805 0.005575545 -0.007284512 -0.0009854601 0.0027610506 -0.004173417 0.006096241 0.0034288699 -0.0010009921 0.0022711933 -0.00736328 0.0008671834 0.0039640386 -0.0042526224 -0.0023303137 0.006855484 0.0062954067 -0.004898672 0.0079731215 0.00070995727 0.0062005618 0.0035401355 0.00080879766 -0.000917477 -0.006229434 -0.0052530263 -0.0024818096 -0.004162429 -0.0026881136 -0.004112751 0.0076183705 -0.006440513 -0.0003684753 -0.0067916107 -0.0067412555 0.0004174093 0.00032293933 -0.0011635587
用 0.0072567873 0.004746258 -0.004055878 0.00057189557 0.0029715588 -0.0032324498 0.0061830604 0.004874739 -0.0013463143 0.005817921 0.0054330574 0.006769993 0.0032889957 -0.0022973241 -0.0067973835 0.0031282874 0.0009450095 0.001587392 0.0015423278 -0.0055043027 0.00058489275 -0.0044087903 8.240549e-06 -0.00060502265 0.0054821586 0.0072431634 0.006386402 0.004592078 0.0033447547 0.0040117535 -0.0031555826 -0.0006988861 0.00017456023 -0.00082238147 -0.0064412914 0.007287026 -0.0066187726 0.0049372613 0.004709556 0.001297615 0.005897121 0.003907173 -0.0019938443 0.0031631298 -0.0011550428 -0.0035688244 0.004893318 0.0065875147 0.0062087197 -0.0015394349 0.0016572446 -0.004872771 -0.0012404838 -0.0004834342 -0.0072425297 -0.0044047683 -0.0012675236 -0.0052042147 0.0035822862 0.0056420453 0.0022159794 -0.0011641582 -0.0019093645 0.004897793
间 0.0057572364 0.0038836754 0.00070780184 0.0064600795 -0.0021318898 -0.0008481933 -0.008609214 0.007649327 -0.00817099 0.0050713234 -0.0003547237 -0.0036265755 -0.00031593945 -0.00022784866 -0.000221298 0.008797184 -0.0063598077 0.00043513367 -0.0069822855 0.007870451 0.0011410011 -0.0057946607 0.00035926816 -0.0016675147 0.0040767556 -0.0046878136 -0.006011521 -0.0034397864 -0.005270097 0.0065119886 0.0027095487 0.0039566094 0.00043890884 -0.001772022 -0.0057263947 -0.0007679025 0.0055137533 0.006473602 -0.007910223 0.0065194713 -0.005769637 0.0024012625 -0.0033384336 0.008299149 0.0005916238 -0.0026032683 0.0035148785 -0.0016257546 -0.0008273321 -0.007921887 0.0022400233 -0.00550835 -0.005496691 0.0059731477 0.0004196747 -0.008102538 0.0077620046 0.0074210675 0.006544257 0.0071120346 0.0033248754 0.0033756236 0.0060119084 0.0022354727
联 -0.0062926807 0.0037057935 -0.004787187 0.005007509 0.007784801 0.006777278 -0.0071489066 -0.0032452068 -0.004803795 0.001576279 0.0039655915 0.0017069734 4.542647e-05 -0.0018418202 -0.0071748677 -0.0056537744 0.0067277737 -0.003084097 -0.0055241543 0.0038369317 0.0029309487 0.00088630983 0.0020465832 -0.0031289 -0.004840888 -0.0015002906 -0.007203198 0.00522171 0.003550225 0.0046854983 -0.0023439731 -0.0023776134 -0.0066976263 -0.001456365 -0.0047925166 0.0029918891 0.0067994455 -0.004710825 0.00402138 0.0008225609 0.0046815407 -0.0034262065 -0.006610729 -0.0010506958 0.006310061 0.0028493502 0.0021902379 0.0035138596 -0.0040232623 0.0057794373 0.0006695188 -0.007919324 -0.003684935 -0.0009615155 0.0017758044 -0.0064396365 -0.004350147 -0.000104475075 -0.0008023257 0.0072625903 -0.0010589486 -0.0023050685 -0.0023086518 -0.0063810432
能 -0.003479351 -0.006563963 -0.0052298433 -0.003041318 -0.007098223 -0.005970948 0.005724468 -0.0010395594 -0.0026753317 -0.0015139909 -0.0039079636 -0.0023100716 -0.0003134705 -0.0027792358 0.0024215365 -0.0023491622 -0.0050716186 -0.0072804773 0.0015217011 -0.00042952097 -0.0034293644 -0.00040196406 0.0072164107 0.0011694374 0.007367321 0.0030855387 -0.0060941116 0.0044834716 -0.0072718016 -0.0022550789 -0.005932845 -0.0011938876 0.002348343 0.004079566 -0.00637654 0.0015655399 -0.005771747 -0.007047939 -0.0046941787 0.0045541236 -0.0033293641 0.0072163357 0.0069837444 0.0024529553 0.004395741 0.0071977424 -0.0024646649 -0.0009046818 0.0014553102 -0.0005659447 0.003686284 0.002344636 0.0060541616 -0.002109236 -0.004401432 -0.0038984248 0.0009957174 0.005169494 0.00030110858 0.0071683694 0.00048694157 -0.0068426304 -0.0035330455 0.0025002204
不 -0.0011182511 0.00053581386 0.0016391048 0.006258946 -0.0024920318 0.005587899 -0.00063794205 0.0027240978 -0.005786131 -0.006346933 0.0073364144 -0.0016898838 -0.0038558193 0.0024447544 -0.004015836 0.00070690707 0.007894227 -0.0064878063 0.00041029655 0.002034692 0.000815292 0.007029978 -0.0075894315 -0.005573676 -0.0012052583 0.0051996047 -0.0069594416 -0.0011844084 0.0065859547 0.0024364798 0.0057023885 0.004901858 0.0006278606 0.0037754537 -0.0055989665 0.0004550935 -0.0016948049 -0.005473389 0.002351578 0.0023798023 0.0027177746 -0.0029547594 0.0019252966 0.0067944974 -0.001454038 0.0068406304 0.006319564 -0.00644328 -0.0037207121 -0.0021721246 -2.1906759e-05 -0.0038242277 4.6115823e-05 -0.0051441165 -0.006977692 0.00084903656 0.0016663139 -0.002770564 -0.0036716983 0.0012006507 0.003940293 -0.004010405 0.00547553 0.0013752978
器 0.0074305786 0.0050031184 0.00072495005 -0.003217951 0.0044761696 -0.0061347624 0.0030591139 -0.003591808 0.0034872044 0.0022524926 -0.0014048992 -0.005518198 -0.0020919133 -0.00222245 0.0033293192 0.005016374 -0.0037746024 0.007769204 -0.0025963702 -0.003919376 -0.0035479297 0.0037553997 0.0031572857 -0.0033454814 -0.005165421 0.0018244921 -0.00673737 -0.0057620727 -0.0015500453 0.0024330197 0.0007927616 -0.0017707612 0.0055425367 -0.003012415 0.005619952 -0.0068020727 -0.00463969 0.0017593346 0.0010832715 0.0070676673 0.007808334 -0.0073294328 -0.0072214208 0.00650163 0.0026037227 0.0074849636 -0.0036044838 0.0002584157 0.0044840267 -0.0032969194 0.006903724 -0.0045909598 -0.006215583 -0.007065456 0.00039417073 0.0028396347 0.0030074224 0.00047451988 0.007958647 0.0064167255 0.0014592182 0.00032176802 0.0075145434 0.00020130406
网 -0.005767522 0.002436906 -0.0010852483 0.0064493516 0.0003731127 -0.007753891 -0.0033594551 -0.005017132 -0.0017436931 -0.005706106 0.002429462 0.0073085492 -0.0051022214 0.004794031 -0.0077365995 0.007957862 -0.0061830245 0.0019653281 0.0073387986 0.0009778936 0.0055200746 -0.0019427813 0.0075241877 0.0035589095 -0.0010955596 -0.0020181823 -0.005955857 0.0041324557 -0.0067238137 -0.00242115 0.00014086437 -0.0058918195 -0.0032179116 -0.0054386654 -0.0013335902 -0.0025776178 9.0301444e-05 -0.006234504 0.0059689875 0.0025457798 0.00066627667 0.0009312546 -0.00750221 0.0048551946 0.0065327166 -0.003070137 0.007850196 3.2637774e-05 -0.0028513726 1.5605432e-05 -0.003435196 0.0012915991 -0.0023401123 -0.0025149279 0.0057398025 0.002638021 -0.0061521004 -0.0043265885 6.4245476e-05 -0.003752769 -0.00015861407 -0.007611506 -0.0011357821 0.0009349231
之 -0.0038204943 0.00048959535 -0.005345302 -0.0030995244 0.007106489 0.004978368 0.003831121 -0.007284761 -0.007375832 0.0055345776 -0.004690743 -0.003173 0.008353214 -0.006744128 0.004010032 -0.003631379 0.0056717037 -0.0025317497 -0.00073814666 0.00044588797 -0.006428469 -0.005117538 0.0067560226 0.0036764015 0.005993755 -0.0038575295 0.0031169623 0.0008516746 -0.007211073 0.0009452511 0.0035532038 0.0046375482 0.000684722 -0.0042003724 -0.008749008 -0.0035250876 0.0055176117 0.000111227746 -0.0009317707 -0.001180755 -0.007343721 -0.0068349503 -0.0008089018 0.0045973207 -0.002390327 0.006023934 0.001323373 0.0055706673 0.00059027626 0.003990867 0.006343286 0.0019034172 -0.0057748775 -0.00375633 0.0007476608 0.0035232385 -0.003779949 -0.0023017498 -0.0036910065 -0.003269232 -0.0065789204 0.0053096004 0.0016440691 0.006691491
变 0.005089878 -0.0072656637 -0.0020220424 0.0009361201 0.007815913 0.0044136317 -0.00039497745 -0.0015183163 -0.0018644042 0.00155274 0.0062165055 0.0013175181 -0.0022084033 -0.0028025436 -0.007763719 -0.005118008 0.006126141 -0.006853717 -0.005577431 -0.0019116763 -0.00089169544 -0.0052513387 -0.004677852 0.0043930416 -0.005106821 0.008295603 0.0011224621 -0.0017352032 -0.0021282393 -0.0004723196 -0.0025866572 0.0064380723 -0.00266176 -0.002462964 -0.003021326 0.008071946 0.006191151 -0.004417693 -0.0081118895 0.0025926018 0.0024849686 -0.0058032777 -0.0046166047 0.0016123488 0.0051772045 -9.156721e-05 0.0067118807 -0.00034008923 0.0008436237 -0.0058080736 -0.0076353867 0.006133135 0.0066756676 -0.0014588533 -0.001518338 -0.008486641 -0.0072805854 -0.005269546 -0.005711227 -0.00018050955 0.005372102 0.0066627273 -0.005825696 -0.0021637008
点 0.0012972303 0.0018110982 -0.0014141671 0.00080898084 0.0045862477 0.0016955442 -0.003118288 0.006176605 -0.008001012 -0.0075885127 0.006286282 -0.0065444065 0.0049452344 0.005973114 -0.003518916 -0.0016721298 -0.0035179395 0.0041272826 0.0065859416 0.001852952 -0.0073113325 0.0018377459 -0.00047285724 0.0061978493 -0.00021097886 -0.0067055924 -0.0048996545 0.006597523 -0.0037752606 -0.0073829014 0.005584554 0.0019144022 -0.0020107995 -0.004123315 -0.007739737 0.0053932215 0.00048460506 -0.0022339758 0.004434503 -0.006383164 0.0011434201 -0.0077570304 0.0020887703 -0.0034841255 0.0047456324 0.0074250693 0.0006764484 0.002730733 0.006330136 -0.0076696146 -0.00044949751 0.0041277227 0.0026011385 -0.0068224054 -0.005527046 0.0009694377 -0.00381261 0.0028737911 0.003443348 0.00067338726 0.0035638749 -0.0030625889 -0.007112581 0.006748751
定 0.0059581096 -0.00093881605 0.0015501337 0.000731381 -0.005384132 -0.0025648247 0.001957378 -0.0016013574 -0.00098764 -0.005500095 -0.0031884464 0.0017063847 0.0024173313 0.0046619256 -0.0013887633 -0.0062180203 0.0076751304 -0.0054388205 -0.0024403492 0.0027925977 0.0064283116 -0.0032454894 -0.0011738769 -0.0072484044 0.0028395057 0.006216495 -0.00048166641 -0.005407443 -0.005628802 -0.0006913141 0.004775019 -0.0002791613 0.0070754546 -0.006700454 0.0027805096 -0.004315077 -0.006753471 -0.006255864 -0.001569858 -0.0036669797 0.0035975075 0.0071175704 0.0041072695 -0.004592 -0.0061236653 -0.0037928307 0.00022918708 0.006670958 -0.0059575215 0.0074964818 0.0015742108 0.0073191766 0.0069556446 -0.004694003 -0.0024790657 0.0068322355 -0.0031986556 -0.0072395243 -0.0012456815 -0.0076514157 -0.007376138 0.0042710477 -0.0011148648 -0.0051479144
分 0.0031466715 0.00591691 -0.0075984187 -0.003888697 -0.0017252043 0.0030589006 -0.0003838971 -0.0053792777 -0.006926564 -0.0012975362 -0.0023735738 0.0079333065 -0.00023437264 -0.001269137 -0.0024221695 0.0057063997 0.0065222536 -0.005610967 -0.00083524216 -0.0030939183 0.0010537449 -0.007959584 -0.00094715465 0.008521855 -0.0010430078 0.0015798585 -0.004463594 0.0035332213 -0.0055729733 0.0043870034 -0.0031874757 0.0051948857 -0.0013478249 -0.004948197 0.0041995645 0.0013298342 -0.0007738113 0.009019007 0.0063947993 -0.00024198082 0.006516949 -0.0051164553 0.005488877 -0.0019809613 0.0031939803 0.008741501 0.004677524 0.0041023195 -0.0038547104 0.006273391 0.004389857 -0.0035050658 0.0013824137 -0.004421716 -0.0067529324 0.0047448277 0.0022419621 0.0041800863 -0.0057452023 -0.003139261 0.006116939 -0.0005053352 -0.0019330363 -0.00022527594
指 -0.00515881 0.0026291008 0.0031754617 0.006505227 -0.001327798 -0.0049258703 0.006933117 0.006093916 -0.0046058274 -0.000792743 -0.0034247995 -0.00016766944 0.008380215 -0.0009723578 0.0066262423 0.0053845346 -0.003192132 0.0048726615 0.002135808 0.0048215096 0.0067381375 0.006571837 -0.0043922653 1.0621504e-05 -0.0042860806 -0.0071700984 -0.00028319663 -0.0040436443 0.0030764635 0.00087217987 -0.0033538444 0.0069604144 0.001738457 0.001240037 -0.001805302 0.0051772157 -0.006400572 -6.5414846e-05 -0.00050448184 -0.0014576517 0.0016234922 -0.003781773 -0.00016466303 0.004845274 -0.00094199367 0.0058949674 -0.0032631783 0.003079319 -0.0014678797 0.0026577567 0.0040041874 -0.0027194943 -0.0006583409 -0.007089308 -0.0070899627 -0.0021427728 0.00020423517 0.008050626 0.0076332786 -0.0053473706 0.0058886823 0.006630436 -0.0050339103 -0.00010045297
频 -0.0067566703 0.0004871367 0.0013530013 -0.0009553795 0.0028604136 -0.0063135144 0.0038152665 -0.0036436724 0.0068985494 0.0062610586 -0.0075969207 0.0071046827 0.003373747 0.004114577 0.0072872955 0.008194202 0.0058765956 -0.0042934665 0.0040120757 0.0069335736 -0.0010327568 -0.0055785244 -0.004044078 -0.0012895556 -0.0064270846 -0.0026860207 0.0034311241 -0.004906552 -0.0040106066 -0.0036575212 0.0023193853 0.0073463856 -8.262716e-05 0.0063893218 -0.007857619 -4.3669643e-06 -0.004848887 -0.0023787487 -0.0066025974 0.0022597415 -0.0066044247 0.0042438325 0.0054766503 -0.0037858288 0.0035796554 0.0023469815 -0.0006346869 0.00445102 0.0024840545 -0.0028589508 0.0027452046 0.0023469313 0.0045423904 0.006475848 -0.0048561078 -0.006140998 -0.0019830843 0.005891997 0.00079810596 0.002463309 0.0036606602 0.0033238058 -0.0014116196 -0.0052589523
参 0.0031079524 0.0036732578 0.0025484436 0.0013767182 0.007567643 -0.007041701 -0.0019638268 0.0069025867 -0.0041515096 0.005047797 0.0020530003 0.007941394 -0.0021881768 -0.000112465175 -0.0049781417 0.0053161266 0.0030785194 -0.0049998346 0.007839888 0.0014628879 -0.0011481019 0.0046283356 0.00080701 -0.0022443205 -0.001764899 -0.0028636258 0.0014874714 -0.005202524 -0.00497206 0.007654839 -0.001734266 -0.0037153533 -0.0074977586 -0.005584366 -0.0038905302 0.00047567816 -0.002998678 -0.0017997748 0.003167424 0.00031262232 -0.0031801013 0.0036058694 0.00039206227 0.0038974073 -0.004829966 -0.0023808188 -0.006946589 0.005723124 0.008208436 0.0013787805 -0.0011077918 -0.004781957 0.002415625 -0.004053581 0.005895948 0.005269398 0.001236563 0.0017694342 0.003564367 -0.0062513556 0.002020357 0.0011933112 0.003914292 -0.0010036563
或 0.0064044134 0.006758771 0.00743324 -0.0018548698 -0.0034386583 0.0013388501 -0.0049232915 -0.004443695 -0.007556087 0.0057347277 0.0037677425 -0.002891137 0.004211713 0.0067729168 0.0042582126 0.0087610595 0.0059454245 0.0074732644 0.00412609 -0.00034143604 -0.006093328 0.00075238873 -0.0039005184 0.0058096093 -0.0061353254 -0.00045745142 0.0064046923 0.0011543566 0.0023314613 0.006409388 -0.003106897 -0.0064611738 -0.0074897343 0.001109865 -0.003292375 0.007848325 -0.0002883056 0.009084022 -0.008303451 -0.0022425975 0.0077658575 0.00506326 0.005634193 0.0050442987 -0.0001646653 0.007819448 0.002920015 0.00341317 0.0020543677 -0.0010884146 0.0043100733 -0.003943079 0.0003405929 0.00052242074 -0.0005596977 -0.005852296 0.00012013502 -0.0016747863 0.0068342336 -0.0027462742 0.006297104 0.0007798278 0.003305663 -0.0031368136
大 0.005324596 -0.00692506 -0.0015193333 0.0056404825 -0.006107972 0.00017548879 0.0005303157 0.0061905026 -0.0033510274 0.005447211 0.004719581 0.0007187756 0.008542151 0.0013230623 -0.004568041 0.002963283 0.0077147777 0.0065028523 -0.0013293052 0.0049930867 0.0016956978 -0.008043246 0.0029896712 -0.0073394575 -0.0020323594 0.005725846 0.0018883448 0.006061161 -0.0060775373 -0.0063894866 -0.0048054773 0.0021811707 0.0069833538 -0.008217417 0.0032827617 -0.0064102695 0.00091497105 0.0077355243 0.0033652878 0.007147955 -2.3680483e-05 -0.0033100944 -0.004661308 0.0056513767 0.0037807692 0.008397913 0.0062005473 -0.0074584624 -0.0020887787 -0.0063238037 -0.0077609974 -0.00546307 -0.0022104844 0.006397549 0.0052741524 -0.00075406936 0.0049812477 -0.00096114253 0.0009031741 -0.00808183 0.007841661 -0.00313244 0.0030591765 -0.0061767832
以 -0.006317034 0.0047691013 0.0013891284 0.0055622705 -0.0009119935 -0.00038721305 0.0016040122 0.0033420185 -0.007508148 -0.0014751676 0.0069826148 -0.00043326395 0.002747159 0.00073123525 -0.003930935 -3.3290255e-06 0.005212339 0.0063251075 -0.007886987 0.0019303601 -0.00084287627 -0.007577045 -0.0025161928 -0.0011906101 -0.003994444 -0.005312434 -0.003609144 -0.004931571 -0.00025790237 0.0040736888 0.0067100604 0.0004820084 -0.0010569368 0.0010845489 -0.004644848 0.0018780818 0.0036386657 0.0016442154 -0.0031818957 -0.006652362 -0.00035450226 -0.0068034194 0.0073500145 -0.0019097184 -0.00079026667 0.0073428443 0.0002578913 0.0046025007 0.0055556046 -0.0033514327 -0.0024470456 0.005933657 0.0081823375 0.0017063384 0.0049253246 -0.006000557 -0.0057271053 0.008652048 0.0053221034 0.0050477968 0.00031687788 -0.006562881 -0.0023794454 -0.0045683417
当 -0.0026757836 0.0075432397 0.0010404036 -0.002738451 0.0013797402 -0.004036906 0.00023968377 0.007195626 0.003714357 -0.00041606737 -0.0007909112 -0.007165788 0.0072812946 -0.0069298274 0.002193595 -0.004305878 0.0049555665 0.0068676085 0.001247996 -0.0044240616 -3.662302e-05 0.0062561585 0.0068776924 -0.0044922587 -0.003499555 -0.0043532546 -0.0049132006 0.0066423747 -0.0037457668 0.0024954837 -0.0016314898 0.0057731457 -0.0020228722 0.0031269728 -0.0027653622 0.007083343 -0.0021411185 -0.0015228238 -0.0036458257 -0.006669977 -0.0051911287 -0.0028350325 0.0070840367 -0.006789712 0.007228264 0.0051674927 0.005213584 -0.0062109414 0.0006547002 0.007656867 0.005650998 0.0013397521 -0.004163394 -0.004512458 -0.00131827 -0.008097345 -0.0011903715 0.002228681 0.0017753419 0.00071644364 -0.006507407 -0.0004886324 0.0032305587 -0.0023453233
方 -0.006202939 0.0017215522 -0.0020405105 -0.0049572685 -0.00048985996 -0.0068160864 -0.0045303684 -0.0040767873 0.000766536 0.003050836 0.004228509 0.003400872 0.007864396 -0.0053129187 0.005596266 0.0044658673 -0.005788549 -0.0007750723 0.004473796 0.00713854 -0.0056835697 -0.004468541 -0.0069595347 -0.0040621012 -0.0047649136 -0.007538696 -0.002561426 0.00764233 -0.0070722 -0.004245649 -0.0073419265 0.002147737 -0.0057180226 0.0005432156 0.0026619106 -0.0040078014 0.0038470167 -0.0017963264 -0.0071735824 0.008164927 0.00842796 0.0049276515 -0.002269744 0.00014203931 -0.0047903648 0.0022524893 -0.00018167263 -0.0074685887 -0.0039136563 0.001923193 -0.00023653988 -0.007200758 -0.0044266423 -0.0006214009 0.0059623453 -0.002538171 -0.0013168618 0.003160261 0.0050745057 0.005876452 -0.0068270834 -0.0011529624 0.0002616899 0.00074646383
抗 0.0012406651 0.0039120303 -0.0026182926 -0.0028037224 -0.006306951 -0.00562591 -0.0029601562 0.0032371406 -0.005682712 0.0051721376 -0.003641697 -0.0076135285 0.0017743083 -0.004642226 0.0030711894 0.0042890934 -0.0010843406 0.004137595 0.0036672063 -0.0069579645 0.00044051418 -0.0067150868 0.0077194707 0.0024836801 -0.0066738515 0.0057844585 0.007849104 0.0026968606 0.005544582 -0.0006124316 -0.004746446 -0.0007403747 0.006605416 -0.0060923947 -0.001379353 -0.0071973293 -0.005932318 0.0010313756 -0.0034191192 -0.0015343347 -0.0073951506 0.007029267 -0.0041718464 -0.0053859684 -0.0042916494 -0.0060911262 0.0061763595 -0.006762045 -0.0072060176 -0.0058524664 -0.004527641 0.0059971316 -0.0060441466 -0.0021145388 0.0059565264 -0.0043066796 -0.0012075455 0.0071415836 -0.0028747693 -0.00040675435 -0.0068292962 0.002212568 0.0064498326 -0.0038979696
正 0.0072543067 -0.0016789704 0.0024317738 0.0055159545 -0.005290863 -0.00096975465 -0.0006664792 0.005964818 -0.0023249888 -0.0039569507 -0.0045139496 -0.0021998766 0.00648912 -0.006100159 0.0038121021 0.002326896 -0.005502403 0.006909306 0.0021642793 0.0033370345 -0.007877565 0.006117181 -0.0022198176 0.0017387148 -0.00091804797 0.00016001097 0.00064262905 0.0053709964 0.0061724363 0.0053447406 -0.0011123325 -0.0010822215 -0.0014895009 -0.00083479716 -0.0075289616 -0.0027933328 -0.0035274522 0.0061774533 0.0038798645 -0.004561816 -0.004123429 0.0059640342 -0.004113158 -0.006400628 -0.001654532 -0.003321001 -0.0047450047 -0.0038749943 -0.007136333 -0.00036285742 -0.007892359 -0.0003488031 -0.0044287676 0.0031586827 -0.00077500247 -0.004810198 -0.0058077495 0.0033612885 -0.0057799416 0.0022349525 0.0049421764 0.0059555816 0.0003115885 0.0044202027
过 0.0038572827 0.007577789 0.0015986455 -0.0016936152 -0.006955066 -0.002535499 0.004860415 -0.0025979069 -0.005628326 -0.006227776 0.000433614 0.0073163346 -0.0025179666 0.00043214552 -0.0028510683 0.0019467178 -0.0049954844 0.0012883103 0.005234445 -0.0003984496 -0.004847819 -0.00043632346 0.0003323716 0.004392813 -0.004131892 -0.0045552407 -0.0064159404 0.0076874555 0.005836576 -0.0058700517 0.0028790755 -0.0058342195 0.0042652613 0.0014903545 -0.0003916112 -0.00075167324 -0.00745233 0.00041116163 0.007242494 -0.0019807133 -0.0008507769 0.00046297527 -0.005509577 -0.0009585695 0.0009066687 0.006706357 0.0070085963 -0.0063502504 -0.0050381413 -0.007782334 -0.007861558 -0.0055601066 0.0014370525 -0.0056000673 0.0068365424 -0.0014556798 0.0035009924 -0.0054703234 0.0034586543 -0.0080366125 0.0011061887 -0.003945119 -0.0032356991 0.006085136
输 -0.0043754 -0.007455171 0.006965723 0.0013586851 -0.00018002077 -0.0023172395 -0.0005341652 0.0018759231 0.004303611 -0.0070906063 0.0056874664 0.008249118 0.007833164 0.005289911 -0.0038061934 0.0077487673 -0.006106763 -0.0059507093 0.00096544676 0.005778481 -0.0046754847 -0.006467227 0.00605299 0.0055537177 -0.004751387 0.0019508488 -0.001624056 0.0074016317 0.0030943726 -0.0013620901 0.0038033621 0.0006841184 0.003889292 -0.004347121 -0.0062383087 -0.003225499 0.0050935135 0.0058530355 0.0046721473 -0.0067627095 0.007315276 -0.003371393 -0.005438202 0.005559121 0.004422127 -0.0040530153 -0.002997736 0.0049412297 -0.0018872631 -0.0005555773 0.00054757186 0.0015009193 0.007774126 0.006577876 0.0008203698 0.0012574706 -0.0026355102 0.0005882904 0.0040957285 0.006886555 -0.004869225 -0.0037221387 0.0071986495 0.004578144
效 -0.0031508687 0.0022696208 0.0012704275 -0.00033032088 0.005684043 0.0018277374 -0.0041129654 -0.0055406024 0.0026271904 -0.0027014457 -0.005114524 0.0016556919 0.006137367 0.0050484627 -0.003968278 -0.0009996196 -0.0046369964 0.007890966 0.006107797 0.007987567 0.0070560127 -0.008282718 0.00026215042 0.0012423105 0.0071667978 -0.005627304 -0.0067658448 0.0050053704 0.005251525 -0.0026110082 0.005999885 -0.0060625994 -0.007706895 -0.004340339 0.0031219623 -0.00174614 -0.0041578515 0.0027248347 -0.003092202 0.003919802 0.006414453 -0.0034852994 0.0076978495 0.0015618624 -0.0020533393 0.0073612155 -0.004744423 -0.002050136 -0.0017406236 -0.003106745 -0.006747001 -0.0038840927 0.007947286 0.0067828423 0.0047452357 -0.00358305 -0.0048808972 -9.0464e-05 0.00091035047 -0.0066329017 -0.004607831 -0.00014578491 -0.0069669024 -0.0037719777
成 -0.00049378385 -0.0059815533 -0.0062423362 0.0058014663 0.006229925 -0.0036009012 -0.0062640747 -0.0017154075 -0.0063456274 0.0020655885 -0.00076756463 -0.007358542 0.0061293384 0.0078528775 -0.0045710932 0.0030616266 -0.0067797243 0.007067161 0.0017111098 0.0053040413 0.0072020087 0.006154421 -0.0003545978 0.003038344 0.0069076708 -0.0026624878 -0.00462995 0.0041255425 0.004816706 0.0035210096 0.0071173883 0.0072629694 0.0005221522 -0.0068707983 0.0030179562 0.0072809677 0.0056932652 -0.0070059462 -0.004917602 0.0026429263 -0.0031860769 -0.0073554744 0.004898629 0.0051421416 0.00627307 -0.007062212 0.0063727293 -0.0041774036 0.0031306935 0.00045557425 0.0066727297 -0.00044422556 0.006068741 -0.0006387966 0.0029553648 -0.00734673 -0.005108909 -0.0071878782 -0.0028575256 -0.00043817423 -0.00053438905 -0.006179176 0.0022833466 0.0005477651
同 0.002018417 0.0075397496 0.007257576 0.0006202185 0.0039104596 -0.000620576 0.005474017 0.0015089243 -0.0076363413 0.006418647 0.00133625 0.0067135184 -0.0062856395 -0.0054810764 0.003768857 -0.0038408055 -0.0058009536 0.0008241369 -0.0069838543 -0.0026753307 -0.0056437645 0.0008878431 0.0046220464 0.0033999807 -0.0069535375 -0.006103351 0.004279745 -0.005719337 -0.007484035 0.0024141984 0.0050229444 0.0062299236 -0.002997127 -0.0052165412 -0.0052472055 -0.0024531428 -0.00046008386 -0.0036953015 0.000250593 -0.003741086 0.0037851986 0.005444086 0.0032050256 -0.0070199124 -0.005611558 0.0007327457 0.006929077 0.002741098 0.0059675444 -0.00478484 0.0032726703 0.0018230461 0.004805971 0.004788846 -0.005378043 -0.0044840453 0.0069634244 -0.0063393204 0.0044888044 -0.003555982 0.008350017 -0.0022656047 -0.0022009688 -0.0024293212
可 -0.0053255726 0.005311333 -0.0013834989 0.0059201485 0.0025337401 0.007505932 0.0038158123 -0.002656869 -0.0013407588 0.007034687 0.003845847 -0.0017990229 0.0028944607 -0.0037206493 0.0035117764 0.005473411 -0.006392504 0.00710703 -0.005881276 -0.006343564 -0.002986244 0.005162347 0.0041803382 0.0028180585 0.00026598273 0.007196709 -0.0050251805 -0.00054736534 -0.0021709753 0.0010427261 0.006623534 -0.007491728 0.0022562908 0.0034919449 0.0066160937 -0.005219585 0.005400827 -0.004656216 0.0011721615 -0.0032566867 0.0015936441 -0.004054712 -0.00027749906 0.0049650674 0.0030310154 0.00268457 0.0063731363 -0.0060911425 0.0006541302 0.006216163 9.682704e-05 -0.005078889 0.0037727365 -0.0015924284 -0.0047153234 0.0050516184 -0.006395962 0.0057223253 -0.0033190593 -0.0032928905 -0.004887149 0.0041446825 -0.00658245 -0.0022816125
阶 -0.0033404927 -0.0029890146 -0.0028358048 -0.0076845665 0.0066526653 0.00054404896 0.002174226 -0.0074759983 -0.0026775568 -0.0003665101 0.0052112923 -0.005825753 0.0065471283 -0.0063496693 0.0022124578 0.00828859 0.0027555379 0.0032206883 0.0014588105 0.004846931 0.0037619 -0.0015429473 -0.0072509395 0.00711509 0.0050503947 0.005929405 0.0030534142 -0.00031725553 0.0018458205 -0.0048505506 0.0043146117 0.007345875 0.004594657 0.0042889644 -0.0011609676 -0.001871311 0.004320931 -0.0011315597 -0.006395421 -0.0059863664 0.0044725784 -0.0072390074 0.0045036706 0.0015361053 0.0066032563 0.0007835341 -0.00452912 -0.008543151 0.0064903656 -0.0007694952 -0.0025820723 -0.0026254163 -0.004240553 0.0004773468 0.00050525385 -0.008581838 -0.0034971603 0.0087936055 0.0011723732 0.0018090648 -0.005780634 0.0019631714 -0.0038463485 0.005380582
态 0.00168484 0.007743856 0.0006809081 0.00016285451 0.0024737285 -0.007890595 -0.0060539613 -0.005922867 -0.0035963787 0.004015515 0.0018018247 -0.0031256732 0.0017236474 -0.00048443125 0.0069120564 0.0058845575 0.004976798 -0.0038206445 -0.005323891 -0.0024767865 0.0072450326 -0.0035148272 -0.002925519 -0.004774384 0.007122567 0.0034399114 -0.00050265907 0.0005959546 0.0005371632 0.0041363332 0.0035571326 0.0004301789 0.00756137 0.0023596422 0.007616656 0.0066616167 0.0027053389 -0.007776178 -0.0024244492 0.0021288525 -0.0066962275 0.0030834447 0.002688801 0.0046172417 -0.0035796997 0.0027940767 -0.00017291785 0.0036388591 0.0058090943 0.007137327 -0.0068157637 -0.0023215201 0.0013423407 0.006320973 0.006840529 0.0005023424 0.0039974633 -0.0011508481 -0.007417172 -0.005368116 -0.001393241 -0.0059323437 -0.00794153 -0.00043840523
由 -0.007179794 0.0062848283 0.006175054 0.003795629 -0.003073291 -0.003100161 -0.005652428 0.0036782112 0.0047014304 0.0032567882 -7.837282e-05 -0.005336333 -0.0062525105 -0.0018695855 0.007110155 0.00069261214 0.002168441 -0.0063734506 -0.0039542057 0.007836985 0.0064575905 -0.0036864579 -0.0062073483 0.0045151687 0.005730435 0.0021013666 0.0027849968 0.006708612 0.005694987 0.0016091429 0.0026805948 -7.362147e-05 -0.006276403 0.0055108136 0.0037564237 0.0036273352 0.0042357463 0.0072011934 -0.0011798529 -0.0041592456 -0.007312578 -0.0021897177 -0.0068948823 -0.0054809554 0.00658959 0.0020452775 0.0060459385 -0.00814501 -0.0010956478 -0.006380667 -0.0018705577 -0.0042082383 0.006810883 0.0066176564 -0.0032982056 -0.0041318075 0.0047371965 0.0033308673 0.00067966786 0.005025842 -0.001922105 -0.0018326441 -0.004714799 -0.00035360188
理 -0.0023796882 -0.003416364 -0.0075408113 -0.0054287645 0.005019581 -0.002315409 0.0012630802 0.0037619804 0.0010474146 -0.0012985134 0.0010605355 0.0038779955 -0.006806928 -0.006280655 -0.0060631325 -0.002667347 0.0022746099 -0.0041748374 0.0077097896 0.001788152 -0.006573834 0.0041907826 0.003782352 -0.0025251375 -0.004861295 -0.0071612643 0.0067721647 0.0041654655 0.0036115954 0.00063300884 0.00096068566 -0.0037324417 -0.0046306737 0.003787174 0.0067147305 -0.002784735 -0.0028590597 0.007932197 0.0018195102 0.0070534525 0.0062255 0.0016130041 0.0022481752 0.005885268 0.0056866845 0.0075586457 0.007282911 -0.0012161476 -0.007883042 -0.0016660299 0.0032145435 -0.00530421 0.0029106028 0.0050720456 0.0052168174 -0.000953452 -0.003475688 -0.0014294509 0.0014452536 0.0030171229 -0.0069828173 0.0048992797 0.0029643292 -0.0023305328
） -0.002619927 -0.005297497 -0.00534497 -0.006122065 0.00094906415 0.0056020846 -0.004213118 -0.0029116306 -0.0019016272 -0.004417192 -0.0036562125 -0.004344858 -0.0016983665 -0.0007351916 -0.0053220377 -0.0009088872 0.0033049528 0.0024434663 -0.003744075 -0.005443035 -0.005577681 0.007269062 0.008081278 -0.0026944443 0.006831502 -0.002072326 0.0072756954 0.0028740081 0.0032651147 -0.00061289757 0.00015886765 -0.004529751 0.0068534254 0.006389702 -0.0074263276 -0.0037759573 0.00017320989 -0.0029302714 -0.0052886186 0.0066532292 -0.00094296003 0.0027403878 -0.0035643894 -0.0043882225 -0.0070604743 0.0058028386 0.0044592824 -0.0064663445 -0.0044396208 0.0051863897 0.005271699 -0.004739305 -0.0058373157 0.0027368558 0.0048344266 -0.003473996 0.00057635346 -0.0028481777 6.7109046e-05 -0.0014784184 -0.004529071 0.0064291777 -0.0009962388 -0.0063419454
络 0.0034727002 -0.006290879 0.00762587 0.004150263 0.0065196827 -0.0024597952 -0.00062196085 0.0075692153 -0.0022401218 0.00084950577 -0.007287149 0.0021921461 0.005223869 -0.0019776882 -0.0074613136 0.00073048205 0.008107831 -0.0030118749 0.0068893824 0.0008764733 -0.007817902 -0.0012185533 0.0046380726 0.0070521077 0.0055739447 0.0054738848 -0.0055632023 -0.005252443 -0.0007361277 0.003811706 0.007049401 0.0016962356 -0.0016413939 -0.0012898913 0.004870726 0.006541995 -0.0029235631 0.0096150255 0.0034571239 -0.0012129379 -0.0027915537 0.0010422491 -0.0019261567 0.008011527 0.0019521542 0.0013064268 0.0024897 -0.00874521 0.0051163062 0.006782576 0.005920438 0.0016024959 -0.0042733983 0.0048046145 -0.0042840866 0.0015763341 0.0019023997 -0.0033818411 -0.00090082764 -0.0046186894 0.0069577107 -0.008133581 -0.006044095 0.0002359407
对 0.0058353883 -0.007228831 0.0054423674 -0.002385747 -0.00479782 -0.0009836789 0.0019762106 0.007383147 0.001327902 0.0011250029 0.003965156 0.0037527273 0.0066329185 -0.00088360824 0.0037893958 -0.005958239 0.0009920851 -0.005981253 -0.006404431 0.008125065 0.0039726514 0.005911764 -0.005346424 -0.001736274 -0.005675011 0.004942284 0.0011316213 0.0009876491 0.002243651 0.0029226888 -0.0073713665 0.0046013487 -0.007714394 0.00423926 0.0055217366 -0.004729068 -0.0062698494 0.007273919 0.0017742527 -0.003388205 -0.00049290486 0.0047179833 -0.0018169708 0.006828466 -0.0021468177 0.004060411 -0.00073305727 -0.0059750252 -0.0065489192 -0.00039427352 0.0026304258 -0.00850024 0.0061943275 0.004655561 0.004023386 0.00028554874 -0.003972865 -0.0052912296 0.006929817 -0.0065857833 0.005327286 0.0065983655 0.004931125 -0.0069539296
（ 0.0006744643 -0.0017351562 0.0036825829 0.0016812013 0.0003135183 0.0070079328 0.0021558374 0.0037411351 -0.0038833604 -0.0026488146 0.0014452544 -0.005880914 0.0039102896 -0.0026780886 -0.0038577975 -0.0062930495 -0.006842825 -0.0070807603 0.0017108681 0.00018164238 -0.0019870556 -0.0020210259 0.0047052214 -0.00082289235 0.004329964 -0.0037047942 0.0015433516 -0.002867867 0.003246869 -0.0050439686 0.002919619 0.0035306262 0.0025313501 -0.007480858 0.004345219 -0.0020978674 -0.0041390797 0.0014660782 -0.0042579453 0.005203448 0.007541281 0.0067708846 -0.00019619257 0.0006841883 -0.0004433699 -0.001251077 0.000731847 -0.003475 0.0008636641 -0.0067665437 -0.0031579598 0.0036444883 0.0034791229 0.0025308423 -0.007539493 -0.003436018 0.0020218235 0.0052272943 0.0045761317 -0.006780698 0.0052363514 0.0046694702 0.0007633594 0.0024033785
负 -0.00536232 -0.006055074 -0.0070915944 -0.0015210832 0.005452234 3.871954e-05 -0.005541271 -0.00071628665 0.0021411227 -0.0029395954 -0.0036849005 0.007879174 0.001101509 -0.0070030354 -0.005273604 0.007052558 0.0046769814 0.004999578 -0.0034725885 -0.0032314656 -0.0038034355 0.003136709 0.005583332 -0.0066679725 -0.004578555 -0.0040644454 0.0061372174 0.00017069001 -0.0063124206 -0.0065213935 -0.005131637 0.0073469756 -0.0070682797 0.0010195 -0.0043616313 0.007016205 -0.006210717 -0.0063559236 -0.0011086919 -0.005050018 0.006117744 0.0023380977 0.0009787381 -0.0017093509 -0.0019200476 0.0019235862 -0.00016301403 -0.00055848213 -0.005902399 -0.005870298 0.0051567885 0.0061024544 -0.0043293075 0.0039516957 0.0067794886 0.0051500266 -0.0028569733 -0.0045720395 -0.0048509175 -0.0015189367 0.0048747812 -0.0012404288 -0.0034565195 -0.0013734244
控 -0.0018478378 0.0036745933 0.0047018444 0.0027656597 -0.0047897366 -0.007294187 0.0030043358 0.001236993 0.0031124472 -0.0013179536 0.0040555485 -0.00094425544 0.005211244 0.006787134 0.0032779472 0.00028864972 0.0037171019 0.0038247746 -0.0060819774 0.0028942688 -0.0021560593 -0.008103083 0.0044472017 -0.0010361391 0.00034245153 0.0022795964 -0.00096170045 0.0020122563 -0.0050672847 0.0029986002 0.0048251566 0.0014933412 0.00069787505 -0.0040129274 -0.0026148383 -0.0059876856 -0.0024752861 -0.0043412424 0.00047755186 0.003268402 -0.004966538 0.0069273817 -0.0046055173 -0.006225857 0.0050186533 0.007667842 -0.004372192 0.0050291023 0.0009870856 0.00045671928 0.00441235 0.0015441526 -0.005272225 -0.0031340222 0.0019718676 -0.0017703759 0.0026619325 0.0038875556 -0.0015828687 0.0011984828 -0.006276272 -0.0056180647 -0.0075205727 0.0028513754
其 -0.005465819 0.0028204562 -0.0056020874 0.0068210415 -0.0020640378 -0.0014585691 -0.0008208539 -0.007621083 -0.008059875 0.002272973 -0.002239667 0.0023051796 0.004554491 0.0048936005 -0.0046663345 0.0031546208 -0.004906721 -0.00027316195 -0.0013604957 0.0011671386 0.0041358136 0.0047833403 0.00039625607 0.002329144 0.0037084718 -0.0023193224 -0.007833148 0.0016789503 0.006280878 0.004370545 -0.00070455985 0.006596778 0.0010945945 -0.0024317065 -0.00744392 -0.0053791082 -0.0071813483 0.0013602866 -0.003231842 -0.0062555214 0.0049720956 -0.0051498497 -0.0029375812 -0.005883113 0.00038428558 -0.006953009 -0.005432814 0.004867047 0.0052910205 0.002293101 0.0075392374 0.006898885 -0.0006745756 -0.0010123624 0.0045506987 0.0042329384 0.0042136703 0.00060808106 0.007473155 0.005854457 -0.004281522 -0.006871321 -0.005004414 -0.00027961147
位 -0.00730234 0.004354519 0.007319916 -0.000503019 -0.00301367 0.0035039312 0.0073824446 0.0019678487 0.007227046 -0.0018282648 0.004029517 -0.0030996262 -0.0042450866 0.007874758 -0.00731079 -0.0058083422 0.0026924848 -0.0042790375 0.00013957705 -0.0040185237 -0.0028298579 0.004733643 0.006253542 -0.0009357369 -0.0027144253 0.0040672584 -0.0044355937 0.0039356328 0.005673304 -0.004180834 0.0066690906 0.0010598385 0.00022935131 0.006058195 0.0018274066 0.008043509 0.0052494695 0.0022969616 0.004532804 -0.0026633479 0.0037113405 -0.0021728692 -0.007235538 -0.006912535 -0.006133425 0.007912693 0.001907089 0.007223928 0.0013856273 -0.0009330774 -0.0033251513 0.0059745233 -0.0038886084 -0.0015581496 -0.0025842725 -0.0025046687 -0.00532745 0.0002569306 -0.0031339396 0.004103204 0.0014170853 0.00058490474 0.0026761715 -0.0014055985
通 -0.006067891 -0.005398715 -0.0026155203 0.006466901 0.0076162345 -0.0076134442 -0.00012382868 -0.005692266 -0.00056474935 0.0043925247 -0.006687773 0.0007666146 0.004436977 0.0004996346 -0.006980668 0.0048371623 0.0031287316 0.006419575 0.0013306346 0.002029116 -0.0066293296 -0.00602242 -0.004617676 0.003683359 0.00699611 0.0049235644 0.0009900066 0.007709314 0.0051580705 0.0043887384 -0.003129493 -0.001893814 0.0019166098 -0.002717432 -0.0005816012 0.0035592003 0.0034985838 -0.0017077994 -0.0068085985 0.0040896805 -0.0072403927 0.001312784 0.003267851 -0.0036972137 -0.0051868777 0.006263219 0.005273816 0.0024265011 0.0044997716 0.0033374918 -0.0030050357 -0.0032858355 -0.0013200755 0.0020249563 -0.004354458 0.004813583 -0.0022506285 -0.0018669738 -0.0029464988 0.0021363997 0.005312023 -0.0034625137 0.0074286135 0.0034651335
并 0.0077182464 0.007816675 -0.0036422177 0.004590538 0.005963483 -0.0067337686 0.006108007 0.0005638329 -0.00026460862 -2.7665204e-05 -0.0030854729 0.004019836 0.008091861 0.003387924 -0.004553872 0.007769178 -0.003390579 0.0024348502 0.0060372646 -0.0065128542 0.00035796277 0.0028814473 0.0053400598 -0.004753099 0.00472622 0.0046822117 -0.0055090953 -0.001502026 0.006463325 0.0027250217 -0.0028023706 -0.00092477317 0.00018035385 -0.0074918116 -0.00069746986 0.0053270105 2.3152854e-05 0.006228617 -0.0036320083 0.0068082167 -0.0059144218 0.007521118 0.0052213757 0.002217152 0.0028468247 0.0012885379 0.0018495686 -0.0041335146 -0.0041598263 -0.0025459707 -0.0018155259 -0.008046054 0.0008619984 -0.0036660212 -0.0038131129 -0.0056483443 0.006383805 0.0070487154 0.0011168697 -0.0058365217 0.0045390497 -0.004780671 0.00196021 -0.0001537462
则 -0.0047301236 0.006166346 0.0021713981 -0.00019447853 -0.0032113332 0.0030802074 0.0033464388 0.005470135 -0.006835105 -0.0019141624 -0.006249068 -0.004146732 -0.0040729744 0.0057841465 -0.003918732 0.006107207 0.0022014033 -0.00050945027 0.0058542574 0.0028755495 0.0063236477 0.0037801617 -0.0019489508 0.0022244018 0.0024354304 -0.0026468525 0.000721501 -0.004064719 -0.0008460483 0.0039016514 0.0044102254 -0.005749465 0.0014176286 0.005959891 0.006558729 -0.0023726858 0.0017494053 0.00068605924 -0.006692518 0.0045902724 -0.0046251086 0.0043961736 0.0069513586 0.0033199156 0.0072521307 0.006161517 0.007161909 -0.0074813175 -0.0027634543 -0.0028342213 0.0036306242 0.0006943353 -0.006142864 -0.0020436705 -0.00781507 -0.0043227947 0.0047286646 0.0020997426 -0.0039011627 -0.00016192673 -0.00010897384 -0.0055744634 -0.0038069685 0.004468014
立 0.0050432775 0.005762594 0.004779774 -0.0030685922 0.0017310873 -0.0038013172 -0.003894826 -0.006305219 -0.0071804356 0.0036469132 0.0031645875 0.002911169 -0.0055597364 0.0071657803 0.0043027517 0.006381116 0.0022649886 0.006745777 -0.005080077 0.0035768219 -0.003629341 -0.007548871 -0.0018184467 0.0010202634 0.0036261007 0.0044637844 -0.0066189305 0.007107577 0.0014155789 -0.0015875725 0.0023533448 0.0067357672 0.0057339617 0.0063707638 0.0012019732 0.002067351 0.0067845 0.0050304835 0.0021611983 -0.0037767661 0.0048163454 -0.0017278568 0.002015302 0.005291358 -0.0022026408 -0.0017696916 0.0023205616 -0.006654498 0.0058504315 0.0011668185 -0.0025893112 -0.00611775 0.0012429485 0.0025972615 -0.004322039 -0.0044226088 0.00032280508 -0.0038299637 -0.0035700554 -0.002351513 -0.006698073 -0.0049456037 -0.0066836644 0.0034915232
二 -0.0051985597 -0.00033837874 0.004763928 0.005436458 -0.0070469873 -0.0045488654 0.002814012 -0.004152232 -0.00823716 0.0054542734 0.0069377036 0.0002894904 -0.0014421047 -0.0037295492 -0.0051902556 -0.0017133709 0.0075910687 -0.004470459 0.0024089566 -0.0015287683 0.0015551305 -0.0009621554 -0.0064503355 0.0009870395 -0.0020766463 0.0035370893 0.0011518766 -0.0033952203 -0.0010637466 0.0002545494 -0.005088776 0.006835072 -0.0031051845 -0.00097034586 0.005748946 -0.0065658805 0.003121777 -0.0018550381 -0.004763418 -0.0034311565 0.0055690464 -0.0027905102 0.003513991 0.0011290249 -0.005899861 -0.0021536984 -0.0046631736 -0.0022616002 0.007992711 -0.0034856796 0.0031182964 -0.0015725293 0.008219946 -0.001968947 -0.0037416501 0.0039041787 -0.00056329434 0.0047162184 0.0073264814 -0.0058037066 -0.00025985463 0.0063489787 0.0012679354 0.0074763917
受 0.0036952414 -0.0014616656 0.0020640558 -0.004242223 -0.0058862115 0.004690892 -0.00407582 -0.0009957784 0.00188684 0.006510069 -0.00043326677 0.006525783 0.0012563914 0.007638219 0.0053258818 -0.006554345 -0.0016928624 -0.004975131 0.00047023932 0.0055995216 0.005468191 -0.0006087377 0.0010955099 0.0025706778 0.0071415086 0.004640948 0.0017869169 -0.0058488436 0.0052394895 -0.0043785544 0.004049592 0.0049212836 -0.0016782981 -0.0023819618 -0.002266328 -0.0017974005 -0.007357859 -0.0011253454 0.00066208857 0.006115999 -0.0037864596 0.00037402438 0.004156025 0.005279325 0.004725685 -0.0029764255 -0.0025294255 -0.0041713705 0.004069788 -0.004796111 -0.0014848826 0.0004902832 -0.0014309173 0.00036150502 0.0028874169 0.004784687 -0.00021998632 0.007602135 0.004259991 -0.0076060668 -0.006018024 0.0058829933 0.00075373426 0.0012439658
1 -0.004688257 -0.0059350263 0.006066186 -0.002040138 -0.0046119895 0.00041346624 -0.009376037 0.007583103 0.004789858 0.0012417667 -0.0056902245 -0.0064412984 7.116967e-05 0.005669371 -0.0027697252 0.010270238 -0.0022593876 0.0069945795 -0.0011919094 -0.0064707017 -0.008320792 0.0027764416 -0.004751004 0.0067617185 -0.0007540764 0.0048913048 0.0043950947 0.008968304 0.0082745245 0.0049622124 -0.0063986178 0.0071516824 -0.001259802 -0.004740231 -0.0061610155 0.00039740175 -0.00094597007 0.0026376746 0.0037582584 -0.0071668047 0.0007723525 -0.0007462208 -0.0036110475 0.0023460055 0.0071172006 0.007459074 0.0040598847 -0.010896415 0.00538027 -0.001991836 0.003995967 -0.00100472 0.004627838 0.0008338242 -0.004818526 -0.004341906 0.0010242162 0.008741902 -0.002900356 -0.000815076 0.0015907722 -0.00076782453 0.004183304 0.0073225237
加 -0.00655799 -0.0032168396 0.0060301237 -0.0026584137 0.0073904567 -0.007291847 0.0041371495 0.0064861146 0.00046773977 0.0037765552 0.00048532823 -0.0072998926 0.006866812 -0.0058738138 0.00683547 -0.00021937145 -0.003996145 0.0011197211 0.0023975507 -0.0053286646 0.0011783737 0.007613455 0.0072454507 0.003843028 0.0012817209 -0.003725755 0.006167901 -0.004057399 0.004551762 -0.0036752233 0.0037884978 0.0059896917 0.0018542967 -0.0043450217 -0.00074868515 -0.0030030967 0.0056628124 -0.0058336896 0.0065460964 0.0070046354 0.00056319055 0.0030553283 0.007324769 0.0048944606 0.0035454656 0.0017836388 -0.007830923 0.0030149384 -0.0028929708 0.0050346293 -0.0023948578 0.003170262 0.0058713183 0.00082615874 0.00514969 0.0006957988 0.0071204705 0.0011976161 -0.004896244 0.0066015874 0.0067396346 -0.0036717237 0.0034543658 0.0032740172
无 -0.0014648762 -0.0012314399 0.004406167 0.0029436222 0.0056961845 0.0027368357 0.0020823805 -0.000378514 -0.0067524444 0.0058306386 0.0051997784 0.002998003 0.0010829278 0.005641704 0.0019681521 -0.0005655575 0.00083025085 0.0007841973 -0.0013192502 0.0042358786 -0.005401157 0.0024905032 0.0034832137 -0.0057397867 -0.006394983 -0.001712821 -0.0026489296 0.005718422 -0.0025422694 0.006132782 -0.0037163002 0.0041984012 -0.0016781711 0.00460782 -0.0019419008 -0.0036575943 0.003844333 -0.0005190902 -0.0005677297 -0.0065013985 0.006525169 0.0035112982 0.0042963345 -4.532119e-05 -0.002151021 0.0053390176 0.0054243947 -0.007241727 -0.00040356512 0.005078625 -0.005153685 -0.002248571 0.0054026935 0.0076791006 -0.005369815 0.0056020073 0.0065400144 -0.0023044122 0.0058440277 0.0047921403 0.0026223597 0.00568237 0.002453837 0.0032114438
L 0.0040017474 0.004156816 -0.0044656224 -0.0059633562 -0.006617921 0.006201323 -0.005212275 -0.006597916 -0.0075673917 0.0040453067 -0.003019623 0.0035810843 0.009534086 -0.007146993 -0.0018877698 0.00591741 -0.0006522122 -0.0033738236 -0.005183117 0.0031657657 -0.008320783 0.0024988733 -0.0005452236 -0.0043823523 0.0022510588 -0.005117031 -0.0057021314 -0.00045981875 0.0067078634 -0.0036872474 0.0071670427 0.0012229624 -0.001851927 -0.009055565 -0.007447307 -0.0021243142 0.0055772415 0.00016399403 0.0020698428 0.0036503782 -0.0059307846 0.0023248608 0.006317858 0.0025595068 0.0011247628 -0.002666591 -0.0041641346 -0.008896005 -0.0014074151 -0.003865782 0.0008112906 -1.2058462e-05 -0.0046125944 0.0026197466 -0.0051519875 8.8839355e-05 0.004755632 0.004077475 -0.0020778163 -0.0044594826 0.002626714 0.0025854013 0.0042640716 0.0073372596
称 -0.004759307 -0.0023537152 -0.0051203286 0.0029882747 -0.005759947 -0.0041784705 0.0007987261 0.0025045678 -0.005876296 -0.0046480084 0.0065806485 -0.0064905747 -0.0013292689 0.00560808 0.004380561 -0.00353218 -0.00085373654 0.0056773545 0.0011971897 0.0023895416 -0.0024711287 -0.0013533972 -0.003893469 -0.007001181 0.005303851 0.0073499014 0.002091549 0.0022319143 0.0008862047 0.006159627 -0.00566757 -0.0026247678 -0.0076315207 -0.0070517757 -0.0069019403 -0.0075827157 -0.0055252286 -0.0061059482 0.004634831 -0.0026168989 -0.005501719 0.0073625236 -0.00015495357 -0.0056604017 -0.0020543614 0.004376427 0.0047469786 -0.00016853084 -0.007452292 -0.0051013096 -0.00694222 -0.00266228 -0.003884653 -0.0043645552 -0.0022845087 0.006332671 -0.0067781806 -0.00081819895 -0.0030245646 0.0016201655 0.0011894029 -0.0019305447 -0.00039490327 -0.003008765
入 0.0032605208 -0.0058828946 -0.0003386811 0.007155219 -0.0018949058 0.0018369566 -0.0017398184 0.0075594946 0.006773274 0.00030455244 -0.0041544377 -0.0005122939 0.0032990032 -0.004013326 0.004132846 0.007950163 0.0034112697 0.008034871 0.0012347827 -0.0007485928 0.00017220312 -0.006958055 0.0016011202 -0.004452677 0.007696263 -0.0007516923 -0.007036118 0.0039100666 0.003450087 0.006811895 -0.0003568895 0.0053848163 0.0026497764 0.00014783205 -0.002118319 0.0077189305 -0.0012449739 0.0050791116 0.000778847 0.0076731583 0.0032253524 -0.0029129374 0.0058342614 -0.00678417 0.004918383 0.004585787 -0.004734362 0.001067018 -0.004414221 -0.00025124833 -0.001811768 -0.0028512161 -0.0063859103 -0.002987055 -0.003941648 -0.003175948 -0.005786555 0.005992907 0.0071798996 0.007217599 -0.0064284583 -0.0077166506 0.003463293 -0.007297116
R -0.0014374736 -0.004915999 7.4827185e-05 0.004097593 0.0076828697 -0.0037111312 -0.0065975175 -0.0014993665 0.0061437525 -0.008831209 -0.0063317907 0.0053910636 0.007505677 0.0021063287 -0.0024198655 0.0069844206 -0.0037116674 -6.013082e-05 -0.006561288 0.0027719764 -0.007523819 0.0070255296 0.005006314 0.0039949133 0.0044893795 0.003645825 5.0903163e-05 0.00031772835 0.0062553985 -0.003609268 0.0018273254 -0.0036657995 -0.006580276 -0.0063572414 -0.00430886 -0.0025080987 -0.004999328 0.0071253222 0.003953661 -0.0031570932 0.003144923 -8.468125e-05 -0.005862378 -0.0008498676 0.0058268947 -0.0044285576 0.00094208046 0.0018255989 -0.0038710518 -0.0061511793 0.0034133072 -0.0077916686 0.003907865 0.007316042 0.0011495687 -0.0033025804 0.0076304725 0.0088153295 0.0033882665 0.0053974367 0.007936668 -0.0002395136 0.0030525576 -0.0027718944
= -0.0051505906 0.004133694 -0.0019857802 -0.007519698 0.0052637695 -0.006816329 -0.00894676 0.00770892 0.00028930145 -0.00024646518 8.905224e-05 0.0021608511 0.00461768 -0.003946024 -0.003067824 -0.0005685845 -0.004157722 0.0071227225 -0.0040480876 -0.0025856749 0.0009940093 0.0028828145 -0.005228621 0.0081003485 -0.0014346212 0.0008817624 0.0050917757 0.009637446 0.0013403287 0.007196343 0.0042291908 0.004365715 -0.003990643 0.0010968104 -0.0033398534 -0.0041988813 0.000921342 0.011957527 0.004677384 0.00282874 0.0037230242 0.0024247854 0.0028614819 0.008726229 -0.0031382185 0.006905051 -0.0030422378 -0.007622998 0.0035797234 0.0036874085 0.001823313 -0.00890558 0.0019646373 0.009266571 0.006586875 0.0010867816 0.0023800172 0.00042075498 0.004291564 0.0003498652 0.008598673 0.0029388827 -0.00081353675 0.00048520268
节 -0.0063164467 -0.004083887 -0.0059424834 -0.0041650347 0.00030790686 -0.001371932 -0.008413115 -0.005571576 -0.003828865 -0.009989481 0.0015671847 0.0030505287 0.0051473896 0.004643314 -0.007508562 0.008045718 -0.0016465061 0.004591265 -0.0030608177 0.0065615647 0.0010156847 -0.004298167 -0.00082238636 -0.005670471 -0.0017073001 -0.002561763 0.0029495938 0.0051074685 0.0027801897 0.0019998678 0.004600696 0.0056666597 0.0055446224 -0.0067393593 0.004386468 -0.002552174 -0.0029665688 -0.00074867654 -0.004503164 -0.0067829774 0.006586516 -0.0039022954 -0.0044994103 0.004266863 0.0020350264 -0.0015716902 0.008269682 -0.00027545582 0.006969826 0.0009540007 -0.003891966 0.0013441328 -0.005608027 0.0021190066 0.00053139887 -0.0068631773 -0.006827854 -0.0039013117 0.0031434186 0.003214349 0.0012550958 -2.5774836e-05 -0.00035497884 0.0031098255
所 0.00487134 -0.0070214174 -0.005054614 0.0047835177 0.0019607493 0.001509813 -0.0003518279 0.0046498543 0.0047393395 -0.0077239387 0.0060883774 0.005590873 0.005286427 -0.004670251 0.0052472157 -0.0040392526 0.006625355 0.007237067 -0.005561084 0.0037294114 -0.0018223082 -0.0069255154 0.0022859096 -0.005209126 0.0040734694 -0.0073032994 0.0006533928 -0.0036699856 0.001242831 0.005274869 0.0026563318 -0.006140722 0.0013467041 -0.0054896167 -0.00248025 0.007681044 -0.00033735126 0.0009958167 0.0040863645 0.0032985453 0.007948737 -0.007949745 -0.0034612506 0.0051353686 -0.0033311036 -0.005297805 -0.0026953146 -0.0044470476 0.007312181 -0.0059943334 -0.0073621995 0.0021021669 -0.0025650312 2.016162e-05 -0.005508556 -0.0027221784 0.0057801493 0.004269388 0.0039677 -0.00835339 -0.0056420765 -0.008379699 0.002191966 -0.007092825
独 -0.0030878042 0.00053006486 0.006547205 0.0011021573 -0.0017258788 0.0010305161 0.0036572346 -0.006074602 -0.0028570327 -0.0064100013 0.0044793445 0.0082602 -0.000732503 0.00062219426 0.0025938132 0.0055775177 0.005978364 0.00039761155 0.0053021587 -0.0018436793 0.005802164 -0.0062849023 -0.0049710707 0.0063796705 0.002374159 -0.002919712 0.001134763 0.0038109208 -0.0038541432 -0.004264011 0.0029803074 0.00081166904 0.002451718 0.0060305665 0.006430191 -0.005003563 0.002778669 0.0031123224 0.0061935377 0.0074311276 0.0067209085 -0.0004363781 -0.006382103 -0.00016731789 -0.006287417 0.0075090723 -0.0014869552 -0.008181289 -0.0010604982 -0.007198061 -0.0076195328 -0.0045657437 0.005182731 -0.0040854346 -0.004107952 0.002576804 0.000814363 -0.0057786056 -0.0014768633 0.0065894187 -0.005631856 -0.001775263 0.005874662 0.00068311644
零 -0.005420766 -0.0040130373 -0.0035155294 0.0069502797 -0.0037363176 -0.003894878 -0.0062568416 0.0041468553 0.0014042383 5.5316123e-05 0.002063723 0.0013430973 0.002935168 -0.0053428113 -0.0056095715 0.0054852115 -0.00029220205 0.006532584 0.004242912 -0.0067483564 0.00569128 0.0012247218 0.0008326759 0.0030337109 0.004951586 -0.0009969341 0.0028066337 -0.00056764146 -0.002108876 -0.006695287 0.001423634 0.0013933554 0.0029628533 0.0013897015 0.0010564964 0.006673907 -0.0069938386 0.002030294 -0.0053295786 0.0049154633 -0.0038466665 0.0047502685 -0.0021330437 0.006511288 0.0041556642 0.005628729 0.007634677 -0.008756478 -0.0060292026 0.0014773591 -0.0025041385 -0.004048686 0.0008745385 0.0073630535 0.001941071 -0.0064650928 -0.006901298 0.005468112 -0.0060918992 -0.0059924363 -0.0010605344 0.0010003916 0.0019528216 0.0060256864
法 -0.0068355114 0.00417849 0.0034160444 -0.0011439687 -0.0018954204 -0.0020383517 0.0022366922 -0.00680712 0.00722574 0.0018611124 0.001294708 0.0018249933 5.7373574e-05 -0.004229576 -0.0041365684 -0.00036959 0.0021533018 -0.007463115 -0.0005214453 -0.0009126201 -0.00037414726 0.0039495206 0.0025933208 0.007045609 0.005836466 -0.0055362773 -0.00062197156 0.0064279754 0.0055328016 -0.0077219917 -0.0044709817 0.002753679 -0.0037156073 -0.0048875534 0.0055168387 -0.005630613 0.0026362212 7.707354e-05 -0.0041669975 0.0075148093 -0.0030799625 0.0041912235 -0.0022460162 0.0011477346 -0.0063414737 0.004490904 0.00021208658 0.001790421 0.0016876495 -0.003183333 -0.0043233833 -0.002411118 0.00548959 -0.006281079 -0.0037876577 0.0016703256 -0.0028348046 0.007533987 -0.0011462853 -0.003085845 0.008200479 -0.0016161252 -4.3855915e-05 -0.0027298338
要 -0.0036056817 -0.0025902009 -0.006405548 -0.005571686 0.002001697 -0.000272433 0.0052583464 -0.0026645053 -0.0050009685 -0.00080891117 -0.0048491564 0.0016577576 -0.0012048202 0.0076457495 0.00039846715 0.003727049 0.0077274675 -0.002083854 -0.0063949623 -0.004481597 0.0011274208 -0.00623321 0.0021337173 -0.007388799 0.0050434973 0.0011000218 -0.004392765 -0.003718444 0.0071505075 0.0049959337 -0.00024160344 0.0068478463 0.002937657 -0.0023718346 -0.0074369754 0.005368241 0.0033911436 0.0001980144 -0.005162761 -0.00016589789 -0.00056358165 0.0041645514 -0.0008238349 -0.0009731703 -0.0015657494 -0.004930451 0.00018646146 0.00082458305 -0.0009031284 -0.0043752813 -0.007765333 -0.0056164525 0.0045873714 -0.0019416345 0.00054716936 -0.0070183473 -0.004139579 0.004489704 -0.0033373502 0.0012211214 0.0059817666 0.0013876846 -0.0061148694 -0.0015804338
口 -0.001350238 0.0038630026 -0.0018149544 0.0039933054 -0.00034062756 -0.005693972 0.0007805782 -0.007633546 -0.0012053021 0.0016418814 0.006767521 0.0066924086 -0.0026400003 -0.005045812 0.0032493984 -0.0001330329 -0.006959117 -0.0068304646 -0.0021180434 -0.0017043648 0.0012094027 -0.004631309 0.000918154 -0.007075075 0.006294764 -0.0057422714 -0.006326371 0.006176262 -0.005380982 3.8022365e-05 -0.0066227545 -0.0010786891 0.00017171663 0.005337151 -0.007398298 0.00074222084 0.0053130374 0.0049835993 0.0007610537 0.0055798446 0.001992974 -0.0040431 0.0022985572 -0.00417693 -0.003766918 0.00333534 -0.0043078247 0.006775493 -0.0014287091 -0.0060276724 0.006100403 -0.0061450554 0.0030052953 0.0025362358 0.0024564979 0.0012982283 -0.0064093396 0.0021017366 -0.0021638812 0.0010773155 -0.0017544669 -0.0044819904 -0.0025289354 0.0004867766
合 0.005752537 -0.0010998867 -0.0007249667 0.0049805148 -0.0016875339 -0.0039271596 -0.0046706987 -0.0033272975 -0.0040057856 0.0014186128 -0.003774108 0.004248734 0.00071437727 0.0054600057 -0.0041261907 -0.0044391262 -0.0048843394 -0.006939392 -0.0053013363 -0.0037550235 -0.0010737214 -0.007575466 -0.0046479255 5.9655267e-05 0.0033425025 0.003107925 0.0079995375 0.0042612865 0.0014063504 0.0030967956 -0.00541108 0.0041697356 0.001398298 0.0035137336 0.0057466016 0.007729752 0.0071764877 0.004758131 -0.0066159726 0.0053385026 0.0002504395 0.0031075696 0.0014633047 -0.005661018 6.149731e-05 -0.0049947426 -0.0066320035 0.0012162027 0.0070442013 0.00080790994 -0.004535764 0.0038268068 -0.00079710764 -0.007342204 -0.006347442 -0.0032762408 -0.0071721664 0.0028675392 -0.0009788992 0.0041779676 0.0072861025 -0.006942634 -0.0041168835 -0.0013923655
出 0.001450358 -0.002316703 -0.0042190608 0.007111884 -0.006313617 -0.0051893215 -0.0028933638 0.0034671607 0.0067364005 -0.001577494 -0.0010335369 0.006653062 -0.0051242136 -0.0064590224 0.0017883099 0.0064992374 -0.0037076361 0.0074646138 0.0046730377 0.0012795026 0.0029938803 -0.0045914385 0.006800963 -0.006236992 0.007366213 -0.006663234 -0.0073289815 -0.0010120103 0.0057105436 -0.006105727 -0.0007418968 -0.0049557504 -0.0004801067 0.0006926641 0.003174809 -0.0011472831 0.0064818347 0.0068948213 0.007027331 0.0020422302 0.0005035975 0.00030588004 0.00042326297 0.004365242 -0.0014004464 0.0017553769 0.007703815 -0.005446696 0.0010038853 0.005302197 0.003810941 0.0014593062 -0.0017383334 0.0041049207 0.0035051182 -0.0017355134 -0.00017928745 0.0016180893 -0.004330956 0.0044492837 -0.005151917 0.0011532331 0.0067519844 -0.0003057165
C -0.0012674996 -0.004259599 0.0061851325 -0.0036914123 0.00660504 -0.00045049706 0.0015351565 -0.005714148 2.9076806e-05 -0.00085490744 0.0011081242 -0.0054027312 0.0069400244 -0.006853099 -0.0054902504 0.003084578 0.0030402564 0.0069565736 -0.001985224 -0.0031735937 -0.0070726066 0.0037073393 0.006839936 0.000297081 -0.0068848645 0.007223717 -0.007747239 0.004086633 0.006360242 -0.0067228572 0.0010020633 0.0012860548 0.004460056 -0.006345994 0.006831274 -0.0073404163 0.0027939412 0.0012605697 0.00062927813 -0.0062800255 -0.00501344 -0.0049826833 -0.006698577 0.0037742555 0.004555566 0.004244678 -0.006936591 -9.334948e-05 0.0038115608 -0.008051918 0.0018642901 -0.006965369 0.007988699 -0.006180676 0.0068997224 0.005142319 0.0036201247 0.0071036792 -0.0007489748 -0.0060367715 0.0023021363 -0.0023111645 0.006760706 -0.0055862335
串 0.0037156171 -0.0032931839 0.007316283 -0.0030882244 -0.0012186666 -0.007367006 0.002260034 0.0008476648 -0.006526313 -0.0009028368 -0.0073671658 -0.0066513065 -0.0019994974 0.005598327 -0.005108034 0.00092322996 0.0052360296 -0.00570286 -0.00227493 0.005530013 -0.0013731137 0.0042221174 0.0057252785 -0.0062130843 0.007262367 -0.005937883 -0.00068132 0.006066351 -0.0019725403 0.0057735518 0.0065825377 -0.004640136 -0.003868538 -0.0059409705 0.005515211 -0.0057779937 -0.0059874253 0.0028041813 0.0017937933 -0.00084954395 0.0035211255 -0.0028264741 0.0055662566 0.0036918002 0.0039469977 0.0012864214 -0.0063329455 0.0044411663 0.0026111912 -0.0054744165 -0.00013510087 0.0050094374 0.00044495845 0.0012635953 0.0052525313 0.0059534702 -0.0041063298 -0.0046867235 -0.0055851634 0.0027298117 -0.006955606 -0.0046594013 0.00293346 -0.003230945
函 -0.0017998484 0.0020038646 -0.0061308346 0.0007857096 0.0066545475 0.0013374978 -0.0073889755 -0.0036356382 -0.006661502 0.004137392 0.0040247086 -0.00029396583 -0.0025680438 0.0069024516 -0.0022255327 0.0005778658 0.001802848 -0.0051868577 0.0015084986 0.0015896686 -0.005195018 0.007264834 0.003925475 0.00087654917 0.0068069994 -0.00072502333 -0.0035494156 -0.0040962426 0.006008394 -0.0047658747 -0.0041580754 -0.005974888 0.0040452112 -0.004597041 -0.00264983 -0.0037832279 0.0057771862 -0.006264225 -0.0046537807 -0.006781415 0.006380172 -0.005255457 -0.0019379059 0.0060883085 0.0041135396 0.0066703395 -0.0008097968 -0.0005209822 -0.007103402 -0.0047666333 0.0017493786 -0.0055669895 0.0051812693 -0.0045760195 -0.00626022 -0.0046162377 0.0028255477 0.0057952325 0.0009008072 -0.004229883 -0.0065170866 0.0022585418 -0.0021026998 -0.004774143
/ 0.006579878 0.0028863798 0.003200481 -0.007506012 -0.0008967587 -0.007195645 -0.0076273265 0.00231319 -0.0049077347 -0.002617379 0.0012158805 -0.0062444764 0.0015479061 0.0033211766 0.00054120464 -0.0010947951 0.0057235756 0.0066918763 0.00018580268 -0.0008134611 -0.0013723536 -0.0064376853 -0.0047224937 0.008984664 -0.0055678287 0.0035066304 0.00032399857 0.0024422698 0.0047440697 0.006177131 -0.004279837 -0.007227169 -0.007495082 -0.009278834 -0.005797391 -0.004858679 0.0011488453 0.010456369 -0.005842894 0.0066948277 0.007296809 0.0036346526 -0.0011787678 -0.003818071 0.0075175418 0.0030968995 0.0029854043 -0.00058463524 -0.0009647103 0.0058626872 0.005887803 -0.006553798 -0.0026678713 0.009411019 -0.0022731668 -0.0016271678 -0.0025525321 0.008554251 0.0016992587 -0.0063641365 -0.0025573364 -0.0037211801 -0.0044313665 -0.003650327
振 0.0057847444 8.125374e-05 0.0013221934 -0.0066153696 0.005589759 0.0033235576 -0.0042459685 0.00032981005 -0.0045744553 0.0023343107 0.0058711595 0.0060311453 -0.0067679714 0.0047001233 -0.0035915172 0.0064377408 3.785015e-05 0.0007664896 0.0039891936 0.006779619 0.001982151 -0.0047693606 -0.0076164254 -0.0010443148 -0.007484718 -0.0011186331 0.0064958083 0.0036527894 0.0015082407 -0.0044085346 -0.0023462789 0.0063415137 -0.00082305004 -0.005697046 0.0018307791 0.0034128241 -0.0046686516 -0.0073995534 0.006427283 0.0076518473 0.0038353084 -0.0018086002 0.0022942955 -0.0053180656 0.00652169 0.0051379423 -0.000773175 -0.00783349 0.0075024907 0.003457846 0.0011020494 0.0067711435 -7.186619e-05 0.0068342984 -0.0033382878 -0.0075750714 0.0014952251 0.0060396604 0.0058692414 0.005190919 0.0049033198 0.0013520144 0.000370731 3.243247e-05
单 -0.003280857 0.001018055 -0.0014622 0.007793268 -0.0025409854 -0.0069110435 -0.0039725793 -0.0038099103 0.0032577452 -0.0047630104 0.0034830095 0.0042774584 0.0003022387 -0.0026387149 0.004822183 4.580392e-05 0.006404697 0.0036518872 -0.00018076359 -0.0076331384 0.0041362895 0.00288052 0.00082438684 -0.0062292214 -0.0027841849 -0.006662929 0.006715159 0.0077618975 -0.006621467 0.0025928796 -0.0043188008 -0.0020014541 -0.0012023429 -0.0016481649 -0.0012193242 -0.0068570334 -0.006115615 -0.00010916944 0.0022926342 -0.0037631844 0.00223168 0.004965211 -0.007348866 0.0060199825 0.0012830113 0.0024151218 -0.006616204 -0.008262934 -0.0045623668 0.0025363304 0.0072711753 -0.0025597468 0.0049218503 -0.0019363947 -0.0041730963 0.0021691371 -0.005981198 -0.0030653267 -0.0007976056 -0.00026589152 -0.0071709896 -0.0081480155 -0.0018017967 0.007264606
系 -0.0002700175 0.006107042 0.0019438695 -0.005923683 0.0053024534 -0.0016816146 0.0050135283 0.0004459874 -0.002739146 -0.00707238 0.00025659378 0.0060697626 -0.0008600678 0.00646853 0.0027224373 0.006467194 0.0018183178 -0.0031513057 0.005367361 0.00712224 -0.004572071 -0.007749652 -0.0065446366 0.0015273532 -0.0064849886 0.004128454 0.0032746904 -0.004436164 0.0066032023 0.005960684 0.006818792 -0.0027363913 0.0010807863 0.006099622 -0.0015096396 -0.001649986 -1.9695835e-07 -0.0009703609 0.0064633843 -0.0038385505 -0.0027110481 -0.0036504248 0.007703157 -0.005212824 -0.0055906093 0.0047511756 0.0041796383 -0.0052222405 0.0069842297 0.006112628 0.0057205562 0.006289118 0.0071394728 -0.003406354 0.007184696 0.0038241562 0.0066804197 0.005738932 -0.0033883066 -0.0048419777 0.0006931947 0.0033717444 -0.0056351083 -0.0077537554
激 -0.0029219282 0.006418575 -0.00013298202 -0.0061717713 -0.0009815352 0.0022580044 0.0067319493 0.0071503953 -0.004663845 0.0048025576 -0.0041823196 -0.004489447 -0.00038035895 -0.00606048 0.001319172 -0.0054773027 0.00392887 -0.0011041657 0.0032385474 -0.0026663956 0.0008982442 -0.0011114916 -0.0038223967 0.0045822724 -0.0074661714 0.0017301175 0.0024566797 -0.005147635 -0.0052666017 -0.0012801909 0.0021458105 -0.002684237 -0.008172278 0.0047272327 0.0036155316 0.0007570406 -0.0016405341 0.0022836498 0.0016990084 -0.005317302 0.0016432503 0.005351816 0.0046784002 -0.00019918742 -0.0059817084 0.005471228 0.0057024243 0.0007208943 0.0045869267 -0.0024603182 0.0030589146 0.0009075096 0.007926087 0.007750909 -0.0039849267 -0.007870118 0.0020631535 -0.0060152737 -0.0017577437 -0.004437373 0.0034625183 0.0012227861 -0.0057955286 0.0024607705
部 -0.006694987 -0.007053415 -0.005593915 -0.0023339305 -0.0014681093 0.0011915824 0.00414728 0.000558785 -0.006445662 -0.002582946 -0.0057515088 0.006386899 0.003717945 0.004747015 0.006370472 0.00038917057 -0.0020789157 -0.0012719155 0.002135755 0.0042174826 -0.001475102 0.003547785 -0.0072585517 0.002761756 0.006970976 0.007044023 -4.2315183e-05 -0.00036934201 0.0067220693 -0.005521224 0.0062905545 0.0012303535 -0.0072689224 -0.0028295007 0.0073675704 0.0048993975 -0.0066316184 0.0036473563 -0.0032270073 -0.0025886812 -8.338288e-05 -0.0030259257 0.002886838 0.002354203 0.0020485718 -0.0034797022 -0.0072596166 -0.0032426673 -0.008106608 0.0038541004 0.0073603354 -0.00031646737 -0.0014647647 -0.0052586906 -0.003589289 -0.0060660657 0.0028634812 0.00092661596 0.002009931 -0.0054924507 0.0018213193 -0.0062899482 -0.0024826098 -0.001524372
程 0.0072583165 0.0049143587 -0.0018525212 0.0014858415 0.0073961765 -0.0015519679 0.0016608052 0.0001439823 0.0053734165 -0.00032521016 -0.0059855673 -0.0008024717 0.002192069 0.00259128 -0.005850527 -0.0020716602 0.0021912858 0.006184855 0.0008916265 0.005312341 -0.00022724725 0.0050517963 0.0026739645 -0.006029644 -0.006708765 -0.007029569 -0.00041616967 -0.0024351676 -0.007637828 0.0040787174 0.0072452645 0.0012012005 0.003443116 -0.0060071405 -0.0035313522 -0.005288925 0.00429182 -0.0013839048 0.00030783858 -0.0019311048 0.0078053894 0.004166086 0.0048876475 0.0046781115 0.0074335565 0.008153719 0.002028417 -0.0040086876 0.0050834613 0.00580573 -0.0033313634 -0.0064139585 -0.003751559 0.0034079626 -0.0049020234 -0.0076850075 0.00036195226 0.001069206 0.0025292558 -0.0065233703 -0.0056763287 0.007072466 0.005716987 0.004658943
导 0.002201735 0.005139052 0.0017898942 -0.0020449206 -0.0017123894 0.001128124 -0.007280351 0.0069622514 -0.0032840793 -0.0056051714 -0.0047481586 0.006246187 -0.002460733 -0.0070254537 -0.0010551785 -0.0037650822 -0.00011702273 0.0056800433 0.0026785568 0.006449669 0.0006031492 0.0007467094 -0.00023889994 0.007897926 -0.0024446421 -0.0041969796 -0.005310648 -0.004402978 -0.0034680716 0.0036750613 -0.006759586 -0.006971786 -0.0064910343 0.0007493891 -0.00013841996 -0.0010267756 0.0064919465 -0.006467811 -0.0073084873 0.0070601166 -0.0061343275 0.002798513 0.0061666593 0.0028156508 0.0047335564 -0.002810334 0.0013716357 0.0008789185 0.0024805502 -0.005125619 -0.0038603486 0.007506874 0.0023103794 -0.007143318 0.0074227965 -0.008193332 -0.0045562023 0.0071975617 0.0073940326 0.0020109948 0.0010197797 -0.0036081795 0.003221792 -0.0057054
互 -0.004143322 -0.002568196 -0.00018953829 0.004918336 0.0076488126 0.002048494 0.0037247434 -0.00486722 -0.0024501313 0.001992503 0.00097351964 0.006727634 -0.00714282 -7.798314e-05 0.0029912496 0.0066212523 -0.0070886738 -0.004673453 0.0012438511 0.0041211857 -0.0041193473 0.0024381333 0.0042599365 0.00017835927 0.002075073 0.0006145954 0.0065551884 -0.004229642 0.0071272394 -0.0012843995 0.0024404514 0.001960217 -0.00012871728 -0.00731784 -0.0056978343 0.0030254808 0.0007866957 -0.0021626542 -8.15019e-05 0.0018579274 0.0056883343 -0.0075998614 0.0073640537 -0.0060795015 0.0041190293 -0.004053909 0.0022692862 -0.007886329 -0.0070720245 0.0018156721 0.007121029 0.0009977502 -0.0064464007 -0.0024463984 -0.00018146247 0.0022848 0.005334474 -0.0019418903 -0.0015867058 0.006231058 -0.006720607 0.00072626857 -0.00096122286 0.0075651146
关 0.0036886204 -0.003201374 0.0011375034 0.0032273175 0.0041652075 0.0020149213 -0.004433261 0.0007345451 0.0039337394 -0.004412835 -0.0031135213 0.0016529777 -0.0056058248 -0.0068598688 -0.005765779 0.0031210356 0.005354111 0.0052986806 -0.004180477 0.0018571435 0.005849977 -0.006056644 -0.0024114838 -0.004849974 -0.004331075 0.0075139957 0.0069920067 0.0062255827 -0.0040990775 -0.005061969 -0.0064188857 -0.0047997404 0.0066249506 0.002991247 -0.0065312004 0.00043360572 0.001223785 0.0028092999 -0.003738252 0.0055725873 0.0024004544 -0.004817666 -0.0014907256 0.0025756692 -0.0023405142 0.004248972 -0.007313632 0.0020900387 -0.0062919487 0.0039873724 -0.0032455141 -0.00075978495 -0.0026211883 -0.0046218517 -0.0039041266 -0.0022914626 0.005056137 -0.0030349242 0.00487456 -0.0039462536 -0.0025470715 0.0013826789 0.0026363079 -0.0032875512
号 0.0048963437 -0.0045696218 -0.0007923868 0.0015005837 -0.002594395 0.00039700978 -0.0073378813 -0.0008274342 0.0063394476 -0.0051447935 0.0012334234 0.0048300424 -0.0026943774 0.0060753943 0.003671031 0.0061740796 0.0028618053 0.008129508 0.00070312043 0.0048414506 0.002222898 -0.0050710985 -0.0024253242 -0.0010996608 0.00040254317 -0.0005280258 -0.004453201 -0.006247761 -0.0010861297 -0.0014383638 0.007099716 -0.0023690895 -0.0077156466 0.0015408351 -0.006172083 -0.002356327 0.00072397303 -0.002750982 -0.004365771 -0.0070969597 -8.810596e-05 -0.002692401 0.007720574 0.0035359906 -0.0064487825 0.006372481 -0.004395902 -0.008655431 -0.0029296686 -0.006080634 -0.00741918 0.0020641133 0.0018412228 -5.8276102e-05 -0.007233141 0.0007082535 0.0035806606 0.0012096546 -0.00060897635 -0.0036800955 0.0034363354 0.0031302464 -0.0012722167 -0.0014380458
2 0.0012656552 0.0038567497 0.0006848109 0.0011433646 0.0076117003 -0.008436161 -0.0012559394 -0.0042536086 0.00039800102 -0.009063386 -0.00487399 0.0050360207 -0.0006061409 -0.00179804 -0.0032752892 0.010066171 0.0017122488 0.0072671 -0.0043457407 0.0033923874 -0.0067550447 -0.003605962 -0.00037219477 -0.0056393067 0.0045280713 -0.00018893246 -0.0069961846 0.002374075 0.0043580867 -0.0039138724 -0.0051779323 0.0011846514 -0.008117995 0.004573107 -0.0020702733 0.0048107095 0.0041614412 0.006483504 0.0074706324 0.0049511506 -0.0072931293 -0.00015791414 -0.0023361102 0.0023046061 -0.0020354816 -0.00060728734 -0.0033773915 0.00021797002 -0.0010557933 -0.003375557 -0.00477856 -0.0031906546 0.008315827 0.006254696 -0.003401565 -0.0035110675 0.002829081 0.0014055505 0.0068297004 0.0025590332 0.0075106085 0.0005954762 -0.00073581457 -0.0018315263
组 0.0042498535 -0.0016271126 -0.00747199 0.00019542892 -0.0043669515 -0.005642869 -0.005051234 -0.006797729 0.004832402 0.00041835842 -0.00032267146 0.003553538 -0.0045417394 0.00053962815 0.0036739174 0.007670004 -0.00012560803 0.00675074 0.006112352 -0.0023056932 -0.003412345 -0.0074121994 0.00013252531 0.0033428136 -0.0041970173 -0.003871477 0.0043717343 -0.0034264475 0.003045185 -0.0070726187 0.00071906194 -0.0018659973 0.0055946847 0.0010553359 -0.0065982244 0.0022034238 -0.0042243735 0.0052187303 0.0064369063 0.005887438 -0.00054226513 -0.0070341327 -0.0054596877 -0.00518292 0.0009809951 -0.004210194 0.0026821455 0.0060099694 0.0029137293 -0.0034787653 -0.0024056435 -0.004264406 0.00026261626 0.006468971 -0.0026669567 0.0035218329 -0.005169518 0.00036688583 0.0011851033 -0.0014860147 -0.0059479563 -0.004906998 0.0014936664 0.0060704383
生 -0.0039046565 0.0074710418 -0.0048127933 -0.003462432 -0.001604503 -0.0045811995 -0.003858494 -0.0030711843 -0.006143425 -0.007777346 -0.0027792896 -0.0046678656 0.0024044982 0.004690735 0.0018594875 0.007091488 0.0075380416 0.00621326 0.006660596 -0.002403563 -0.004039496 -0.007708805 -0.0031030362 -2.9668896e-05 -0.0016466975 0.0039617703 0.005080316 -0.0052343863 0.0017032775 0.0026765063 0.005877982 -0.0011072692 0.0012794284 -0.00795336 -0.004859957 0.0046842573 0.0071841064 -0.0004737829 0.00062065123 -0.006131685 -0.0063811806 -0.002609699 0.0016828817 0.0069012074 0.006605456 0.0003235837 -0.003642656 -0.0031796037 -0.0016634781 -0.0066499193 0.006342654 -0.0014542736 -0.00240929 0.007942039 -0.0020150053 -0.0067262594 -0.0010434885 0.0012600942 -0.0013858464 -0.005848104 0.00068053295 -0.0027809672 0.0016648585 0.00488763
包 -0.0017513015 0.0066348435 0.007970331 0.004638655 -0.007254399 -0.0036926097 -0.0006720019 0.004396709 0.0059386296 0.004226346 -0.003331054 -0.0063681817 -0.0043948567 0.0002466089 0.0057789013 0.0005795704 -0.002341161 -2.4605612e-05 -0.0032842762 -0.0025911096 0.0065287743 0.00042411665 0.00019591236 0.002169309 -0.0020203483 0.0038702895 0.0014625979 -0.005221702 -0.0021918092 4.5312478e-05 -0.00015303941 0.007243988 -0.0040734867 -0.00054662686 0.0056166174 0.0018031402 0.0027354474 -0.0054703876 0.0069069667 0.005129509 0.004703741 -0.0014941186 -0.005721605 -0.0017458325 -0.0035314206 0.0056945565 -0.000836089 0.0020726686 0.0054694307 -0.0065248157 -0.0023236799 0.0037794455 -0.0034308303 0.003317782 -0.002826399 0.00013067872 -0.004256934 -0.0030525909 0.0013263614 0.0019248278 0.0033344356 -0.00117732 0.007915247 0.0025777507
如 -0.001789934 -0.0013410528 0.0067923223 0.0050181802 0.004853834 0.0065263268 0.0072276336 -0.004017654 0.0071983947 0.0029866446 0.0018797171 0.00029596398 -0.0060563576 -0.0068767853 0.0057719634 0.00090176077 -0.0059401495 -0.0041421186 0.0003971437 -0.0019687852 0.0042071617 0.004496251 0.0074426667 -0.0015371562 0.0070914663 -0.0026605504 -0.0023720376 -0.0025903357 0.0042984416 -0.002726128 -1.1122841e-05 -0.006387847 -0.0020877607 -0.005156136 0.0026301679 0.0016512002 0.0052538607 -0.0036913662 -0.0008072285 -0.001689217 0.002430398 0.0016695944 0.0038529073 0.0074402606 -0.007662409 -0.0052652713 -0.0039218767 -0.0016424792 0.0069482303 -0.00806218 0.0068860184 -0.0058302386 -0.007543331 0.007128995 -0.006222815 0.0058304328 -0.00376893 -0.001039409 -0.004784193 0.0033240956 -0.00011689509 0.0027475108 0.006775686 -0.00059384207
换 0.0074775596 0.005020271 0.0024192368 0.0053013726 0.0068502654 -0.0065613817 0.0046317037 -0.006206942 -0.0072934246 -0.0034432376 -0.0054076393 0.0060698376 0.00031253728 0.0036232069 -0.00529396 0.007633208 0.004865745 0.0026856454 -0.0013475324 -0.0023654252 -0.00023199528 -0.0006759753 0.00083641376 -0.0012809043 0.002624791 0.0012843376 -0.0011921737 -0.006339329 0.0076160748 -0.005926047 -0.0036919094 0.007303345 -0.0023442835 0.002778135 0.006537078 -0.0036603704 -0.0017869651 0.003083336 0.006725169 0.0049824454 0.002746666 0.0068376088 0.0014908542 0.0006975841 0.0024967694 -0.005743394 0.0077626645 0.003227453 0.0007452544 -0.0037964878 -0.00071041984 -0.00570161 -0.0038342627 0.0025557906 0.0062366696 0.0034890496 -0.004795955 0.003277334 -0.0012672574 0.0069057094 -0.0018153623 -0.0076025827 -0.0067816125 0.0006634776
